{"layers": [{"num_inputs": 15, "num_outputs": 64, "weights": [-0.00017142639262601733, -0.1822592169046402, 0.2757739722728729, 0.2901689410209656, -0.06553880125284195, 0.057009633630514145, 0.12184683978557587, 0.38736075162887573, -0.13334278762340546, 0.2849664092063904, -0.0980280414223671, 0.34480714797973633, 0.03569985181093216, -0.10630019754171371, -0.2902768552303314, 0.27066853642463684, 0.17883482575416565, 0.12106606364250183, 0.11795426905155182, 0.00550306960940361, 0.12771902978420258, 0.23027890920639038, 0.0397600457072258, -0.12930896878242493, -0.30371686816215515, -0.06880629807710648, 0.07116881012916565, -0.10615399479866028, -0.32509878277778625, 0.5857914686203003, -0.31733691692352295, 0.34651288390159607, -0.2768220901489258, 0.014421151019632816, -0.24551941454410553, 0.23267719149589539, 0.205953449010849, 0.700196385383606, 0.0017100032418966293, 0.11492226272821426, 0.036314573138952255, -0.8655282258987427, -0.021691173315048218, -0.03827105090022087, -0.007788168732076883, 0.18679501116275787, 0.2269064337015152, 0.37142956256866455, -0.256812185049057, 0.1946590542793274, 0.19803376495838165, -0.05482110381126404, 0.09857950359582901, -0.16470535099506378, 0.010096797719597816, -0.0019334646640345454, -0.5291658043861389, -0.06141304969787598, -0.5368289947509766, 0.014075379818677902, 0.2442714422941208, -0.31443682312965393, -0.19412751495838165, 0.11604556441307068, -0.3073679506778717, -0.09169250726699829, 0.17921799421310425, 0.08809159696102142, 0.037463776767253876, -0.10809209942817688, -0.0880957618355751, 0.35930562019348145, -0.036177318543195724, 0.01625979132950306, 0.16804972290992737, -0.05108901858329773, 0.011616358533501625, -0.14936783909797668, 0.023667018860578537, 0.0315774567425251, 0.2695026695728302, 0.2317468672990799, -0.10416804999113083, 0.20340730249881744, 0.059787552803754807, 0.011039099656045437, 0.016617033630609512, -0.0734994187951088, 0.07778149098157883, 0.40258702635765076, 0.06644240766763687, 0.29371604323387146, 0.0013690909836441278, -0.07839865982532501, 0.16009891033172607, 0.16700467467308044, 0.2035902887582779, 0.061785951256752014, 0.14042513072490692, -0.11287514120340347, 0.07531660050153732, 0.8831769824028015, -0.06262320280075073, -0.35290196537971497, 0.22822408378124237, -0.6662943959236145, -0.035827938467264175, -0.22901281714439392, -0.11234354227781296, -0.12802022695541382, -0.046529240906238556, -0.02759697288274765, 0.9366116523742676, -0.11800440400838852, -0.07741588354110718, -0.3598020374774933, -0.3842408359050751, -0.4574089050292969, 0.106338270008564, 0.20886649191379547, -0.09703773260116577, -0.06288888305425644, -0.010004236362874508, -0.36417022347450256, 0.019038761034607887, -0.12105082720518112, -0.2309322953224182, -0.13522474467754364, 0.12214645743370056, -0.12000016868114471, 0.016286242753267288, 0.5783325433731079, 0.026167793199419975, -0.15837910771369934, -0.3447553515434265, -0.058898892253637314, 0.06704453378915787, 0.047462932765483856, -0.016487760469317436, 0.09229107201099396, 0.10855763405561447, -0.10802365094423294, -0.1902957260608673, 0.2861633896827698, -0.14429131150245667, -0.2749885618686676, -0.308091402053833, -0.021607400849461555, 0.5438762903213501, -0.3612007200717926, -0.1955450028181076, -0.17456531524658203, 0.08302842825651169, -0.10676334798336029, 0.21767522394657135, 0.08978983014822006, 0.059447359293699265, 0.07986794412136078, -0.2665623426437378, 0.23418015241622925, 0.18054765462875366, 0.04618923366069794, 0.24507927894592285, 0.09689775854349136, -0.07808060199022293, 0.14803490042686462, 0.13192205131053925, 0.08442234992980957, 0.09665138274431229, 0.23661281168460846, -0.05018589645624161, -0.11543433368206024, 0.1671789586544037, -0.12440083920955658, -0.24353523552417755, 0.11547413468360901, 0.047177910804748535, -0.27838343381881714, -0.32514312863349915, 0.04625149816274643, 0.2848634719848633, 0.20073573291301727, -0.18060946464538574, -0.040136538445949554, -0.01823866367340088, -0.09222645312547684, 0.02501191943883896, 0.35281190276145935, 0.26954805850982666, 0.2715412676334381, -0.06250572949647903, -0.06173509359359741, 0.18578249216079712, -0.025487536564469337, -0.2796868085861206, -0.5187159776687622, 0.13562263548374176, -0.41993048787117004, 0.06279914081096649, -0.2816700339317322, 0.20268110930919647, 0.15142986178398132, 0.645206093788147, 0.07369093596935272, 0.31522175669670105, -0.1594579517841339, 0.1818530112504959, -0.11625316739082336, -0.005397722590714693, -0.4931028187274933, -0.01666969060897827, -0.02093084342777729, 0.11779928207397461, -0.16798993945121765, -0.022524302825331688, 0.029409145936369896, 0.01980997622013092, 0.043944284319877625, -0.09090051800012589, 0.1649443507194519, 0.13443374633789062, 0.07956555485725403, -0.3311617076396942, -0.4893580675125122, 0.023417741060256958, 0.32023411989212036, 0.20743736624717712, 0.1400778740644455, -0.37313687801361084, -0.13272836804389954, 0.1540699154138565, -0.10796356946229935, 0.17112590372562408, 0.06506985425949097, 0.22658278048038483, -0.047892309725284576, 0.255988210439682, -0.348609060049057, 0.1401943564414978, 0.19805288314819336, 0.5182309746742249, -0.20362097024917603, 0.46262747049331665, -0.3542220890522003, 0.303109347820282, -0.043780289590358734, 0.2326282113790512, -0.4283228814601898, 0.13615714013576508, 0.1339966505765915, 0.40182095766067505, -0.233525812625885, -0.30728814005851746, -0.02862405963242054, -0.1833917796611786, 0.23388774693012238, -0.033642400056123734, -0.11975118517875671, 0.016642991453409195, 0.026067394763231277, -0.1732800304889679, 0.19381141662597656, -0.45854002237319946, -0.3016219735145569, 0.3155675530433655, -0.13052992522716522, 0.5155889391899109, 0.12798947095870972, 0.028879007324576378, -0.1798662543296814, 0.2938989996910095, -0.2742694914340973, 0.2884739339351654, -0.23091785609722137, 0.49148356914520264, -0.26319006085395813, -0.08321608603000641, -0.20046596229076385, 0.28537264466285706, 0.2200755625963211, 0.2646403908729553, -0.10273341089487076, 0.3095821440219879, -0.11497414112091064, -0.6440891623497009, -0.28293919563293457, 0.05938785895705223, -0.0182231105864048, 0.050980426371097565, -0.008420051075518131, -0.011063187383115292, 0.0019389294320717454, 0.3933637738227844, -0.12020500004291534, 0.3233144283294678, -0.1523565798997879, -0.3264634609222412, -0.011162607930600643, 0.11985635757446289, 0.06917046010494232, 0.09284060448408127, -0.14881019294261932, 0.17436382174491882, -0.3269745111465454, 0.34162959456443787, 0.1711171418428421, 0.1755198985338211, 0.25832638144493103, 0.10262290388345718, 0.10474246740341187, 0.0027568775694817305, -0.3472178280353546, -0.2632892429828644, -0.16300396621227264, 0.26835164427757263, -0.08329150080680847, -0.10654886066913605, 0.2599283456802368, -0.4702107608318329, 0.1096818670630455, -0.13070231676101685, -0.17106035351753235, -0.1302212029695511, -0.09996901452541351, -0.21156096458435059, 0.26660528779029846, 0.11169784516096115, -0.06847105175256729, -0.5027241110801697, -0.2715909779071808, 0.14839845895767212, 0.18028976023197174, -0.19408930838108063, -0.16178995370864868, 0.1222878098487854, -0.16213974356651306, 0.05401741340756416, -0.2701524794101715, -0.05103997513651848, -0.17669689655303955, 0.11220341920852661, 0.6052709221839905, -0.0565294548869133, -0.20117536187171936, 0.1375931352376938, 0.2606661319732666, -0.18932843208312988, -0.0003608370025176555, -0.04635320231318474, -0.2610761523246765, -0.2033090442419052, 0.08434689044952393, -0.009269087575376034, -0.022267257794737816, -0.06882268190383911, -0.10944995284080505, -0.0951627790927887, 0.17905943095684052, 0.3037852942943573, -0.21921038627624512, -0.11905328184366226, -0.14581535756587982, 0.15319010615348816, 0.4073566794395447, 0.11248940229415894, -0.05567468702793121, -0.16451318562030792, 0.2281862199306488, -0.3558402359485626, 0.3963508605957031, -0.13948450982570648, 0.006914828438311815, 0.027988729998469353, 0.12607944011688232, -0.37746748328208923, 0.39767640829086304, -0.16203075647354126, -0.08738153427839279, -0.2824942469596863, -0.021949153393507004, -0.13500449061393738, 0.276828795671463, 0.4044821560382843, -0.17587502300739288, 0.31819602847099304, 0.2612191140651703, 0.42771831154823303, 0.040520112961530685, 0.277578204870224, -0.10625357180833817, -0.2360660582780838, -0.05412234365940094, 0.09214450418949127, 0.4977375268936157, 0.10674695670604706, -0.011976495385169983, -0.012861162424087524, -0.3531789183616638, -0.48699408769607544, -0.07955286651849747, -0.07363646477460861, 0.0687384158372879, 0.42898741364479065, 0.010129667818546295, 0.04795520007610321, 0.5509138703346252, 0.25869038701057434, 0.2811708152294159, -0.3462745249271393, -0.16580601036548615, -0.21783359348773956, -0.0024300122167915106, 0.1580619215965271, -0.1903039664030075, -0.013657291419804096, 0.048346322029829025, -0.396337628364563, 0.022874509915709496, -0.08626475185155869, 0.36400070786476135, 0.4053466022014618, -0.049906399101018906, 0.3369104564189911, 0.179424449801445, -0.044734351336956024, -0.359636127948761, 0.1880260705947876, -0.45709875226020813, 0.10785089433193207, 0.11948853731155396, -0.05875793844461441, 0.5089759230613708, 0.06323673576116562, -0.3455943763256073, -0.26133087277412415, -0.03603532165288925, 0.2654344439506531, 0.03833752125501633, -0.21731708943843842, 0.06982123106718063, 0.0660027414560318, -0.13745303452014923, 0.3254183530807495, 0.20985740423202515, -0.20513765513896942, -0.15270300209522247, -0.34907954931259155, -0.46765226125717163, 0.6712867617607117, -0.329426109790802, 0.23778991401195526, 0.27272266149520874, -0.027469517663121223, -0.15154442191123962, 0.07185489684343338, -0.13149304687976837, -0.05235995724797249, 0.08488040417432785, 0.07345174252986908, -0.29848361015319824, 0.036104872822761536, 0.09344234317541122, -0.1341007500886917, -0.3109004497528076, -0.22471274435520172, 0.9980175495147705, -0.21528863906860352, 0.4638047218322754, -0.5574226379394531, 0.21442440152168274, -0.18271948397159576, -0.258157342672348, -0.908765971660614, 0.2453981637954712, 0.10975822061300278, 0.29797765612602234, 0.5710728168487549, -0.35251370072364807, 0.05511240288615227, -0.23051618039608002, 0.17828628420829773, 0.07303289324045181, 0.3532786965370178, 0.018795760348439217, 0.03795936703681946, 0.0416141077876091, 0.00043527878005988896, 0.04646097496151924, -0.0738484188914299, -0.2576809525489807, -0.04180492088198662, 0.007681591901928186, -0.1526256650686264, -0.2868187725543976, -0.15803049504756927, -0.043228644877672195, -0.07159589976072311, 0.28264471888542175, 0.0442485548555851, 0.12355508655309677, -0.0736299380660057, 0.23574702441692352, -0.022892123088240623, 0.11026730388402939, -0.2510818541049957, -0.0718698725104332, -0.03457473963499069, -0.2564316391944885, 0.009208610281348228, -0.12579095363616943, 0.6802468299865723, -0.40830159187316895, 0.48271918296813965, 0.06716471910476685, 0.19452063739299774, -0.06559601426124573, 0.05142248049378395, -0.45082783699035645, 0.16794034838676453, 0.23859216272830963, 0.0437956228852272, -0.40796756744384766, 0.25217729806900024, -0.2774601876735687, 0.0297805517911911, 0.3953268826007843, -0.013270196504890919, 0.16310462355613708, -0.2433268129825592, 0.17409774661064148, 0.01936318352818489, 0.15663066506385803, 0.09819021821022034, -0.07675667852163315, -0.3622007369995117, -0.1516767293214798, -0.17546501755714417, -0.16382592916488647, -0.12432820349931717, -0.5992363691329956, -0.14553521573543549, 0.09456049650907516, 0.04518556222319603, -0.03133430331945419, 0.4475381672382355, 0.11427976191043854, -0.006810303311794996, -0.08594412356615067, 0.1806117445230484, -0.062026623636484146, -0.09345249086618423, -0.15325267612934113, -0.23812346160411835, -0.5006220936775208, -0.20303961634635925, 0.022046109661459923, 0.14958462119102478, 0.12936630845069885, 0.23888805508613586, 0.17209585011005402, 0.11190822720527649, -0.1458197832107544, -0.016194934025406837, -0.29865002632141113, 0.2722252905368805, 0.11183635145425797, 0.2704471945762634, -0.054375093430280685, 0.21068452298641205, -0.16302454471588135, 0.48100337386131287, -0.058274999260902405, 0.06845158338546753, -0.21859067678451538, 0.35523301362991333, 0.10161765664815903, -0.047919273376464844, 0.09698052704334259, -0.025200381875038147, 0.3707485795021057, 0.14717639982700348, 0.17157521843910217, -0.1721949428319931, -0.10752279311418533, 0.2669471204280853, -0.14733588695526123, 0.02172401361167431, 0.3366084694862366, 0.03773781657218933, 0.06490911543369293, 0.04589471593499184, -0.1897542029619217, 0.03651032596826553, 0.10309953987598419, -0.29838627576828003, 0.10448317974805832, -0.2005881816148758, 0.10722809284925461, -0.055179663002491, -0.42351263761520386, 0.18609006702899933, 0.11414295434951782, 0.39990922808647156, -0.0037370554637163877, -0.07329125702381134, -0.3193165063858032, 0.196356400847435, -0.13615725934505463, 0.2911810278892517, -0.006833539344370365, 0.0007384928758256137, 0.09182983636856079, -0.056945111602544785, -0.029308462515473366, -0.022090252488851547, -0.3048679530620575, -0.13522939383983612, 0.25847896933555603, -0.05770409479737282, 0.406423956155777, 0.19492821395397186, -0.18903103470802307, -0.21579572558403015, -0.1787181794643402, -0.16322822868824005, -0.12084027379751205, 0.13193218410015106, -0.42169708013534546, -0.2417755275964737, -0.7421223521232605, 0.1959933638572693, 0.1488860845565796, 0.455418199300766, 0.2658737599849701, 0.30937111377716064, -0.02330600470304489, 0.02058713324368, 0.17025336623191833, 0.15203911066055298, 0.1582462191581726, -0.06283142417669296, 0.3050472140312195, 0.07302180677652359, -0.6054549217224121, -0.22995902597904205, 0.6235101819038391, 0.07020211219787598, 0.3253759741783142, 0.11163664609193802, 0.345089316368103, -0.19236208498477936, 0.15951929986476898, -0.750482976436615, -0.23180165886878967, -0.10311760753393173, 0.028924301266670227, -0.07675379514694214, 0.26016074419021606, 0.3190571963787079, 0.10389427095651627, -0.2349637746810913, -0.1701880842447281, 0.014871889725327492, -0.2612040042877197, 0.1492135375738144, -0.2503106892108917, 0.1749156415462494, -0.2702951729297638, -0.03422798961400986, -0.21068432927131653, -0.06408185511827469, 0.06812712550163269, -0.2215534895658493, 0.01791389100253582, -0.3979424238204956, -0.026533136144280434, -0.1695878803730011, 0.2756061851978302, 0.14294931292533875, -0.21245652437210083, 0.071412093937397, -0.19694457948207855, -0.35531237721443176, -0.06525823473930359, 0.2856685221195221, 0.1825248748064041, -0.34201622009277344, -0.25298890471458435, -0.011438990943133831, 0.10518163442611694, -0.08021524548530579, -0.24149052798748016, 0.09069738537073135, 0.1357286423444748, 0.19112275540828705, 0.13632789254188538, -0.03218994662165642, -0.13115906715393066, 0.09693539142608643, -0.14451061189174652, -0.09387092292308807, 0.037784598767757416, -0.11219446361064911, 0.0331774540245533, -0.45051658153533936, -0.27137914299964905, 0.23558926582336426, -0.1468047797679901, 0.26096105575561523, 0.00016348794451914728, -0.22323715686798096, -0.0469277948141098, -0.10875797271728516, -0.06081239506602287, -0.04899625480175018, 0.2001713067293167, 0.2884996831417084, 0.07897701114416122, -0.03512655198574066, -0.43153390288352966, 0.17375662922859192, -0.035125162452459335, 0.2342125028371811, -0.1413070559501648, 0.0844758003950119, 0.07911242544651031, -0.08051156252622604, 0.18112102150917053, 0.2339572012424469, 0.04835806414484978, 0.04694235697388649, -0.28655514121055603, -0.03945658728480339, -0.1862879991531372, 0.3852587938308716, 0.27664145827293396, 0.08241492509841919, 0.26901739835739136, -0.08231420814990997, 0.305990993976593, 0.02276964671909809, 0.12866462767124176, -0.12569557130336761, -0.17274987697601318, 0.12612080574035645, 0.20096011459827423, -0.08392602205276489, -0.43696916103363037, -0.008143747225403786, -0.13339227437973022, -0.026826132088899612, 0.13402006030082703, -0.1856527477502823, -0.18394838273525238, -0.23735524713993073, -0.18171902000904083, 0.2091660052537918, -0.18614673614501953, 0.10028958320617676, -0.16734907031059265, -0.0015965956263244152, 0.07895850390195847, -0.08959617465734482, 0.1550900787115097, 0.49834173917770386, 0.18567723035812378, 0.17896351218223572, 0.328170508146286, -0.371222585439682, -0.16002149879932404, -0.053674206137657166, 0.2434273511171341, -0.0865238606929779, -0.06484993547201157, 0.08264174312353134, -0.12877577543258667, -0.16743236780166626, 0.0689588338136673, -0.059995152056217194, -0.7307403683662415, -0.11861798912286758, -0.08014637231826782, 0.09077763557434082, 0.15913742780685425, -0.10383155196905136, -0.12728244066238403, 0.20623993873596191, -0.07635035365819931, 0.2083495408296585, 0.12637725472450256, 0.044002704322338104, 0.09613633900880814, 0.19457297027111053, -0.14600767195224762, 0.1705043762922287, 0.19048716127872467, 0.08410383760929108, -0.20944640040397644, 0.18363067507743835, 0.23923802375793457, -0.1581469476222992, 0.22379137575626373, 0.5264771580696106, -0.1723446547985077, 0.15670722723007202, -0.004719060845673084, -0.352296382188797, 0.03673279657959938, 0.22487708926200867, -0.267309308052063, 0.1683240681886673, -0.08382830768823624, 0.17619933187961578, 0.1690746247768402, -0.09774930030107498, 0.10876309126615524, -0.03573664277791977, -0.029597248882055283, 0.07746852934360504, 0.16174569725990295, 0.118627168238163, 0.02092074230313301, -0.1066967099905014, 0.13844241201877594, -0.2605646550655365, 0.7231838703155518, 0.12596465647220612, 0.4159844219684601, -0.19855688512325287, 0.2633168697357178, -0.15737660229206085, 0.17360737919807434, 0.016412850469350815, 0.10084400326013565, 0.14420422911643982, 0.25139108300209045, 0.3812304735183716, -0.2769365906715393, 0.2872369587421417, -0.01111877616494894, -0.06276049464941025, -0.34009528160095215, -0.27729615569114685, 0.24072083830833435, -0.14889216423034668, -0.001750078983604908, -0.09666141122579575, -0.18736284971237183, 0.39306607842445374, -0.05674029514193535, 0.15402427315711975, 0.33833497762680054, 0.2531254291534424, 0.48931002616882324, 0.16182902455329895, 0.04953862726688385, -0.1351248174905777, 0.2499270886182785, -0.001314931083470583, -0.1552237868309021, -0.016447676345705986, -0.1593923717737198, 0.06377611309289932, -0.008172894828021526, -0.013509558513760567, -0.10351904481649399, -0.06488467007875443, 0.17543752491474152, -0.36636975407600403, -0.396214097738266, -0.1532583087682724, -0.030537398532032967, 0.21979443728923798, -0.11373324692249298, 0.22813472151756287, -0.20202870666980743, -0.15426556766033173, -0.0912914127111435, -0.05884542688727379, -0.3632509708404541, 0.09700632840394974, 0.08088082820177078, -0.05273154377937317, -0.3102757930755615, -0.29408514499664307, -0.022111956030130386, -0.19283705949783325, -0.05186332017183304, 0.007500877138227224, -0.08573465049266815, -0.06656068563461304, 0.008106173016130924, -0.24184100329875946, 0.1018589660525322, 0.08582288771867752, 0.02860199473798275, 0.038483548909425735, 0.16826851665973663, 0.08323758840560913, -0.03557944297790527, 0.11475531756877899, 0.06462294608354568, -0.05089738965034485, 0.02495606057345867, 0.14055326581001282, -0.11654160171747208, -0.074249267578125, -0.10117032378911972, -0.0831984356045723, -0.1350468397140503, 0.06425878405570984, -0.25739872455596924, -0.2342928647994995, 0.04715247079730034, 0.16220179200172424, -0.15026870369911194, -0.0924178808927536, 0.038713835179805756, 0.0815209373831749, -0.005974537692964077, -0.1660872846841812, -0.2412172555923462, -0.04801579937338829, -0.02096177078783512, 0.16133266687393188, -0.010313882492482662, 0.22966130077838898, -0.21374309062957764, -0.2071717530488968, 0.03627943992614746, 0.21322759985923767, 0.12410091608762741, 0.19430071115493774, 0.13656555116176605, 0.08682180941104889, 0.22176992893218994, -0.2371940165758133, 0.03199241682887077, -0.03358083963394165, 0.038546133786439896, -0.17759281396865845, 0.16994497179985046, -0.2125365436077118, -0.5340471267700195, 0.5242530107498169, 0.12528783082962036, -0.04720422253012657, -0.11693020910024643, -0.05175873264670372, -0.23933203518390656, -0.038741543889045715, 0.13747350871562958, -0.0864357128739357, -0.05035964027047157, -0.1329617202281952, 0.24164555966854095, -0.42162150144577026, -0.3906630575656891, 0.6825798153877258, 0.11615955084562302], "biases": [-0.17162714898586273, -0.09716960787773132, 0.14573238790035248, -0.0010255438974127173, -0.11268726736307144, 0.03642331063747406, -0.19914673268795013, -0.16283579170703888, 0.18587997555732727, -0.06868865340948105, 0.1744643598794937, -0.19470344483852386, -0.05696606636047363, -0.005277920514345169, -0.07510030269622803, -0.22693860530853271, -0.11923689395189285, -0.06292203813791275, 0.12907856702804565, -0.15165448188781738, -0.09692063182592392, 0.13454125821590424, -0.1384393721818924, 0.23275300860404968, 0.12102816998958588, -0.08623002469539642, -0.07655543088912964, -0.09744970500469208, 0.16832856833934784, -0.025431953370571136, -0.01922687701880932, -0.2529163956642151, -0.22516335546970367, -0.24476921558380127, -0.271425724029541, -0.03820692375302315, 0.10480855405330658, -0.12413683533668518, 0.16088512539863586, 0.05380731076002121, 0.10427702218294144, -0.1796121746301651, 0.06473934650421143, -0.05418899655342102, 0.00039695805753581226, 0.0945671945810318, -0.11841197311878204, -0.2548280358314514, -0.11605273187160492, 0.060279540717601776, 0.057683270424604416, -0.0486411526799202, -0.23081842064857483, -0.13289763033390045, -0.12701915204524994, -0.2545650601387024, -0.032264016568660736, 0.21126475930213928, -0.17492808401584625, -0.11913371831178665, -0.09560763835906982, -0.14775684475898743, 0.18760110437870026, -0.007387172430753708]}, {"num_inputs": 64, "num_outputs": 64, "weights": [-0.006559618283063173, 0.04210333526134491, -0.10094249248504639, -0.0714905634522438, -0.16206412017345428, -0.1536654233932495, -0.04443139582872391, -0.04719965532422066, 0.03525405377149582, -0.013737752102315426, 0.08250517398118973, -0.14919422566890717, 0.10416535288095474, -0.06223886087536812, -0.07257513701915741, 0.13820984959602356, 0.17469051480293274, 0.05095524713397026, -0.011234774254262447, -0.11757569760084152, 0.07352833449840546, 0.07815266400575638, 0.08178924769163132, -0.09451396763324738, -0.0771612748503685, -0.04734215885400772, -0.11665830761194229, 0.02220807410776615, -0.03658109903335571, -0.07227469235658646, -0.11132016032934189, 0.30927351117134094, 0.059972066432237625, -0.06359918415546417, 0.12452353537082672, 0.09753824025392532, -0.06439701467752457, -0.10071949660778046, 0.1351052224636078, 0.02704668790102005, 0.11377206444740295, -0.0822727307677269, -0.04305189847946167, 0.07047007977962494, 0.006568331271409988, -0.09411556273698807, -0.026655787602066994, -0.03473874181509018, 0.04001587629318237, 4.9719274102244526e-05, -0.10228860378265381, -0.11932527273893356, 0.08735960721969604, -0.030140560120344162, 0.11871808022260666, 0.05165450647473335, -0.01195914950221777, -0.02408318966627121, -0.0825452208518982, -0.07467562705278397, 0.043689288198947906, -0.07049635797739029, 0.00748938275501132, -0.03037867322564125, 0.07055585086345673, 0.09047498553991318, 0.03874068334698677, 0.05593475326895714, -0.06391733884811401, -0.10351942479610443, -0.059157032519578934, -0.14162227511405945, 0.07979024946689606, -0.03958059102296829, 0.10517086088657379, -0.0010830488754436374, -0.03982958942651749, 0.03541930764913559, -0.03567269816994667, 0.08287666738033295, -0.0922141745686531, -0.11727334558963776, 0.10141507536172867, -0.023959266021847725, -0.09393402934074402, 0.07266788929700851, 0.09208383411169052, -0.035983141511678696, -0.0677071213722229, 0.08888878673315048, -0.0986894890666008, 0.008674239739775658, 0.06759949773550034, 0.030839359387755394, 0.04381571337580681, -0.1909756064414978, -0.03937655687332153, 0.0771162286400795, -0.13184699416160583, -0.0162817295640707, -0.10681047290563583, -0.12125863879919052, 0.0948990061879158, 0.04876449704170227, 0.0017936981748789549, 0.04130972921848297, 0.0843658298254013, -0.060627635568380356, 0.10831689834594727, 0.0700501799583435, 0.0333864800632, -0.0878831222653389, 0.0077249412424862385, -0.09233802556991577, -0.02642935886979103, 0.05033612623810768, -0.059356193989515305, -0.047431718558073044, 0.0008854418410919607, 0.08748351037502289, 0.07825085520744324, -0.013975192792713642, 0.06270575523376465, 0.05247335508465767, -0.044603381305933, -0.023900581523776054, 0.02936134859919548, 0.1167541891336441, 0.06706509739160538, -0.08778800815343857, 0.04998714476823807, 0.022518815472722054, 0.09109750390052795, 0.16406431794166565, 0.056028470396995544, -0.003638714784756303, -0.022247828543186188, 0.06486569344997406, -0.0954715684056282, 0.147015780210495, -0.11334633827209473, -0.014841632917523384, 0.05150139331817627, -0.12972049415111542, -0.011557165533304214, 0.018179461359977722, 0.089552141726017, -0.03336091712117195, 0.008249224163591862, 0.01172855868935585, 0.009767833165824413, -0.07382037490606308, -0.11588738113641739, -0.02865537442266941, -0.14938141405582428, 0.06539640575647354, 0.0074641951359808445, 0.1476600170135498, -0.0032864215318113565, -0.21460923552513123, -0.06176994368433952, 0.1138995885848999, -0.14470775425434113, 0.037299368530511856, 0.0459737703204155, -0.11345138400793076, 0.010402973741292953, 0.11423666775226593, 0.0010536732152104378, -0.07681945711374283, 0.04688624292612076, -0.12501592934131622, 0.14110009372234344, 0.03167193755507469, 0.020419683307409286, 0.004945457447320223, -0.05722222477197647, -0.13981081545352936, 0.08937812596559525, 0.05473506823182106, -0.05825313553214073, -0.06639277935028076, 0.015550139360129833, -0.14159196615219116, 0.1819602996110916, -0.014960127882659435, -0.04913754016160965, 0.0010959729552268982, 0.012980367057025433, 0.008377361111342907, 0.06979802995920181, 0.10226313024759293, 0.047218434512615204, -0.05083198472857475, -0.13339947164058685, -0.002639715326949954, -0.018160013481974602, 0.03472565487027168, 0.0575452484190464, -0.07962239533662796, 0.11365964263677597, 0.08281757682561874, -0.049174074083566666, -0.013620896264910698, 0.05073702707886696, -0.1703755408525467, 0.015312599949538708, 0.01959158293902874, 0.11485075205564499, -0.09567365795373917, -0.023112991824746132, -0.03147244453430176, 0.12394732981920242, -0.07782682031393051, -0.020916065201163292, 0.003240718273445964, 0.10384815186262131, 0.06532038748264313, -0.10515549778938293, 0.030624914914369583, 0.07024986296892166, -0.027957573533058167, 0.10306476056575775, 0.053745970129966736, -0.04413893446326256, 0.07210340350866318, -0.039562832564115524, -0.018725622445344925, -0.01959306374192238, -0.0902738943696022, 0.11228524893522263, 0.11394636332988739, 0.11318285763263702, 0.1460556834936142, 0.029317930340766907, -0.06779070198535919, -0.06405621021986008, -0.012752064503729343, 0.0011075185611844063, -0.02405398152768612, 0.03955787420272827, 0.024251507595181465, -0.044183339923620224, -0.038938432931900024, 0.022064797580242157, 0.04059935733675957, -0.09359844028949738, 0.14548978209495544, 0.05575442686676979, 0.0612444169819355, -0.02830827422440052, -0.015141930431127548, -0.05317504331469536, -0.13691596686840057, -0.0779019221663475, -0.07562398165464401, -0.08096903562545776, 0.022568589076399803, 0.12511540949344635, -0.16201317310333252, -0.004463700111955404, -0.04244682937860489, 0.11819063127040863, 0.14804063737392426, 0.0765896812081337, -0.07143709808588028, 0.04439832642674446, -0.1031099483370781, 0.037402208894491196, 0.10680357366800308, 0.01123369112610817, 0.06106986850500107, 0.061041612178087234, 0.10592745244503021, -0.015049325302243233, 0.056302398443222046, 0.06691364198923111, 0.024700384587049484, -0.06241912394762039, -0.033535607159137726, -0.11228291690349579, -0.10505729168653488, -0.05831179767847061, -0.08603143692016602, 0.0840204507112503, -0.08888094127178192, -0.060785986483097076, -0.1005043163895607, 0.05619260296225548, -0.14409713447093964, 0.0012243426172062755, 0.009260409511625767, 0.10987738519906998, -0.07995178550481796, -0.0091403778642416, -0.06931935995817184, 0.11389779299497604, -0.045428305864334106, -0.011057564057409763, -0.04044192656874657, 0.05494783818721771, 0.017474211752414703, -0.018321750685572624, -0.10212001204490662, 0.096535325050354, -0.02751055732369423, -0.09692400693893433, -0.038054320961236954, -0.028094595298171043, -0.01577533222734928, -0.08379554003477097, 0.10475669801235199, 0.07366330921649933, 0.08209706842899323, -0.02189222164452076, -0.10182102769613266, 0.052838072180747986, 0.12202447652816772, 0.07305996119976044, -0.13631609082221985, -0.11075977236032486, -0.018527865409851074, 0.06712881475687027, 0.21990862488746643, 0.029182441532611847, -0.04692280665040016, 0.012121014297008514, -0.061767276376485825, -0.003695965278893709, -0.023301001638174057, 0.03218933567404747, 0.03849455714225769, -0.086246058344841, -0.14891202747821808, 0.16545136272907257, -0.06761345267295837, 0.09469494223594666, -0.1571791023015976, -0.03461697697639465, -0.09276624023914337, 0.004643798805773258, 0.17618882656097412, -0.018940912559628487, 0.003533455776050687, 0.0006873250822536647, -0.1610531508922577, -0.1114710196852684, -0.050726961344480515, 0.11770474910736084, -0.04737130552530289, -0.005838355515152216, -0.14749246835708618, -0.02423495054244995, 0.15042530000209808, -0.09126017987728119, 0.06474452465772629, 0.1822739690542221, 0.0747140422463417, -0.08025994896888733, 0.10680084675550461, -0.018187057226896286, 0.14741680026054382, 0.08118811249732971, 0.0010172107722610235, 0.030814308673143387, 0.08237285912036896, 0.07665818184614182, -0.006084146909415722, 0.004151721019297838, 0.1568896323442459, 0.04213349148631096, 0.0806414932012558, 0.14118926227092743, -0.03973208740353584, 0.06151793524622917, -0.10616472363471985, 0.11002664268016815, 0.08304804563522339, 0.15413130819797516, -0.08416152000427246, -0.0025673499330878258, 0.10356147587299347, -0.046389948576688766, 0.028950782492756844, 0.03116319514811039, 0.15990158915519714, -0.12919238209724426, -0.01821785606443882, 0.16690701246261597, 0.005960503127425909, 0.19493159651756287, 0.08148974180221558, 0.11168184876441956, -0.16047538816928864, 0.1294369250535965, -0.01236262358725071, 0.010020592249929905, -0.0057577108964324, 0.15524490177631378, 0.01363529171794653, 0.11065931618213654, 0.004499717615544796, -0.047673434019088745, -0.13323937356472015, 0.018010493367910385, -0.014531386084854603, 0.08833247423171997, -0.09050838649272919, 0.11747190356254578, 0.02861461043357849, 0.043016932904720306, -0.07998718321323395, -0.06125858053565025, 0.0484699010848999, 0.026962872594594955, 0.06402015686035156, -0.07001174241304398, 0.05508030205965042, -0.11447267234325409, -0.10798773914575577, -0.0578879676759243, 0.025945011526346207, -0.07169502973556519, -0.11085706949234009, 0.04649779573082924, 0.13485758006572723, 0.18771474063396454, -0.17191308736801147, 0.021516889333724976, 0.0781879872083664, 0.0106120016425848, 0.14423249661922455, -0.03406001254916191, -0.08799421042203903, -0.057978637516498566, 0.06888655573129654, 0.13097767531871796, -0.031580593436956406, -0.007515328004956245, -0.059944186359643936, -0.0018400537082925439, 0.11046867072582245, 0.020486192777752876, 0.04256121441721916, 0.029091132804751396, 0.16719940304756165, -0.009222362190485, -0.06378857046365738, -0.067348413169384, -0.07063806056976318, -0.05436298996210098, -0.05410772189497948, -0.12108146399259567, 0.05865005776286125, 0.10359904170036316, 0.16326335072517395, 0.08451785147190094, 0.023851685225963593, -0.04042155668139458, 0.11251486837863922, 0.007273658644407988, 0.057408109307289124, -0.07997003942728043, 0.03071701154112816, -0.045150235295295715, -0.09757014364004135, 0.07149682939052582, -0.05530768632888794, -0.10932601988315582, -0.006681663915514946, -0.024433331564068794, 0.06807416677474976, -0.06857328116893768, -0.03570782393217087, 0.12529298663139343, 0.07131615281105042, 0.011840256862342358, -0.03463200479745865, 0.09828843176364899, -0.03542162850499153, -0.027891922742128372, -0.0222425889223814, 0.019362306222319603, -0.006077492609620094, -0.04941030219197273, 0.09627509862184525, -0.023510154336690903, 0.0199630968272686, -0.12896984815597534, -0.016126766800880432, 0.10545596480369568, -0.0007246481836773455, 0.033430539071559906, -0.050149500370025635, -0.03880423307418823, -0.09020619839429855, -0.08990466594696045, -0.06543073803186417, 0.09042339771986008, -0.08471723645925522, -0.10600650310516357, -0.06934022903442383, 0.02746361680328846, -0.036379922181367874, -0.12444966286420822, -0.056881193071603775, -0.08719446510076523, 0.052805349230766296, 0.06655041873455048, 0.029165439307689667, -0.04959270730614662, -0.09999968856573105, 0.04116809368133545, 0.049116577953100204, -0.0763934925198555, -0.13880512118339539, 0.02374695986509323, -0.0535503588616848, 0.08507199585437775, -0.004978906828910112, 0.10141750425100327, 0.009503423236310482, 0.08136508613824844, 0.08347145467996597, -0.011234866455197334, 0.11130333691835403, -0.04138217493891716, 0.12429127842187881, -0.013054464012384415, 0.0406213253736496, -0.008117915131151676, 0.11662811040878296, -0.06377233564853668, -0.08010958135128021, 0.03301401436328888, -0.14426906406879425, 0.13006696105003357, -0.09180594235658646, 0.12131339311599731, 0.027198180556297302, -0.0770530253648758, 0.03613254800438881, -0.033466439694166183, 0.16946618258953094, -0.054343465715646744, 0.04899691790342331, 0.09966278076171875, 0.04128292575478554, -0.011828172020614147, -0.0646546483039856, 0.07770396769046783, -0.11672666668891907, -0.08665908128023148, 0.06413094699382782, -0.09210130572319031, -0.09494658559560776, 0.035181187093257904, 0.010890287347137928, -0.04287540540099144, -0.09273633360862732, 0.026825198903679848, 0.09376375377178192, -0.02942868322134018, -0.018635664135217667, -0.006383489817380905, -0.05893855541944504, -0.06114193797111511, -0.05991804972290993, -0.0431082583963871, -0.02885393612086773, 0.07675293833017349, 0.036856282502412796, -0.0759110376238823, 0.03793558478355408, -0.06706448644399643, -0.11057578027248383, -0.11587361246347427, 0.06799659132957458, -0.023253794759511948, -0.10511281341314316, 0.10207042098045349, -0.10602550953626633, -0.026248451322317123, -0.02115321159362793, 0.05464290454983711, 0.16380541026592255, -0.010804603807628155, -0.008062499575316906, -0.024485405534505844, -0.06719623506069183, -0.059910453855991364, -0.047122981399297714, -0.004843582399189472, 0.06374961137771606, -0.012379837222397327, 0.03061911277472973, 0.11473768949508667, -0.08108950406312943, -0.13804326951503754, -0.04368814453482628, -0.0077521721832454205, -0.106228306889534, -0.07601777464151382, 0.06636518985033035, 0.0006099556921981275, 0.0667802020907402, -0.04255980625748634, -0.1304894983768463, -0.09401275962591171, -0.024124320596456528, 0.004483002703636885, 0.0054681203328073025, -0.04936648905277252, -0.07430589944124222, -0.10111235827207565, -0.0791848748922348, 0.06788460165262222, -0.0234061311930418, -0.17407198250293732, -0.01220226101577282, -0.08665187656879425, 0.018984120339155197, -0.00708275381475687, -0.03067142330110073, 0.09866061806678772, -0.09536709636449814, -0.04361632093787193, -0.053420741111040115, 0.026938412338495255, 0.044021543115377426, -0.04003502428531647, 0.07037396728992462, 0.006652188487350941, -0.1423993855714798, -0.10469783842563629, 0.038749389350414276, -0.018961189314723015, 0.057120975106954575, 0.0028991317376494408, 0.19773969054222107, 0.023029888048768044, -0.06878316402435303, -0.11082044243812561, -0.07988998293876648, -0.05746360123157501, -0.11990831792354584, 0.0538426972925663, -0.009331721812486649, -0.07133647799491882, -0.07119373232126236, 0.041049737483263016, 0.07025018334388733, 0.010485202074050903, 0.041476115584373474, -0.024011043831706047, 0.12028831243515015, 0.06712443381547928, 0.15704365074634552, 0.02296537533402443, 0.04212479665875435, 0.08879989385604858, -0.003483670298010111, 0.03937850520014763, -0.12414009124040604, 0.07943188399076462, 0.17722953855991364, -0.10220537334680557, -0.013360150158405304, 0.04995768144726753, -0.050216738134622574, -0.11766544729471207, 0.26218870282173157, -0.018683169037103653, -0.11794714629650116, 0.03883006423711777, -0.03897261992096901, 0.06741362810134888, 0.10838823765516281, -0.0003117537999060005, -0.10262223333120346, 0.11350250244140625, -0.018062135204672813, 0.07707799226045609, 0.18409471213817596, 0.0130468113347888, 0.05892038717865944, -0.08334583044052124, 0.040140967816114426, -0.0532003678381443, 0.05622129142284393, -0.12896504998207092, -0.06383500248193741, 0.06968757510185242, 0.11197958141565323, 0.041183952242136, 0.2251996099948883, 0.021209046244621277, -0.05594859644770622, -0.043657999485731125, -0.06852902472019196, -0.048629190772771835, -0.12341044843196869, 0.1091771200299263, -0.08341837674379349, 0.09846328943967819, 0.061389971524477005, -0.14165091514587402, 0.14954045414924622, 0.0681307390332222, 0.038720984011888504, -0.004969875793904066, -0.11907634884119034, -0.06336525082588196, -0.018233640119433403, -0.09525511413812637, 0.056640204042196274, -0.015541168861091137, -0.04546615853905678, -0.10525814443826675, -0.02553250454366207, 0.08388128131628036, 0.043392036110162735, 0.06649240106344223, -0.03950999677181244, 0.130438432097435, -0.09060162305831909, 0.08299422264099121, -0.057691268622875214, -0.08177877962589264, -0.01661640778183937, 0.031171346083283424, -0.059803642332553864, 0.0050233518704771996, -0.11105076968669891, -0.08539800345897675, -0.17434103786945343, 0.1268663853406906, 0.09157613664865494, -0.0034815750550478697, -0.02687046118080616, 0.10921792685985565, -0.11796648055315018, 0.050438567996025085, -0.05944684147834778, -0.07259231060743332, -0.11478235572576523, 0.03457579389214516, -0.06673470139503479, 0.07385324686765671, 0.06349244713783264, -0.008174139074981213, 0.11316055804491043, 0.022277243435382843, 0.02404261752963066, -0.036006033420562744, 0.09033608436584473, 0.03486242517828941, 0.0963066816329956, -0.03187946602702141, -0.06577949225902557, 0.11714746803045273, -0.036664485931396484, 0.027281522750854492, 0.04590931907296181, 0.11299924552440643, -0.004782127216458321, -0.05070561170578003, 0.13880488276481628, -0.07108255475759506, -0.024776998907327652, -0.06845032423734665, -0.06437084078788757, 0.04924090579152107, 0.022061815485358238, 0.029848333448171616, 0.030429858714342117, 0.11245651543140411, -0.0607997290790081, 0.07215161621570587, -0.06691591441631317, -0.004242730792611837, -0.06773873418569565, 0.06961137056350708, 0.11281906068325043, 0.0433725044131279, 0.06199248135089874, 0.009425349533557892, 0.0656377375125885, -0.058722808957099915, -0.06428508460521698, 0.048150744289159775, -0.021516133099794388, -0.052266448736190796, 0.012505397200584412, 0.13952018320560455, -0.042581330984830856, -0.008525220677256584, -0.04934348911046982, -0.12036570906639099, 0.254253625869751, -0.08962640166282654, 0.064386285841465, 0.06497183442115784, -0.015083935111761093, 0.08380069583654404, 0.11816349625587463, 0.09027931094169617, -0.09832579642534256, -0.04990014433860779, 0.015078805387020111, -0.0037319452967494726, 0.15991096198558807, 0.04580118507146835, 0.13651467859745026, 0.011209454387426376, -0.09771711379289627, 0.11923781037330627, 0.005961515009403229, 0.09013144671916962, 0.08588152378797531, -0.04695095121860504, -0.09841977804899216, -0.03419303894042969, 0.18861983716487885, -0.04824943467974663, -0.13056257367134094, -0.11072974652051926, 0.09267011284828186, -0.06307565420866013, 0.0907982587814331, -0.0914258360862732, -0.10134861618280411, -0.05595676228404045, 0.09919121861457825, 0.15425263345241547, -0.06980074197053909, -0.011232014745473862, 0.1089111864566803, -0.03120116889476776, -0.04111921042203903, 0.03581678867340088, 0.039091806858778, 0.05530818924307823, -0.09408610314130783, 0.015828197821974754, 0.07248293608427048, 0.00787557102739811, 0.04235440865159035, -0.1038958877325058, -0.06020788475871086, -0.0924484059214592, -0.050350647419691086, -0.04791191220283508, -0.05757910758256912, 0.14230342209339142, 0.029675805941224098, 0.07567902654409409, 0.02974368818104267, 0.1226930245757103, -0.13544882833957672, 0.1094990074634552, 0.049410317093133926, -0.08229353278875351, 0.11731208860874176, 0.11207638680934906, 0.00108322873711586, -0.06654683500528336, -0.066373810172081, -0.06684404611587524, 0.06350419670343399, 0.021969076246023178, 0.05767296254634857, 0.0281006321310997, 0.02783120796084404, 0.09377893805503845, -0.030908584594726562, 0.10796857625246048, -0.005759755149483681, -0.07383415848016739, -0.04835173860192299, 0.11368868499994278, -0.07943344861268997, 0.04279402643442154, 0.12130061537027359, 0.12480403482913971, 0.06185724213719368, 0.07553501427173615, 0.1212303638458252, -0.14277030527591705, -0.0652678981423378, -0.04966256767511368, 0.022581113502383232, 0.07247211784124374, 0.07602276653051376, 0.01925954595208168, 0.014903439208865166, -0.08552978932857513, 0.045637600123882294, -0.02156779356300831, 0.2291904091835022, 0.03705897554755211, 0.082748644053936, -0.06563660502433777, -0.17081813514232635, -0.07523795962333679, 0.06007985770702362, -0.08190504461526871, -0.03111705370247364, -0.05183282494544983, -0.17464691400527954, 0.025328122079372406, -0.12290196120738983, -0.06529725342988968, -0.03522905334830284, 0.03537902981042862, 0.05839710310101509, 0.08289489150047302, 0.06155998259782791, -0.05301346629858017, 0.08694683015346527, 0.05104568228125572, -0.03672252595424652, -0.03298969566822052, 0.07079364359378815, 0.043021466583013535, 0.04762487858533859, -0.023783912882208824, -0.16293813288211823, 0.03341720998287201, 0.09531661123037338, 0.02941373735666275, 0.09582237154245377, 0.022386981174349785, -0.0055978805758059025, 0.07716501504182816, 0.17737393081188202, 0.10983201861381531, -0.033548347651958466, 0.11870769411325455, -0.07491588592529297, -0.027990132570266724, 0.0010916941100731492, 0.044838592410087585, 0.08912639319896698, -0.09492816776037216, -0.07217974215745926, 0.10990042239427567, -0.002360671991482377, 0.08319632709026337, -0.11686961352825165, 0.09040221571922302, 0.01643911562860012, 0.07556983828544617, 0.06948799639940262, 0.184451624751091, 0.13758236169815063, 0.08275007456541061, 0.033323027193546295, -0.08536523580551147, 0.06685693562030792, 0.03215966746211052, 0.08076761662960052, -0.08097737282514572, -0.07402795553207397, 0.004419195931404829, 0.02988436073064804, -0.0600472167134285, -0.013380113989114761, -0.08301017433404922, -0.11171232163906097, 0.11159690469503403, -0.12641815841197968, 0.04210979864001274, 0.061956826597452164, 0.12737078964710236, -0.05350515618920326, 0.11956952512264252, 0.005092476028949022, 0.06534485518932343, -0.11868701875209808, -0.10120846331119537, 0.059537213295698166, -0.04416317865252495, -0.079172283411026, 0.1280725747346878, 0.09144923090934753, -0.10229803621768951, 0.02347893826663494, 0.026085559278726578, 0.06319113820791245, 0.10749568790197372, 0.33206844329833984, -0.059076108038425446, -0.133342906832695, 0.12397375702857971, -0.11098327487707138, -0.07331471145153046, 0.01748780533671379, 0.16646340489387512, 0.027972755953669548, 0.12638302147388458, -0.10720983892679214, 0.10775639116764069, 0.08145617693662643, -0.10657162219285965, 0.09662392735481262, -0.021979445591568947, 0.1155204102396965, 0.03254207968711853, 0.00835404172539711, -0.0957898423075676, 0.06878937035799026, 0.11684101074934006, 0.03630675747990608, -0.031685587018728256, 0.2175825834274292, -0.0771758034825325, -0.060007333755493164, 0.011585045605897903, 0.07382553815841675, -0.04212075099349022, -0.032634664326906204, -0.0768887996673584, -0.03190740942955017, 0.022581642493605614, -0.05939921364188194, 0.015712285414338112, 0.02028331533074379, -0.10383021086454391, 0.024724463000893593, -0.03873349726200104, -0.12050561606884003, -0.11425106972455978, -0.1169511079788208, -0.062381312251091, 0.0836794301867485, 0.07250964641571045, -0.1253391057252884, -0.07031762599945068, 0.025484036654233932, 0.1994926929473877, 0.1226840689778328, 0.14242766797542572, -0.057157523930072784, 0.01720753312110901, 0.06535451114177704, -0.06880121678113937, 0.0943765714764595, -0.030252404510974884, 0.03446150943636894, -0.14568792283535004, -0.10641755908727646, -0.03340368717908859, 0.04535200446844101, -0.022684816271066666, 0.218038871884346, 0.0606503039598465, -0.08296215534210205, 0.15021854639053345, 0.03433845564723015, -0.10195684432983398, 0.012147551402449608, 0.23121656477451324, 0.06439736485481262, 0.09605353325605392, 0.08348338305950165, 0.09012041240930557, 0.24134869873523712, 0.022212885320186615, 0.04984867945313454, -0.028223970904946327, 0.029263129457831383, 0.10978995263576508, 0.06142192706465721, -0.1058427095413208, 0.044577937573194504, -0.055455610156059265, -0.04838458448648453, -0.024820074439048767, 0.0027859406545758247, -0.11454159766435623, -0.12297540158033371, 0.05439736321568489, 0.056645601987838745, -0.033679280430078506, -0.06515811383724213, 0.10697036981582642, 0.03339250758290291, 0.08400335907936096, 0.03885260224342346, -0.06672083586454391, 0.06890294700860977, -0.11929970234632492, 0.08906534314155579, -0.06519348174333572, 0.055939532816410065, 0.09535796195268631, -0.1490648239850998, -0.005905889440327883, 0.08141017705202103, -0.06447578966617584, 0.04279787093400955, -0.07267351448535919, -0.04973568022251129, 0.015239317901432514, -0.06965029239654541, 0.0886082872748375, 0.10914476960897446, 0.031006431207060814, 0.07922696322202682, 0.11891627311706543, -0.08332975953817368, 0.08894672989845276, 0.06673718988895416, -0.015384924598038197, 0.01411555428057909, 0.13037534058094025, 0.10467817634344101, 0.09505002945661545, 0.07743962109088898, -0.09420473873615265, -0.04557818919420242, -0.064424529671669, -0.0375676192343235, -0.11770958453416824, -0.09068114310503006, 0.05788090080022812, -0.07452239841222763, -0.02954285591840744, -0.006452471483498812, 0.04579305276274681, 0.07459025830030441, -0.028558189049363136, 0.08772234618663788, 0.041128966957330704, 0.0986112579703331, 0.04432835802435875, -0.12219880521297455, -0.10450701415538788, -0.07455030828714371, -0.015627948567271233, -0.01839793659746647, -0.012988046742975712, 0.03436018526554108, -0.12411238998174667, -0.008984092622995377, 0.05615127831697464, 0.04048766940832138, 0.05471978336572647, 0.09721937775611877, -0.09709744155406952, -0.14813582599163055, -0.06788798421621323, -0.010638686828315258, 0.04806121811270714, -0.0779840499162674, 0.045413486659526825, -0.047986678779125214, 0.036370839923620224, 0.060238469392061234, -0.050250642001628876, -0.10014879703521729, -0.08965147286653519, -0.0804549977183342, 0.12919014692306519, -0.07502265274524689, -0.10579463839530945, -0.046901509165763855, -0.07248260825872421, 0.03624406456947327, -0.037449806928634644, 0.03701210767030716, -0.08569740504026413, 0.039471495896577835, 0.052490830421447754, 0.036320146173238754, 0.07888205349445343, -0.07713811844587326, 0.1262420266866684, -0.05057210475206375, -0.014710009098052979, 0.041861630976200104, -0.015752756968140602, 0.13415305316448212, 0.016522353515028954, 0.07069460302591324, -0.030759131535887718, -0.08740021288394928, 0.016916798427700996, 0.07800202816724777, -0.04781549423933029, -0.11679963022470474, -0.01059010624885559, 0.08826841413974762, 0.06703484803438187, -0.03970496729016304, 0.04458677023649216, 0.06029299274086952, -0.05556894838809967, -0.022832149639725685, -0.04030728340148926, 0.028765520080924034, -0.04906844347715378, -0.08348441869020462, 0.05463995039463043, 0.015524004586040974, 0.06330578774213791, 0.07280746847391129, -0.027886342257261276, -0.017227903008461, 0.03324463963508606, -0.011416218243539333, -0.02833680994808674, -0.07931313663721085, -0.1203967034816742, -0.016377558931708336, -0.10137679427862167, 0.11034759879112244, 0.08492553234100342, -0.16544511914253235, 0.037291355431079865, -0.08524949848651886, 0.04420286789536476, 0.031261928379535675, -0.08365115523338318, -0.04085865989327431, -0.06511158496141434, 0.05778041481971741, 0.06452525407075882, 0.002272061537951231, -0.0024231073912233114, 0.10667899996042252, -0.003017647657543421, 0.049097876995801926, 0.03802073001861572, 0.07980319857597351, 0.0501876175403595, -0.0325654111802578, 0.009890695102512836, 0.04679874703288078, -0.03721393644809723, 0.1463603377342224, 0.010427949950098991, -0.061528537422418594, 0.008129650726914406, -0.1084366962313652, 0.10939906537532806, 0.08247751742601395, -0.14911609888076782, 0.024487117305397987, -0.05480092391371727, 0.012375356629490852, -0.06768729537725449, -0.08616426587104797, 0.05947620049118996, -0.03533641993999481, 0.12251098453998566, 0.07042420655488968, 0.009276049211621284, 0.06106840446591377, -0.013902400620281696, 0.07933531701564789, 0.08525335788726807, 0.030330799520015717, 0.07041534781455994, -0.06417187303304672, -0.0022326477337628603, -0.12815378606319427, -0.09180577099323273, -0.020057711750268936, 0.030054453760385513, 0.028025466948747635, -0.021240858361124992, -0.029543578624725342, -0.0039942036382853985, -0.12290900945663452, -0.03612013906240463, -0.009708121418952942, 0.08825232833623886, -0.03650587797164917, 0.10502759367227554, 0.06598848849534988, -0.0817178338766098, -0.11052662134170532, -0.08549220114946365, -0.05466306209564209, 0.04271670803427696, 0.13267871737480164, 0.037416234612464905, 0.029670586809515953, 0.12114907801151276, 0.017288867384195328, 0.0444004088640213, -0.0006656328332610428, -0.10542707145214081, 0.07853780686855316, -0.051522042602300644, 0.007488816510885954, 0.019253529608249664, -0.009303953498601913, 0.05931366980075836, 0.07679294794797897, -0.03698410838842392, -0.010627804324030876, 0.018483377993106842, -0.010323507711291313, -0.006796899251639843, -0.08909648656845093, 0.15982568264007568, -0.08180397748947144, -0.0627337098121643, 0.26947465538978577, -0.10403610020875931, -0.12243407964706421, 0.04631369188427925, -0.008484403602778912, -0.13188019394874573, 0.06670752167701721, 0.1744581013917923, -0.10854925215244293, 0.0035088248550891876, -0.04608089104294777, -0.08583296835422516, -0.03926289454102516, 0.01107469666749239, -0.05622159317135811, -0.04483393579721451, -0.03715122118592262, 0.15386751294136047, 0.04780981317162514, -0.02534356154501438, 0.07221309840679169, 0.07385030388832092, 0.14410237967967987, -0.09628850966691971, 0.12553171813488007, -0.10525672882795334, 0.00021265489340294152, 0.0875762552022934, 0.07161153107881546, -0.048787400126457214, 0.059848036617040634, -0.0002419146621832624, 0.07594117522239685, -0.047761522233486176, -0.07832485437393188, -0.0737326517701149, -0.0516752190887928, 0.0871059000492096, -0.08720211684703827, 0.16435925662517548, -0.105535589158535, 0.07389137148857117, -0.10378134995698929, 0.04097972437739372, 0.13144049048423767, -0.04034515470266342, -0.07010001689195633, 0.07096756994724274, 0.030133865773677826, -0.11036478728055954, 0.16205935180187225, -0.028982417657971382, -0.0956617146730423, -0.13463222980499268, 0.03026414103806019, 0.1777895838022232, -0.09597434848546982, 0.08710071444511414, -0.016979103907942772, 0.060173943638801575, 0.0757632702589035, 0.04993016645312309, -0.10992170125246048, 0.05047846958041191, 0.08464900404214859, 0.0567157119512558, 0.027282211929559708, -0.00420854426920414, 0.015369966626167297, -0.11665269732475281, 0.09771164506673813, 0.052083492279052734, 0.03991394862532616, 0.06633074581623077, -0.0037166448310017586, 0.15608824789524078, 0.008286231197416782, -0.04097103700041771, 0.05776678025722504, 5.1649891247507185e-05, 0.1393665075302124, -0.11974746733903885, -0.10504405945539474, 0.0019108311971649528, -0.09456153213977814, -0.07547827810049057, -0.020581122487783432, -0.1243097186088562, -0.08441381901502609, -0.00930395070463419, 0.07046690583229065, 0.0009879805147647858, -0.11977431178092957, -0.03901221603155136, -0.053298112004995346, 0.15401071310043335, -0.07640733569860458, 0.001377929118461907, 0.05505095422267914, -0.14198361337184906, 0.039187490940093994, -0.0884820893406868, -0.014634585939347744, 0.11771669238805771, -0.14141228795051575, 0.04157199338078499, -0.08821354806423187, 0.10252374410629272, -0.03245773911476135, -0.09833301603794098, -0.16029159724712372, 0.036725081503391266, 0.05993298441171646, -0.03634974732995033, 0.09179835021495819, 0.06985138356685638, -0.08228959143161774, 0.11338779330253601, 0.06982678920030594, -0.0444798581302166, -0.016304509714245796, -0.008149716071784496, -0.06375153362751007, -0.10817702859640121, -0.05963314324617386, 0.009594812989234924, -0.007242518477141857, -0.09492716938257217, -0.1791667342185974, 0.0701645240187645, 0.017402078956365585, 0.023568298667669296, -0.03117845393717289, 0.1495187133550644, -0.11096693575382233, 0.06639281660318375, 0.08765168488025665, -0.09781263023614883, -0.05262550339102745, 0.1487627625465393, -0.049681346863508224, 0.1327548623085022, 0.09365790337324142, 0.13788451254367828, 0.036143891513347626, -0.03227878734469414, 0.12632320821285248, 0.01750519871711731, -0.05153040587902069, -0.003797820769250393, 0.10812576860189438, -0.09081095457077026, 0.04230639711022377, 0.07533764094114304, -0.03501691669225693, -0.07865633070468903, 0.011166941374540329, -0.031960081309080124, -0.09180950373411179, 0.013250114396214485, 0.03822723403573036, -0.03938334435224533, 0.017136670649051666, 0.01021790411323309, -0.0321224182844162, -0.03759612515568733, 0.016108838841319084, -0.0671515017747879, -0.16768768429756165, 0.013106739148497581, 0.009232266806066036, 0.10265325009822845, -0.047121670097112656, -0.10469654202461243, -0.15636226534843445, 0.025826023891568184, -0.01733561046421528, 0.1269046813249588, -0.10894867777824402, 0.14400780200958252, 0.09215875715017319, 0.14796894788742065, -0.03837091848254204, 0.0051975008100271225, -0.07155171781778336, -0.1196277067065239, 0.09698356688022614, 0.0658469870686531, 0.042808014899492264, -0.03986840322613716, -0.11773388087749481, 0.058357518166303635, -0.08623158186674118, 0.08876080065965652, 0.07657439261674881, -0.12854483723640442, 0.1394052803516388, 0.040262240916490555, 0.06118396297097206, 0.054946888238191605, -0.06949236989021301, 0.06693362444639206, -0.032370712608098984, -0.057916197925806046, 0.050774477422237396, 0.14847710728645325, -0.11372888088226318, 0.023780684918165207, -0.06328655779361725, 0.044914569705724716, -0.032963093370199203, 0.07585911452770233, 0.11414226144552231, -0.014930647797882557, -0.11243221908807755, 0.08537723869085312, -0.026854777708649635, 0.02559216506779194, -0.009503355249762535, -0.032943062484264374, 0.06142621114850044, 0.13689681887626648, 0.00012549984967336059, 0.06934258341789246, 0.09411444514989853, 0.1329244077205658, 0.013398698531091213, 0.030840381979942322, -0.12103528529405594, -0.058818269520998, 0.0480676144361496, 0.07108847796916962, 0.11504563689231873, 0.09192066639661789, 0.08328857272863388, 0.0438912957906723, 0.044911567121744156, 0.01267905905842781, 0.0047968970611691475, 0.0290546752512455, 0.13783963024616241, 0.055088892579078674, -0.06779628247022629, -0.0923924520611763, 0.0949171632528305, 0.07781493663787842, 0.030501198023557663, 0.053982216864824295, 0.0803942009806633, 0.07271124422550201, 0.1571144312620163, -0.0396893210709095, -0.13172174990177155, 0.15637415647506714, 0.03967743366956711, -0.026973549276590347, 0.09584245830774307, -0.11135454475879669, 0.09255579859018326, 0.1909518986940384, 0.05678313225507736, -0.054672203958034515, 0.05584389716386795, 0.14160561561584473, -0.07969143241643906, 0.14351658523082733, 0.03394631668925285, -0.08297567814588547, 0.14754906296730042, -0.14585724472999573, 0.07075819373130798, -0.14538921415805817, -0.09037879854440689, 0.06977953761816025, 0.12405525147914886, -0.0839189738035202, -0.14107173681259155, -0.07652018964290619, 0.1604255735874176, 0.03358043357729912, 0.12910132110118866, -0.0972820296883583, -0.08843530714511871, -0.11645244807004929, -0.11999619752168655, -0.0607302151620388, -0.016069620847702026, 0.08337457478046417, -0.0009852189105004072, -0.08621060103178024, 0.09351865202188492, 0.0585184246301651, -0.12645433843135834, -0.11267077177762985, 0.12363333255052567, -0.06388769298791885, 0.19903896749019623, -0.05502772331237793, 0.046217355877161026, -0.05251768231391907, 0.10962239652872086, -0.04625735804438591, 0.10022459924221039, 0.05902925133705139, 0.13093414902687073, -0.07990273833274841, 0.07139290124177933, -0.09503042697906494, 0.1368989497423172, -0.09138265252113342, -0.019864944741129875, -0.04217330738902092, 0.017632292583584785, -0.009476885199546814, 0.0842510387301445, 0.06820175796747208, -0.11657614260911942, 0.06842408329248428, 0.08762528747320175, 0.043772805482149124, -0.016116825863718987, 0.059606198221445084, 0.10085412859916687, 0.055367790162563324, -0.13711972534656525, -0.06845898926258087, 0.13511699438095093, -0.031102947890758514, -0.13267117738723755, -0.08599088340997696, 0.02483380027115345, -0.08320584148168564, -0.04000864923000336, -0.018100738525390625, -0.08794195204973221, 0.09818235784769058, 0.030410360544919968, 0.05911795794963837, 0.012746891006827354, 0.0201200470328331, 0.11178922653198242, 0.09124957770109177, -0.05743227154016495, 0.05559752136468887, -0.011329838074743748, -0.03456610441207886, -0.056662898510694504, -0.012273045256733894, -0.10999608039855957, -0.0748988687992096, 0.09193161129951477, 0.0540580227971077, -0.14816150069236755, -0.09106290340423584, -0.047526273876428604, 0.04073559120297432, -0.05541076883673668, -0.014253937639296055, 0.016149934381246567, 0.0005744420341216028, 0.028660254552960396, -0.09399379789829254, 0.04372824355959892, -0.06498957425355911, -0.12182934582233429, 0.1468520611524582, -0.021342037245631218, -0.12034718692302704, -0.06950917840003967, -0.010951722972095013, -0.09974025934934616, 0.05397481471300125, 0.07167378813028336, -0.024746768176555634, -0.028825948014855385, 0.04815877228975296, -0.04449881985783577, -0.07141916453838348, 0.06865248829126358, 0.009443501010537148, 0.019660918042063713, -0.0032238569110631943, -0.0883970856666565, 0.05680537596344948, 0.12890605628490448, 0.03856930509209633, -0.09684845060110092, 0.09184381365776062, -0.010448210872709751, -0.043068062514066696, -0.09458231925964355, 0.025879448279738426, -0.06938402354717255, 0.02531607262790203, 0.02299412712454796, -0.1083839014172554, -0.07246825844049454, -0.12707702815532684, 0.08281689882278442, -0.1276445984840393, -0.12250600755214691, -0.08734460175037384, -0.12334178388118744, -0.0683232918381691, 0.038128383457660675, -0.13877716660499573, 0.12121985107660294, 0.09550824016332626, -0.011338713578879833, -0.07456808537244797, -0.0028883586637675762, -0.13394558429718018, -0.09154067188501358, 0.05134435370564461, -0.08185284584760666, -0.1185801699757576, 0.015382958576083183, -0.13824641704559326, -0.01788831502199173, -0.06860176473855972, 0.05984644219279289, 0.04857419431209564, -0.003063180483877659, 0.03613856062293053, -0.062617726624012, 0.06516004353761673, 0.06876154989004135, 0.03452463448047638, 0.06997495889663696, -0.1255510300397873, -0.002502908930182457, 0.08370311558246613, 0.023639362305402756, -0.08602382987737656, -0.08784020692110062, 0.1358887106180191, -0.04051239416003227, 0.14157496392726898, 0.058895040303468704, 0.06044702231884003, -0.09573464840650558, 0.02640247903764248, 0.014707926660776138, 0.027774326503276825, 0.018397795036435127, 0.015329599380493164, 0.04002007469534874, 0.112967349588871, -0.05764654651284218, 0.07821797579526901, -0.0976857915520668, -0.055044300854206085, 0.14279726147651672, 0.02403692901134491, -0.00844573974609375, -0.1229243203997612, 0.06204093620181084, 0.11920258402824402, 0.08594787120819092, 0.05213509500026703, -0.09036555141210556, 0.13823528587818146, -0.009109213948249817, 0.0032481399830430746, -0.004097505938261747, 0.005482653621584177, 0.051835350692272186, -0.02631244994699955, 0.10122255980968475, 0.028099823743104935, 0.04039481282234192, 0.028678620234131813, 0.10736232250928879, 0.16780786216259003, -0.009379833936691284, -0.10834658890962601, -0.07139906287193298, 0.019825266674160957, -0.06915976107120514, -0.10730032622814178, 0.028356775641441345, 0.08732446283102036, -0.08927036076784134, 0.02495327778160572, -0.13772422075271606, 0.002965148538351059, -0.012997455894947052, 0.10212654620409012, 0.1071183830499649, 0.009436548687517643, -0.149769589304924, -0.06506188213825226, 0.10116776078939438, -0.01183000486344099, 0.006676016841083765, -0.10603898763656616, -0.056870657950639725, -0.05791042000055313, 0.006647658534348011, -0.011389842256903648, 0.0959036573767662, 0.09553010016679764, 0.027817711234092712, 0.06134549900889397, -0.0524606853723526, -0.04056478664278984, 0.1947556734085083, 0.12613846361637115, 0.0954732671380043, 0.14713311195373535, -0.08373041450977325, 0.06224604696035385, 0.3215678334236145, 0.07233487069606781, -0.11028715968132019, 0.17246998846530914, 0.11846005171537399, -0.06381262093782425, 0.12792161107063293, 0.06855451315641403, -0.05014779791235924, -0.07735278457403183, -0.06359949707984924, 0.05072646215558052, -0.07805714011192322, -0.0385369248688221, -0.10975133627653122, -0.11333087831735611, 0.08767632395029068, 0.021675391122698784, -0.07260135561227798, -0.10020682960748672, 0.03528634086251259, -0.01616993546485901, 0.09877393394708633, 0.14281071722507477, 0.2224695384502411, -0.07136721163988113, -0.10200075805187225, 0.0015070196241140366, -0.05748959258198738, 0.02229362726211548, 0.0979495421051979, -0.016519799828529358, -0.08692667633295059, -0.15347152948379517, -0.08551627397537231, -0.08544468134641647, 0.0980134829878807, -0.010525730438530445, 0.05483748018741608, 0.044625215232372284, -0.02950061671435833, -0.04027947038412094, 0.012844808399677277, -0.0056986017152667046, -0.1273469179868698, -0.07636252045631409, 0.02530096471309662, -0.061503492295742035, -0.1127348393201828, -0.07896188646554947, -0.0838061198592186, -0.046994246542453766, 0.027911018580198288, -0.03791913017630577, -0.003303372301161289, 0.0022381115704774857, -0.05345289781689644, 0.033499862998723984, 0.0012292254250496626, -0.10182826966047287, -0.05783512443304062, 0.01743359863758087, 0.014863147400319576, -0.0724293664097786, -0.10269138216972351, -0.06590878963470459, 0.02400684542953968, -0.12291298806667328, 0.09803260862827301, -0.023723090067505836, 0.06795889139175415, -0.058080099523067474, 0.04141184315085411, 0.12683865427970886, 0.02001611702144146, 0.006619469728320837, 0.04792260006070137, 0.059114109724760056, -0.04538504406809807, -0.05882171541452408, 0.013933529146015644, 0.12379807233810425, -0.032088350504636765, 0.08966784179210663, 0.027490442618727684, -0.050880324095487595, -0.0820232629776001, 0.03567652776837349, 0.055440694093704224, 0.12451191246509552, 0.007180687505751848, -0.13220898807048798, -0.0074230460450053215, -0.043599024415016174, -0.005016686860471964, -0.17032097280025482, 0.08506441116333008, -0.09393778443336487, -0.07013867050409317, 0.08432190120220184, 0.11751040816307068, 0.14841319620609283, 0.03381113335490227, -0.02575773373246193, 0.017530079931020737, 0.00403400044888258, -0.07066325098276138, -0.11764009296894073, 0.022463437169790268, 0.06821644306182861, -0.13454750180244446, 0.09782089293003082, 0.0033919287379831076, 0.0032458866480737925, 0.024990759789943695, -0.005183729808777571, 0.045044224709272385, 0.1327965408563614, 0.051948610693216324, -0.035279158502817154, -0.03257092460989952, 0.03260134533047676, -0.1346988081932068, -0.10411220788955688, 0.07786989957094193, -0.10613148659467697, -0.04899965599179268, 0.04148236662149429, -0.1260775774717331, -0.024160923436284065, 0.06857513636350632, 0.07476470619440079, 0.05373125150799751, 0.10507147759199142, -0.1231294497847557, 0.030602043494582176, 0.16753123700618744, 0.11869095265865326, 0.09753067791461945, 0.1577586978673935, -0.10769785195589066, -0.016397498548030853, 0.04294675216078758, 0.012063387781381607, -0.02980876713991165, 0.13013552129268646, 0.023831825703382492, -0.001784000312909484, 0.02962496504187584, 0.020321426913142204, 0.07503654807806015, -0.051923204213380814, -0.1528259962797165, 0.013428634963929653, 0.08065757900476456, 0.17734229564666748, -0.01885019987821579, 0.15561793744564056, 0.01591845415532589, 0.11562720686197281, -0.0569499172270298, 0.03301806375384331, -0.00665493868291378, 0.10411319136619568, -0.01128692738711834, -0.09315434098243713, -0.12215954065322876, -0.0180183295160532, -0.0077601405791938305, 0.03943505510687828, -0.09825558960437775, -0.10501682013273239, -0.10442695021629333, -0.07152358442544937, 0.14342227578163147, 0.084800586104393, -0.01575792394578457, -0.0679263025522232, 0.053580570966005325, 0.0626402348279953, 0.09241928160190582, 0.10524487495422363, 0.07237066328525543, 0.11179471760988235, -0.04704924672842026, -0.07227116823196411, 0.1604994535446167, 0.13967129588127136, 0.06507619470357895, 0.0584663562476635, -0.10753577202558517, -0.038346245884895325, 0.2467457801103592, 0.0692843347787857, -0.023237548768520355, 0.16343645751476288, -0.03474928066134453, -0.14317014813423157, 0.050674811005592346, 0.007085037883371115, -0.09895984083414078, -0.06690074503421783, 0.10493554919958115, 0.0952160656452179, 0.06245279312133789, 0.05059928447008133, 0.032504428178071976, 0.02524036541581154, -0.04949912428855896, -0.018210498616099358, 0.04960685595870018, -0.08520309627056122, 0.12449756264686584, 0.002168369246646762, 0.08857950568199158, 0.02559523470699787, 0.21617867052555084, -0.010903042741119862, -0.1052338108420372, -0.06945846974849701, -0.0662558525800705, 0.046507515013217926, 0.11327440291643143, -0.06890397518873215, -0.14263075590133667, 0.03294789418578148, 0.0740380510687828, -0.11249251663684845, 0.18974801898002625, -0.01093999296426773, 0.13832639157772064, -0.046185147017240524, -0.19711323082447052, 0.10470328480005264, 0.07887651771306992, 0.02566942386329174, -0.015518102794885635, -0.05119717866182327, -0.09041772037744522, 0.15464380383491516, -0.11825742572546005, 0.023260854184627533, -0.10488671064376831, 0.12525437772274017, -0.11677394807338715, 0.09471257030963898, 0.17280465364456177, -0.007193784695118666, 0.10003267973661423, -0.06433908641338348, -0.14971835911273956, 0.03022369183599949, 0.12488868087530136, -0.04972584545612335, -0.019056865945458412, 0.13774560391902924, -0.13023145496845245, 0.11145271360874176, 0.16486473381519318, 0.07032943516969681, -0.0391283854842186, 0.043596312403678894, -0.10494125634431839, -0.06833260506391525, 0.095279261469841, 0.08645181357860565, 0.1333315372467041, 0.16525405645370483, -0.07545213401317596, 0.05086345225572586, -0.08624514192342758, -0.026532549411058426, -0.02431165799498558, -0.07458222657442093, -0.0774206817150116, -0.09167582541704178, 0.1530788242816925, 0.1354219764471054, -0.08369665592908859, -0.0501837395131588, 0.10848892480134964, 0.04225418344140053, -0.049580320715904236, 0.15502001345157623, 0.12237502634525299, 0.01942637749016285, -0.04924576357007027, -0.027444172650575638, 0.12339869886636734, -0.06469353288412094, -0.08585689961910248, 0.0491548627614975, 0.03379403427243233, -0.06870465725660324, 0.0026185226161032915, -0.1042734831571579, -0.2042267620563507, 0.09876479208469391, -0.08966101706027985, -0.042907509952783585, 0.002672100206837058, -0.08694370090961456, -0.12422043085098267, 0.12112292647361755, 0.0218461025506258, -0.056134287267923355, 0.08760475367307663, -0.08317331969738007, -0.04208531603217125, -0.09564021229743958, 0.11832361668348312, -0.05777895078063011, 0.05476829409599304, 0.0016885799122974277, 0.0019978368654847145, 0.04017332196235657, -0.003816199954599142, -0.004067619796842337, -0.13148817420005798, 0.099077969789505, -0.10109079629182816, -0.06918496638536453, 0.027306273579597473, 0.0657791793346405, 0.10909836739301682, 0.01005752943456173, -0.09211232513189316, -0.024690063670277596, -0.06686234474182129, 0.07437819987535477, 0.08695218712091446, 0.12288890779018402, -0.05201352387666702, 0.029729479923844337, -0.04137539863586426, 0.1017284020781517, -0.13848237693309784, -0.04316065087914467, -0.047303516417741776, -0.006371424533426762, 0.02119387313723564, 0.022142918780446053, 0.04091406241059303, 0.0014473217306658626, -0.05260929837822914, -0.011610309593379498, 0.012301495298743248, 0.023845575749874115, -0.06528043001890182, 0.059671662747859955, 0.10111378133296967, 0.03928259760141373, 0.1453934609889984, 0.11527535319328308, 0.07038678228855133, -0.03401109576225281, 0.04455430805683136, -0.11327328532934189, -0.12520983815193176, 0.10783711820840836, 0.12840230762958527, -0.010272392071783543, -0.032976407557725906, -0.06863411515951157, 0.02901657111942768, 0.012670977972447872, 0.11009274423122406, 0.09330537170171738, 0.023669371381402016, 0.08732278645038605, -0.07398910820484161, 0.07766687124967575, 0.0682646706700325, -0.08844604343175888, 0.03469713777303696, -0.056222666054964066, -0.0011213633697479963, -0.053697049617767334, 0.037815604358911514, 0.07512335479259491, 0.00321149337105453, 0.12728780508041382, 0.1290394812822342, 0.03829007223248482, 0.23216195404529572, -0.07369664311408997, 0.037721410393714905, 0.06508516520261765, 0.06445486098527908, -0.02750365622341633, 0.0718991607427597, 0.1393408626317978, 0.044420402497053146, 0.10520148277282715, -0.09831548482179642, 0.08891800791025162, -0.07446757704019547, -0.06110289692878723, 0.1205911934375763, 0.0489305816590786, 0.05703136324882507, -0.05887056142091751, 0.12136941403150558, 0.04145398736000061, 0.0978803038597107, 0.06358739733695984, -0.028408173471689224, -0.08415167033672333, 0.14350192248821259, 0.032699067145586014, -0.023462099954485893, -0.1414502114057541, 0.08379455655813217, -0.12679879367351532, 0.04805678501725197, 0.009027672000229359, -0.046390630304813385, -0.011449787765741348, 0.08899310231208801, -0.07940717041492462, 0.17049258947372437, 0.15345244109630585, 0.0964464470744133, 0.04020219296216965, -0.09707868844270706, 0.06815856695175171, 0.14954902231693268, -0.09587297588586807, -0.04421514645218849, -0.05755073204636574, -0.0637407898902893, 0.10411961376667023, 0.06602910906076431, 0.1334792971611023, -0.03909141942858696, 0.1610749065876007, -0.11304962635040283, -0.04083724319934845, 0.13580165803432465, -0.1313682198524475, -0.07376574724912643, 0.05195923149585724, 0.05476328730583191, 0.10229921340942383, 0.0524015910923481, -0.01063061598688364, -0.05373205244541168, -0.06918863952159882, -0.16278131306171417, 0.027110425755381584, -0.07403308898210526, -0.010603334754705429, 0.11771753430366516, -0.012577347457408905, 0.0025861989706754684, -0.02192634344100952, -0.006220695096999407, -0.08029802143573761, 0.10698945820331573, 0.08369474858045578, -0.09477533400058746, 0.027271972969174385, -0.08462704718112946, 0.09237948805093765, 0.043102942407131195, 0.07142697274684906, 0.09818501025438309, -0.05843255668878555, 0.1334889531135559, -0.10090143233537674, -0.04225745424628258, 0.0189247764647007, -0.10397919267416, 0.11486682295799255, 0.030379701405763626, -0.06751058250665665, 0.03256351128220558, -0.028340034186840057, 0.07881475239992142, -0.020863041281700134, 0.02985747531056404, 0.00822541769593954, 0.08097334206104279, -0.022099977359175682, 0.15478792786598206, 0.11738516390323639, -0.022267241030931473, 0.10517237335443497, -0.17679579555988312, -0.03446613624691963, 0.025921691209077835, -0.031755562871694565, -0.046290136873722076, -0.12540842592716217, -0.06337571144104004, 0.06631634384393692, -0.008244125172495842, 0.03627950698137283, 0.006837853230535984, 0.039270754903554916, -0.05556691810488701, -0.012153946794569492, 0.06484062969684601, 0.06685482710599899, 0.006427440792322159, 0.10530482232570648, -0.10298039019107819, 0.017672371119260788, 0.06801456958055496, -0.038387466222047806, 0.07860606908798218, -0.013634123839437962, -0.08263280987739563, 0.08351708203554153, 0.04896097257733345, 0.06131908670067787, 0.015810107812285423, 0.22816123068332672, -0.016329212114214897, -0.0825900062918663, 0.061787985265254974, 0.0930459201335907, 0.0014222285244613886, -0.03578127548098564, -0.09437551349401474, 0.1296600103378296, 0.08623209595680237, 0.1489197015762329, -0.007282197941094637, 0.121287040412426, -0.03557254746556282, 0.028399763628840446, 0.004893200471997261, 0.011984174139797688, -0.1378459632396698, -0.10566790401935577, 0.0025814189575612545, 0.05799649655818939, -0.042657800018787384, 0.19479626417160034, -0.01815139874815941, 0.08546022325754166, 0.06769592314958572, -0.07586865872144699, -0.013752139173448086, 0.020909909158945084, -0.06267035752534866, -0.13630102574825287, 0.04363255202770233, 0.022987056523561478, -0.0736098662018776, -0.03339018300175667, -0.10598349571228027, -0.10655331611633301, -0.0759374126791954, 0.0489836186170578, -0.08463899791240692, -0.07256905734539032, -0.017944753170013428, -0.027349436655640602, 0.13579848408699036, 0.018448112532496452, -0.018686112016439438, 0.06030632182955742, -0.11551819741725922, 0.022252310067415237, -0.05469469726085663, 0.1286749690771103, -0.051742952316999435, 0.09038238972425461, 0.05885744094848633, 0.11500543355941772, -0.11292770504951477, -0.01105404831469059, 0.0003349348553456366, -0.14503762125968933, 0.16106736660003662, -0.021724628284573555, 0.04739638417959213, 0.27833956480026245, 0.1148570105433464, -0.08090799301862717, -0.03181332349777222, 0.15333525836467743, -0.07319401949644089, -0.022957488894462585, -0.027826223522424698, 0.04662293568253517, 0.17333362996578217, -0.17357176542282104, 0.15077494084835052, -0.137356236577034, 0.0728633850812912, -0.02807346172630787, -0.012944542802870274, -0.07878800481557846, -0.08292068541049957, -0.026094110682606697, 0.049548473209142685, -0.016702966764569283, 0.12306758016347885, 0.0568336583673954, 0.002646996872499585, -0.03205794095993042, -0.013124126009643078, 0.0367489792406559, 0.07492325454950333, -0.10135137289762497, 0.015290593728423119, 0.04389919713139534, -0.0018220496131107211, -0.1470717191696167, -0.12356619536876678, 0.02786509320139885, -0.1413085162639618, 0.11301328241825104, -0.015681825578212738, -0.044784046709537506, -0.0909421443939209, 0.11282019317150116, 0.10679537802934647, -0.06542208045721054, -0.09118437021970749, 0.06595214456319809, 0.08470018953084946, 0.10575408488512039, 0.09786641597747803, 0.005931394640356302, 0.010340060107409954, 0.014696313068270683, 0.008544059470295906, -0.06242376193404198, 0.011745954863727093, -0.08057031035423279, 0.06086605414748192, -0.021847527474164963, -0.019209884107112885, 0.034922435879707336, 0.010571828112006187, -0.047889020293951035, 0.24814777076244354, 0.07593889534473419, 0.10727941244840622, 0.13799549639225006, -0.008354068733751774, -0.13500335812568665, -0.07894021272659302, 0.17306387424468994, -0.16278530657291412, 0.10828550159931183, 0.06585311144590378, 0.01218611653894186, 0.19733969867229462, -0.13071203231811523, -0.10883539170026779, -0.13261549174785614, -0.11672762036323547, 0.14775727689266205, -0.02856065146625042, 0.050136785954236984, 0.011155396699905396, 0.023037025704979897, 0.050071991980075836, 0.06769296526908875, 0.2560321092605591, -0.05312434956431389, -0.012521163560450077, -0.010187548585236073, 0.058233316987752914, -0.14774291217327118, -0.06267860531806946, 0.12255053222179413, -0.12166468054056168, -0.028331022709608078, 0.042298559099435806, 0.03050892800092697, 0.1381567418575287, 0.01564324088394642, 0.04406263679265976, 0.04783942177891731, 0.04350455105304718, 0.11885056644678116, -0.08997078984975815, 0.04282386973500252, 0.030590534210205078, -0.006587930954992771, -0.08368045836687088, 0.03654416278004646, 0.030966153368353844, 0.03025565668940544, 0.03751277178525925, 0.03698913753032684, -0.0666835606098175, 0.06875947117805481, -0.05157593637704849, -0.12300838530063629, -0.09701701253652573, -0.0865633562207222, 0.08788076043128967, 0.04814087226986885, -0.002771741943433881, 0.04290023818612099, 0.12602010369300842, 0.044784944504499435, -0.1467035412788391, 0.11476082354784012, 0.03874706104397774, 0.04726344719529152, -0.060520660132169724, -0.081767238676548, -0.10406121611595154, 0.049429286271333694, 0.0713224932551384, -0.07680036872625351, -0.11690980195999146, -0.08865897357463837, 0.12362100929021835, 0.08145536482334137, 0.08597689867019653, -0.07181776314973831, 0.08983141928911209, 0.06251359730958939, -0.047980960458517075, -0.027576303109526634, -0.026128610596060753, 0.009879987686872482, 0.05548654869198799, 0.006519991904497147, -0.027145443484187126, -0.06753632426261902, 0.06897774338722229, -0.019727163016796112, -0.09028516709804535, 0.12999321520328522, -0.1311919093132019, -0.025024477392435074, 0.08971519023180008, 0.1632642149925232, 0.05631023272871971, 0.04788598790764809, -0.021974416449666023, -0.11068542301654816, -0.09499624371528625, 0.16437765955924988, -0.054027263075113297, -0.0890626460313797, -0.03293146565556526, 0.011313593946397305, -0.1443489044904709, -0.029812924563884735, 0.04659484699368477, -0.14846773445606232, 0.18481367826461792, 0.17903853952884674, 0.12195533514022827, 0.115000419318676, 0.08011893182992935, 0.07690120488405228, 0.02718879096210003, 0.01810344122350216, -0.09969734400510788, 0.09543674439191818, -0.03132956475019455, 0.12467115372419357, 0.07708762586116791, -0.011770470067858696, -0.01663464680314064, -0.09429573267698288, 0.25623804330825806, -0.06570401042699814, -0.11933198571205139, 0.10862327367067337, -0.10180555284023285, -0.11272579431533813, 0.05779527872800827, 0.015234320424497128, 0.06153477355837822, 0.003410534467548132, 0.001213201554492116, -0.05619043856859207, 0.1654033064842224, -0.025306260213255882, 0.10368893295526505, -0.0076415748335421085, 0.05833427980542183, 0.06506771594285965, 0.004189291037619114, -0.008987374603748322, -0.04938014596700668, -0.10537385940551758, 0.04302232339978218, 0.016903674229979515, 0.18963348865509033, -0.06817524135112762, -0.047864265739917755, -0.1521984189748764, -0.11267643421888351, -0.13189512491226196, -0.11036811023950577, -0.02427508309483528, 0.004513690248131752, 0.14720435440540314, -0.020574308931827545, 0.0829310491681099, -0.11205635219812393, 0.05613747984170914, -0.09366167336702347, 0.17344099283218384, 0.17555449903011322, 0.05054253339767456, -0.03996112942695618, 0.13665157556533813, 0.13292807340621948, 0.017419064417481422, 0.06375374644994736, 0.023575427010655403, -0.06920284777879715, -0.12133745104074478, 0.2041327953338623, -0.11433719843626022, 0.08055243641138077, -0.15827521681785583, -0.04104279726743698, 0.15325172245502472, 0.006952522788196802, 0.1260831207036972, -0.08919858187437057, 0.1821533739566803, -0.12913720309734344, -0.052542686462402344, -0.06593024730682373, 0.05955762043595314, -0.07452273368835449, 0.013127422891557217, -0.03135888651013374, 0.0023483745753765106, -0.10746295750141144, -0.02700997143983841, 0.05264376103878021, -0.056463535875082016, 0.03765564784407616, -0.11735483258962631, -0.02353646792471409, -0.00791415199637413, -0.12072645872831345, -0.04923148825764656, 0.008330825716257095, 0.007964462973177433, 0.13217413425445557, -0.14464153349399567, 0.041201647371053696, 0.13542106747627258, 0.04335424676537514, -0.08859837800264359, -0.07505545765161514, 0.10730717331171036, 0.01030130498111248, 0.01701074279844761, -0.05804867669939995, 0.16241560876369476, -0.05814672261476517, 0.005395389627665281, 0.11903664469718933, 0.11083889752626419, -0.15367311239242554, 0.09486830234527588, 0.06149822100996971, -0.055797625333070755, 0.07532648742198944, 0.04660981148481369, 0.05619359016418457, 0.155386283993721, 0.0034225941635668278, -0.03879984840750694, -0.16697350144386292, 0.03364891931414604, 0.05343496799468994, 0.12723679840564728, -0.16686272621154785, 0.036072637885808945, -0.0201887134462595, -0.021796779707074165, -0.04624665156006813, 0.014317558147013187, -0.04848465695977211, -0.0777013972401619, 0.027484972029924393, 0.035824984312057495, 0.10072344541549683, 0.10300271958112717, -0.01832703687250614, 0.060671616345644, 0.05623051896691322, -0.016376551240682602, -0.03302152454853058, 0.11015595495700836, -0.010616417042911053, -0.006297396495938301, 0.0955592542886734, -0.013680892996490002, -0.07670004665851593, -0.07205017656087875, 0.07061300426721573, -0.053903624415397644, 0.008478102274239063, 0.007386323530226946, 0.030662886798381805, 0.02081780880689621, 0.03715655207633972, -0.05151292681694031, -0.014076498337090015, -0.018685780465602875, 0.10145028680562973, -0.08570660650730133, -0.039215173572301865, -0.04446277394890785, -0.03939524665474892, 0.06162865459918976, 0.1008141040802002, 0.00023769846302457154, 0.04783256724476814, -0.062051720917224884, 0.03320235013961792, 0.021472502499818802, -0.12139853090047836, 0.02334444224834442, 0.09305964410305023, 0.11134500056505203, -0.05875765159726143, -0.041316475719213486, -0.10179372131824493, -0.0005392031744122505, 0.07562863826751709, 0.06899720430374146, -0.12265343964099884, -0.03510628640651703, 0.06013145670294762, -0.07492626458406448, -0.02131844311952591, -0.017895441502332687, -0.09002029895782471, -0.00200292794033885, 0.14855080842971802, -0.07520824670791626, 0.14832839369773865, -0.05878721550107002, 0.12134253233671188, -0.03581426292657852, -0.009764660149812698, 0.0539298877120018, -0.10727624595165253, 0.08335340768098831, 0.027306323871016502, 0.1204763874411583, 0.1847294569015503, 0.12479569017887115, -0.11097419261932373, -0.05401964485645294, 0.11492075771093369, -0.009718186222016811, 0.21963530778884888, 0.020156603306531906, 0.08137612789869308, 0.12067161500453949, 0.022800449281930923, 0.07405725121498108, 0.1637299507856369, 0.015624484047293663, -0.058298833668231964, -0.038888804614543915, -0.02150833234190941, -0.10903539508581161, 0.164336696267128, -0.1574072688817978, 0.15023691952228546, 0.07811368256807327, -0.007765788119286299, 0.10225431621074677, 0.11131390929222107, -0.13840220868587494, -0.06891023367643356, 0.060410451143980026, 0.1152343600988388, 0.11451400816440582, 0.19905787706375122, 0.029291998594999313, -0.08584117144346237, -0.06619083136320114, -0.05431606248021126, 0.06269492208957672, -0.08438828587532043, 0.013969226740300655, -0.042735613882541656, 0.019754618406295776, -0.020646262913942337, -0.031881026923656464, 0.016317959874868393, 0.0726664811372757, 0.029538976028561592, 0.10002323240041733, -0.14020688831806183, 0.04114610329270363, 0.12477342039346695, -0.10956157743930817, 0.05624304711818695, -0.11428432911634445, -0.13246645033359528, -0.04995722696185112, -0.12399333715438843, 0.02009233459830284, 0.07061854749917984, -0.08058527857065201, -0.09877771884202957, 0.08711548149585724, 0.11531177163124084, 0.10856550186872482, 0.05571666359901428, 0.05150316655635834, -0.09446457028388977, -0.05375903844833374, 0.15352164208889008, 0.060245759785175323, -0.01604052074253559, 0.12898845970630646, -0.22114858031272888, 0.14854839444160461, 0.08398666977882385, 0.02779257297515869, 0.01354678999632597, 0.09692355245351791, 0.010452156886458397, 0.0950540080666542, -0.08111033588647842, -0.08199162781238556, -0.06020781397819519, 0.06838726252317429, 0.01829501800239086, 0.05199627950787544, 0.08237066864967346, -0.02872217632830143, 0.08401964604854584, -0.07460322976112366, 0.008898908272385597, -0.05491521582007408, -0.03662160038948059, -0.07463334500789642, 0.027112172916531563, -0.09752466529607773, 0.10140721499919891, 0.09533604979515076, 0.0042993794195353985, 0.15547186136245728, 0.010866845957934856, 0.1617397665977478, 0.07848359644412994, 0.09466593712568283, -0.09087606519460678, 0.10072369128465652, -0.04746099188923836, -0.10931560397148132, -0.15970541536808014, 0.05599479004740715, -0.14579178392887115, -0.019196756184101105, -0.065006323158741, -0.04136873036623001, 0.014425150118768215, -0.035174187272787094, 0.011916201561689377, 0.1513931006193161, -0.018922222778201103, -0.017774926498532295, 0.08714771270751953, 0.11895318329334259, 0.11500964313745499, -0.033063311129808426, 0.025002319365739822, -0.01346177700906992, -0.059266943484544754, 0.01887076161801815, -0.03265901282429695, -0.07851303368806839, 0.10256760567426682, 0.09196722507476807, 0.06521815061569214, 0.11458887159824371, -0.1211097463965416, 0.010171392932534218, 0.2619627118110657, 0.010842068120837212, 0.035267069935798645, 0.14891524612903595, 0.023850273340940475, -0.04223744571208954, 0.04253258928656578, 0.07871701568365097, -0.15250283479690552, -0.005129177588969469, 0.034976501017808914, 0.05801064893603325, 0.023012137040495872, -0.07687510550022125, 0.0675402507185936, 0.04865279793739319, -0.08240582793951035, -0.0675826445221901, 0.025694968178868294, 0.09236064553260803, -0.13512027263641357, -0.03576154261827469, 0.024912746623158455, -0.05259907245635986, 0.20997975766658783, -0.14486485719680786, 0.051371678709983826, -0.011618966236710548, 0.12260051816701889, -0.08512222021818161, 0.07946977764368057, -0.12343958765268326, 0.03669053316116333, -0.05815844610333443, -0.09256016463041306, -0.00441927183419466, 0.14349250495433807, -0.11975579708814621, 0.0314779095351696, -0.03902845084667206, -0.14820323884487152, -0.09823847562074661, -0.02464865893125534, 0.004611643962562084, 0.06407419592142105, -0.03609762340784073, -0.049453359097242355, -0.03626924008131027, -0.03392498940229416, -0.04705822840332985, -0.097913458943367, 0.002741739386692643, 0.0917423889040947, 0.017987724393606186, -0.003939269110560417, -0.043421171605587006, 0.06807447224855423, -0.04342431575059891, -0.07392463088035583, -0.02182069607079029, -0.07994595170021057, -0.041673071682453156, -0.06725775450468063, 0.049860842525959015, 0.039155662059783936, 0.04672340676188469, 0.09275105595588684, -0.09760449081659317, -0.05439150333404541, 0.00634415540844202, -0.00902909878641367, 0.12653802335262299, 0.09520009160041809, 0.043910492211580276, 0.06584392488002777, 0.042706623673439026, -0.006515740882605314, -0.06287100911140442, -0.1101376935839653, -0.100880928337574, -0.12317360937595367, 0.10044689476490021, -0.0446433499455452, -0.12306501716375351, 0.020834870636463165, -0.09168632328510284, -0.014717454090714455, -0.08211148530244827, -0.07149272412061691, -0.017169451341032982, -0.07687947154045105, -0.05920031666755676, -0.05024028569459915, -0.007420088164508343, 0.04379921406507492, 0.03841179981827736, -0.10408902913331985, -0.08159737288951874, -0.038473717868328094, -0.0029049550648778677, -0.09101784229278564, 0.029076777398586273, -0.04299669712781906, -0.04493199661374092, 0.14654511213302612, -0.030730655416846275, -0.04081220179796219, -0.018740924075245857, -0.0049644773826003075, -0.0596369169652462, 0.11239991337060928, 0.08496735990047455, 0.06111351400613785, 0.04918505623936653, 0.03528164327144623, 0.08708442747592926, -0.056233640760183334, 0.05283050984144211, 0.06593434512615204, 0.013255452737212181, 0.018592581152915955, 0.045193448662757874, 0.1269376277923584, 0.02568056806921959, -0.08941188454627991, 0.03243410587310791, -0.09371788799762726, 0.022655688226222992, 0.055408135056495667, -0.002729375148192048, 0.09053993225097656, -0.04502280801534653, -0.1323402374982834, -0.011594909243285656, -0.08200233429670334, -0.08785448223352432, 0.005288709886372089, 0.0691613256931305, -0.10067874938249588, 0.023929648101329803, -0.007621522061526775, -0.1124153807759285, 0.040510840713977814, 0.031035764142870903, -0.015035060234367847, 0.11425544321537018, 0.03517111763358116, -0.02682863362133503, -0.05474651977419853, 0.0782691091299057, -0.036892492324113846, -0.06360387802124023, 0.10021998733282089, -0.006002449430525303, 0.030387472361326218, -0.010662217624485493, 0.015551506541669369, -0.10467157512903214, 0.10288697481155396, 0.05114195868372917, 0.008966832421720028, 0.12755919992923737, 0.017153680324554443, 0.027194220572710037, -0.05758149176836014, -0.11822468787431717, 0.03254757076501846, -0.08320784568786621, -0.03482090309262276, 0.06799973547458649, -0.08172852545976639, 0.02618512697517872, 0.10872848331928253, -0.0008325158269144595, 0.13998627662658691, 0.005119726527482271, 0.12674356997013092, -0.037345632910728455, 0.02940947376191616, 0.10021249949932098, 0.11452900618314743, 0.0031651826575398445, -0.028365708887577057, 0.13001517951488495, -0.12089899182319641, 0.13762973248958588, 0.04009909927845001, 0.11934779584407806, -0.13236181437969208, 0.09523021429777145, 0.009055253118276596, -0.06695108860731125, 0.13420341908931732, 0.09579470753669739, -0.031371474266052246, 0.07511752098798752, -0.05006679147481918, 0.024701518937945366, 0.14752128720283508, -0.01648060977458954, -0.07132728397846222, 0.04085260257124901, 0.0992191880941391, 0.09547244757413864, 0.10781051218509674, -0.06706265360116959, -0.003215267788618803, -0.08240986615419388, -0.10533686727285385, 0.10736896097660065, -0.1092117577791214, -0.0327397845685482, 0.06702212989330292, -0.09982479363679886, 0.1348179280757904, -0.0194813534617424, 0.16756747663021088, -0.09081091731786728, 0.03316717594861984, -0.14197701215744019, -0.058998264372348785, -0.1147947609424591, 0.024279190227389336, -0.01585906185209751, -0.11483010649681091, -0.04375210404396057, 0.0918102040886879, 0.07443773746490479, 0.060429759323596954, -0.14966508746147156, -0.1134452372789383, -0.007850605994462967, 0.04000755399465561, -0.03162023797631264, 0.02067491225898266, 0.023374563083052635, 0.01841597445309162, 0.07827939838171005, 0.04644399136304855, 0.05050261318683624, 0.008424920029938221, 0.08478984981775284, -0.08654998242855072, -0.07927072793245316, -0.07170000672340393, 0.0896015614271164, -0.014461959712207317, 0.0363493412733078, 0.008416852913796902, 0.009409395977854729, -0.04578271135687828, -0.001209678826853633, 0.01940050721168518, -0.0076913689263165, 0.12593933939933777, 0.024536918848752975, 0.23100094497203827, 0.07038122415542603, -0.06508708000183105, 0.12894760072231293, -0.10451348125934601, -0.005860301665961742, -0.03630291670560837, 0.08406095951795578, 0.05720946565270424, -0.06819313019514084, -0.04419752582907677, 0.0054303379729390144, 0.12224365025758743, -0.09702768921852112, 0.15093961358070374, -0.10165569931268692, 0.08335866034030914, 0.1272016316652298, -0.05751378834247589, -0.11515078693628311, 0.05446020886301994, -0.05203230679035187, -0.03687285631895065, 0.09512405842542648, 0.08106108009815216, -0.12077085673809052, -0.10330067574977875, -0.016437280923128128, -0.0570220984518528, 0.03078620694577694, 0.0607476569712162, -0.11440449208021164, -0.10434309393167496, 0.05319476127624512, -0.04447106644511223, -0.1362317055463791, -0.03794512525200844, -0.03754283860325813, -0.07508327066898346, -0.09595158696174622, -0.04476279765367508, 0.05765305086970329, 0.03058209829032421, 0.1146170049905777, -0.030943524092435837, -0.10864382237195969, -0.019657330587506294, -0.013483225367963314, -0.08985038846731186, 0.008416722528636456, 0.03580089658498764, 0.13665130734443665, -0.11675051599740982, -0.04684718698263168, -0.032946642488241196, -0.008019190281629562, 0.13686639070510864, 0.022015372291207314, -0.10992364585399628, 0.09251642227172852, 0.03896638751029968, -0.11435799300670624, -0.10549790412187576, 0.04884040728211403, -0.10187563300132751, -0.09313391149044037, 0.056795231997966766, 0.006009562406688929, 0.15855136513710022, 0.008918671868741512, 0.09266123920679092, -0.06081926077604294, -0.0709940567612648, -0.045364800840616226, -0.06551265716552734, 0.1077825054526329, 0.06219945847988129, 0.12688693404197693, 0.06559332460165024, -0.038460131734609604, -0.09744604676961899, -0.0745198205113411, 0.023675259202718735, -0.10707131028175354, 0.004005262162536383, 0.08771934360265732, -0.03928991034626961, -0.0156790129840374, -0.08139866590499878, 0.07405396550893784, -0.10440882295370102, 0.15752923488616943, -0.06797320395708084, 0.052501924335956573, -0.10621511936187744, 0.053395867347717285, 0.15131503343582153, -0.12328220903873444, 0.060175780206918716, -0.14778080582618713, 0.13318315148353577, 0.0925532728433609, 0.01007410790771246, 0.09703819453716278, -0.024892201647162437, 0.0360550656914711, 0.05213930457830429, -0.06314494460821152, 0.12941357493400574, 0.04710254818201065, -0.0008972791256383061, 0.004215835127979517, -0.07151961326599121, -0.10195035487413406, 0.07763998955488205, 0.11213861405849457, 0.09804730862379074, 0.0015600593760609627, 0.10295210033655167, -0.1301794946193695, 0.12155953794717789, 0.05441766977310181, -0.025125626474618912, -0.13461662828922272, -0.0661032423377037, -0.04009386524558067, -0.10479980707168579, 0.0339391827583313, -0.05855194479227066, 0.004580505657941103, 0.15225273370742798, -0.022880522534251213, 0.051245782524347305, 0.15919943153858185, -0.01750176213681698, 0.06418194621801376, 0.09167257696390152, 0.0763283297419548, 0.08985265344381332, -0.10142220556735992, -0.10279887914657593, 0.15301896631717682, -0.10870906710624695, 0.013193046674132347, 0.05498882383108139, 0.050047867000103, 0.0265501756221056, 0.06876558810472488, -0.08992006629705429, -0.10676674544811249, -0.14252445101737976, -0.006275205407291651, 0.048676300793886185, -0.06999330222606659, 0.11174710094928741, 0.016881857067346573, 0.05916262045502663, 0.008808888494968414, -0.08851788938045502, -0.08697016537189484, -0.02791089378297329, -0.028621237725019455, 0.043054141104221344, -0.1077672690153122, -0.05220459774136543, -0.1099521666765213, 0.1343333125114441, 0.043900266289711, -0.057600636035203934, 0.12811604142189026, 0.048437993973493576, 0.10994746536016464, 0.010414081625640392, -0.00018884407472796738, -0.13526594638824463, 0.028469879180192947, -0.04501093551516533, -0.05131871998310089, -0.11550652980804443, 0.08156336843967438, 0.0659189373254776, 0.06595198810100555, -0.015795644372701645, 0.0400434285402298, 0.10102342814207077, -0.07962211966514587, -0.09257180988788605, -0.03394367918372154, 0.09667464345693588, -0.10026866942644119, -0.08588393777608871, 0.0023189184721559286, -0.17473547160625458, -0.059548597782850266, 0.08249790221452713, -0.07713808119297028, -0.008353159762918949, 0.09972929954528809, 0.03960149362683296, -0.0863109603524208, 0.06053318455815315, 0.11516783386468887, 0.043931905180215836, -0.11017268896102905, 0.028507323935627937, 0.07531636953353882, 0.08405376970767975, -0.06135048344731331, 0.11016493290662766, 0.056125301867723465, 0.02592647820711136, -0.07622424513101578, -0.007096910383552313, -0.08591911196708679, 0.00015513607650063932, 0.04039067402482033, -0.0240388922393322, 0.059687964618206024, 0.08086418360471725, -0.02826589159667492, -0.11571316421031952, 0.0760209932923317, 0.08951670676469803, 0.0016880612820386887, 0.047025416046381, -0.16627724468708038, -0.10182508826255798, -0.05390338599681854, 0.009699198417365551, -0.12649208307266235, 0.07506576180458069, -0.13299168646335602, 0.02146303653717041, 0.06962801516056061, -0.03184547647833824, -0.011077533476054668, -0.0648818239569664, 0.01973142847418785, -0.06854821741580963, -0.07658395916223526, -0.07446794956922531, -0.15382929146289825, -0.05972035601735115, 0.07668337970972061, 0.08939968794584274, -0.05774214491248131, -0.0661906823515892, 0.051722295582294464, -0.07517866790294647, -0.002942292718216777, 0.03809794783592224, -0.07919850945472717, 0.061761610209941864, -0.0997728556394577, -0.0004902977379970253, 0.004702722188085318, -0.016433479264378548, -0.054167866706848145, -0.03234328329563141, 0.044430360198020935, -0.03435162082314491, -0.0504123829305172, -0.1502550095319748, 0.07175582647323608, -0.006924471352249384, -0.053388018161058426, -0.10248677432537079, -0.012090638279914856, -0.13706566393375397, -0.06683861464262009, -0.1215013787150383, 0.024399133399128914, -0.15582063794136047, 0.0449758879840374, -0.16905750334262848, -0.0635053738951683, 0.06533977389335632, -0.037407200783491135, -0.06145135685801506, -0.13628141582012177, 0.05270535498857498, 0.018219994381070137, -0.07315938174724579, 0.00821611750870943, 0.061407413333654404, -0.11238669604063034, 0.06361981481313705, -0.1380181759595871, 0.08670014142990112, 0.015691425651311874, -0.009653531014919281, 0.1027534008026123, -0.0448354110121727, -0.013273334130644798, 0.01847686804831028, 0.03167065605521202, 0.018992247059941292, 0.024097202345728874, -0.002030543051660061, -0.11731793731451035, -0.06973689794540405, -0.07314124703407288, 0.049552977085113525, -0.020574776455760002, -0.08360717445611954, -0.02843228355050087, -0.04974578320980072, -0.10734100639820099, -0.10630400478839874, -0.05425010994076729, 0.06309317797422409, 0.03302136808633804, -0.04405314475297928, 0.09607185423374176, 0.062012091279029846, 0.001196162891574204, 0.09730890393257141, 0.13657061755657196, 0.05716785416007042, -0.011640934273600578, 0.24026499688625336, 0.07365546375513077, -0.09679015725851059, 0.11871174722909927, -0.03728971257805824, 0.058855198323726654, 0.04418973997235298, -0.02425519935786724, -0.058054834604263306, -0.05141020938754082, -0.03492288663983345, 0.038690462708473206, 0.10503844171762466, -0.10471711307764053, -0.010808952152729034, -0.053830161690711975, -0.011793295852839947, 0.005531457252800465, 0.1143135353922844, 0.04198933765292168, -0.04332748055458069, -0.03606097400188446, -0.05270269885659218, -0.09648621082305908, 0.07701299339532852, 0.06893382221460342, -0.025127170607447624, 0.05525363236665726, 0.07632403820753098, 0.033829186111688614, -0.09577557444572449, 0.10657022893428802, 0.06548591703176498, 0.07524693757295609, -0.07514248043298721, -0.0005780113860964775, -0.01599865034222603, 0.03161350265145302, 0.10781139880418777, 0.0007745097391307354, 0.09748146682977676, 0.041658733040094376, 0.09099432826042175, 0.08695488423109055, 0.06165425106883049, 0.10383819788694382, -0.07515811920166016, 0.03157872334122658, 0.13639819622039795, 0.08933120220899582, 0.16356967389583588, -0.005090697202831507, 0.11190910637378693, 0.12072591483592987, -0.1047494187951088, -0.046395443379879, -0.06777489185333252, 0.07670539617538452, 0.0529649592936039, 0.06516104191541672, -0.05949239805340767, 0.08807308226823807, 0.00018863890727516264, 0.08720657229423523, 0.23009967803955078, -0.08749961107969284, 0.01913645677268505, 0.015892669558525085, 0.042982641607522964, -0.09811896085739136, 0.08735986053943634, 0.15386390686035156, -0.04988187178969383, 0.011150985956192017, -0.0320831835269928, -0.06335680186748505, 0.10976502299308777, 0.07871328294277191, 0.05798545852303505, 0.048021674156188965, 0.04798606038093567, -0.032521214336156845, -0.09952177852392197, -0.1241483986377716, 0.11580485850572586, -0.10302723944187164, -0.06521543115377426, 0.012995071709156036, -0.05021078884601593, 0.001114508486352861, -0.012577147223055363, -0.02184474654495716, 0.018737459555268288, 0.0059555876068770885, 0.12083444744348526, -0.007968458347022533, 0.010729162022471428, -0.028323672711849213, -0.0828605517745018, 0.021168362349271774, 0.11436641216278076, 0.12085433304309845, -0.04551558196544647, -0.11064992845058441, -0.14244581758975983, 0.11545360833406448, 0.07913888990879059, 0.1097928136587143, 0.010337271727621555, 0.03736970201134682, -0.011629780754446983, 0.04431157186627388, 0.05646659806370735, 0.1282946914434433, -0.03558073192834854, 0.05123159661889076, -0.05932188406586647, 