{"layers": [{"num_inputs": 15, "num_outputs": 64, "weights": [0.153291255235672, 0.12694665789604187, -0.21391652524471283, 0.09716646373271942, -0.051123037934303284, 0.10045892745256424, -0.027518168091773987, 0.29799315333366394, 0.16865628957748413, -0.21065226197242737, -0.008169706910848618, -0.060388822108507156, -0.23499655723571777, 0.10581148415803909, 0.21507574617862701, 0.07233738154172897, 0.1735098659992218, 0.16813452541828156, 0.12745317816734314, -0.23095625638961792, -0.02980288676917553, 0.04585172235965729, -0.11817312240600586, -0.11656468361616135, -0.15458223223686218, 0.13385701179504395, -0.08038812130689621, 0.0706586167216301, -0.05519434064626694, 0.08553492277860641, 0.22994458675384521, -0.010028867982327938, 0.28705912828445435, 0.1470635086297989, 0.23053821921348572, -0.20111124217510223, -0.13989195227622986, -0.05847931280732155, -0.054098837077617645, -0.2388327270746231, -0.09525773674249649, -0.13766619563102722, 0.0971510261297226, 0.23350417613983154, 0.3145314157009125, 0.3474801480770111, 0.19687733054161072, -0.007355708163231611, 0.18138188123703003, -0.24462084472179413, -0.21329598128795624, 0.24931538105010986, 0.08018579334020615, 0.020597506314516068, 0.21917608380317688, -0.1995721310377121, -0.11676309257745743, 0.21385407447814941, 0.37732332944869995, -0.04091038554906845, 0.003899999428540468, 0.19931739568710327, -0.186914324760437, 0.0543588325381279, 0.21974942088127136, 0.10924747586250305, 0.06267595291137695, -0.10187207162380219, -0.24143150448799133, 0.22437365353107452, 0.0630558654665947, -0.026621075347065926, -0.06763658672571182, -0.2958345413208008, -0.08269722759723663, -0.035578906536102295, 0.010138774290680885, -0.03672794997692108, -0.20877867937088013, 0.08596834540367126, 0.17494253814220428, -0.27260276675224304, 0.056600429117679596, -0.11129552125930786, -0.12960956990718842, -0.05475202575325966, -0.22501644492149353, 0.022015275433659554, -0.26423245668411255, 0.07978085428476334, 0.041561372578144073, -0.19596010446548462, 0.18413740396499634, -0.015238209627568722, -0.12667164206504822, -0.0020719668827950954, 0.03689150512218475, 0.2673930525779724, 0.2574865221977234, -0.24079890549182892, -0.16994927823543549, -0.14833731949329376, -0.03196404501795769, -0.12864938378334045, -0.046950045973062515, 0.43762579560279846, 0.004525139927864075, -0.0404197983443737, -0.21261854469776154, 0.18573908507823944, 0.24513837695121765, -0.1345328688621521, -0.07522707432508469, -0.0039045715238898993, -0.1931392401456833, 0.2625543475151062, -0.27969154715538025, -0.11482337862253189, 0.19322524964809418, 0.1828925758600235, 0.07534344494342804, 0.012998685240745544, -0.07478637248277664, -0.15499629080295563, -0.1937526911497116, -0.20128652453422546, -0.09582667052745819, 0.09606721997261047, -0.11333441734313965, -0.06106853112578392, -0.024656908586621284, 0.14038032293319702, 0.047575004398822784, -0.2019702047109604, -0.2354077249765396, 0.06341059505939484, 0.009438179433345795, 0.09425640851259232, -0.04470163211226463, 0.16452747583389282, 0.07810787111520767, -0.13810400664806366, 0.12220893800258636, 0.10529172420501709, 0.0350230447947979, 0.27200570702552795, 0.13417895138263702, 0.0426095649600029, 0.27106600999832153, 0.04438549280166626, 0.5406709313392639, -0.010950323194265366, 0.24542167782783508, -0.11876770108938217, 0.055547453463077545, 0.09161970019340515, -0.2287464588880539, -0.120455302298069, -0.2126139998435974, -0.11666455119848251, 0.27347075939178467, -0.20309580862522125, -0.2969176471233368, -0.08924127370119095, 0.007575094234198332, -0.06282854080200195, -0.04040885716676712, -0.2709839642047882, -0.23960162699222565, -0.10265226662158966, -0.12512193620204926, 0.12171745300292969, 0.1495634913444519, 0.24977146089076996, -0.19574293494224548, 0.16359740495681763, -0.20828209817409515, -0.223372220993042, -0.1250353753566742, -0.09086954593658447, -0.23277601599693298, 0.16892686486244202, 0.2451293170452118, -0.076272152364254, 0.09469626843929291, -0.23421967029571533, 0.1693871170282364, -0.1241157054901123, 0.12691693007946014, 0.12823590636253357, -0.18873383104801178, 0.10407662391662598, -0.1751047670841217, 0.032135799527168274, 0.06484409421682358, 0.007261345162987709, 0.1837908774614334, -0.15776324272155762, -0.12210356444120407, -0.013736734166741371, 0.2058510184288025, -0.2637251615524292, -0.17432795464992523, -0.07656026631593704, 0.0016787211643531919, 0.015020204707980156, 0.1321517378091812, 0.08407267928123474, -0.21579550206661224, -0.11872882395982742, -0.21796324849128723, -0.1872285008430481, -0.05803750082850456, 0.11800475418567657, -0.03389991447329521, 0.19477824866771698, -0.11299331486225128, 0.154525026679039, -0.19506534934043884, 0.059340089559555054, 0.1888638734817505, 0.14835450053215027, 0.07903934270143509, -0.13560357689857483, -0.16319778561592102, 0.39041194319725037, -0.032213740050792694, 0.1485724151134491, -0.023300811648368835, 0.15462686121463776, -0.2470972090959549, -0.026568589732050896, -0.20929616689682007, -0.060035038739442825, 0.15516497194766998, 0.1884872317314148, -0.2641846835613251, 0.014689763076603413, 0.12778034806251526, 0.009766456671059132, -0.015334009192883968, -0.1470717191696167, -0.19990967214107513, 0.1913723200559616, 0.042280323803424835, -0.19009597599506378, -0.049075864255428314, 0.046373769640922546, -0.03525155410170555, 0.14321628212928772, 0.0868682861328125, -0.07580439001321793, 0.2749377191066742, -0.03906747326254845, -0.2309175431728363, -0.1526843011379242, 0.02181732840836048, -0.05861205980181694, 0.017168087884783745, 0.012417344376444817, -0.0004769688530359417, -0.013641947880387306, -0.0837370753288269, 0.22942398488521576, -0.1886753886938095, 0.07263441383838654, 0.07800427079200745, -0.15976077318191528, -0.1903659552335739, -0.10569527745246887, -0.197475865483284, 0.08260845392942429, -0.08907128870487213, -0.1770532727241516, 0.09280489385128021, -0.006892061326652765, -0.1796324998140335, -0.1839231550693512, -0.17211700975894928, 0.16737565398216248, -0.18640364706516266, -0.23659448325634003, -0.01581103354692459, -0.10142990946769714, -0.048156049102544785, -0.16541510820388794, 0.15994775295257568, -0.13047662377357483, -0.2265763133764267, 0.22794555127620697, 0.18424087762832642, -0.134653702378273, -0.28094908595085144, -0.06193435937166214, 0.08813934028148651, -0.21416199207305908, 0.20092949271202087, 0.013622134923934937, 0.0860021784901619, 0.13440607488155365, 0.4077635109424591, -0.1161370724439621, 0.010072178207337856, -0.1604360044002533, 0.003778354963287711, -0.11734715849161148, -0.17324836552143097, 0.09251868724822998, -0.12148553133010864, -0.1028846874833107, -0.076319620013237, 0.12881936132907867, 0.0964915081858635, 0.023088833317160606, -0.02238171175122261, -0.1495555192232132, -0.1043458953499794, -0.06664086878299713, 0.22485266625881195, 0.08570531010627747, 0.08507239818572998, -0.06998144090175629, 0.13688261806964874, 0.126105397939682, -0.007193556055426598, -0.0004999936209060252, -0.10766308754682541, 0.009243980050086975, -0.18615682423114777, -0.1798877716064453, 0.1476881206035614, -0.009506894275546074, 0.04716735705733299, 0.13141071796417236, -0.10079386830329895, 0.04818329960107803, 0.13772140443325043, -0.26329970359802246, -0.014685569331049919, 0.2417142540216446, -0.21261978149414062, -0.141909658908844, 0.2416209727525711, 0.14810621738433838, -0.0016725407913327217, 0.3475585877895355, 0.0470506027340889, 0.23002620041370392, -0.19569210708141327, -0.10634465515613556, 0.037511564791202545, 0.3119877576828003, -0.2152990698814392, -0.01656378246843815, 0.17356401681900024, 0.21700993180274963, 0.13175275921821594, -0.08275722712278366, 0.2846226394176483, -0.010442686267197132, 0.21579395234584808, -0.16171252727508545, 0.03335845097899437, 0.24790668487548828, 0.20296414196491241, -0.24942567944526672, 0.10648041218519211, 0.06745993345975876, -0.10419809073209763, 0.09587106853723526, 0.06137579679489136, 0.06816623359918594, 0.08187285810709, 0.09951440989971161, -0.2719711661338806, -0.21289660036563873, -0.17777441442012787, -0.013487162999808788, -0.21949650347232819, -0.20284943282604218, 0.025701584294438362, -0.16083550453186035, -0.1087711751461029, -0.19969606399536133, 0.060290735214948654, -0.26316604018211365, 0.2093176543712616, 0.05954153090715408, 0.19246792793273926, 0.0192476287484169, -0.1609974354505539, -0.22836777567863464, -0.29047995805740356, -0.18685610592365265, -0.032797638326883316, 0.06657758355140686, 0.18862849473953247, 0.3920905590057373, 0.11862103641033173, -0.10355790704488754, 0.0737384781241417, -0.24256443977355957, -0.12515757977962494, 0.01736246794462204, -0.1896408051252365, -0.0007352091488428414, -0.1588691920042038, 0.2402382791042328, 0.01744895428419113, 0.012726673856377602, 0.014393934980034828, -0.10562477260828018, -0.05921575799584389, 0.19918577373027802, 0.059194713830947876, -0.12004152685403824, -0.22692695260047913, 0.1484851837158203, 0.14131034910678864, -0.213590607047081, 0.11257259547710419, -0.07921921461820602, -0.19761908054351807, -0.031147293746471405, -0.19314254820346832, 0.08712086826562881, 0.0625799223780632, -0.16107095777988434, 0.06624758243560791, 0.07370476424694061, -0.018990756943821907, -0.019633948802947998, 0.18930359184741974, 0.11402904242277145, 0.17660392820835114, -0.21058152616024017, 0.1832730621099472, 0.055502213537693024, 0.21210215985774994, -0.23839467763900757, 0.10973015427589417, -0.16560272872447968, -0.026394763961434364, 0.22666090726852417, -0.1256633698940277, 0.16956469416618347, 0.2232770323753357, 0.24630072712898254, 0.12439336627721786, -0.11639942973852158, -0.22313928604125977, 6.1571947298944e-05, -0.08325565606355667, -0.17813900113105774, 0.02613825350999832, 0.201813206076622, -0.1428905576467514, -0.12352713942527771, 0.12348822504281998, 0.21065549552440643, 0.2378109097480774, 0.09685933589935303, 0.16667132079601288, 0.17046308517456055, -0.1608530879020691, 0.12221193313598633, 0.1784820705652237, 0.033392779529094696, 0.12633535265922546, -0.14650605618953705, -0.1909753382205963, -0.018534384667873383, 0.25024545192718506, 0.16373494267463684, 0.1143648698925972, 0.25514528155326843, 0.02932891622185707, -0.022636685520410538, 0.2745380997657776, 0.08431034535169601, 0.0004915560712106526, 0.22850628197193146, -0.012724407017230988, -0.2897689938545227, 0.09725132584571838, -0.126264289021492, 0.03632950037717819, -0.06699059158563614, -0.03949318453669548, -0.2501624524593353, 0.042618442326784134, 0.11287456005811691, -0.04040966555476189, 0.19416174292564392, -0.2755826413631439, 0.12260490655899048, 0.06210675463080406, 0.09254276007413864, 0.006578963249921799, -0.1321660578250885, 0.14468349516391754, -0.012285325676202774, -0.12471020221710205, 0.04986809939146042, -0.26329001784324646, 0.1431421935558319, 0.04241808503866196, -0.027415957301855087, -0.26859360933303833, 0.042851436883211136, 0.35957011580467224, 0.1811733841896057, 0.13183777034282684, 0.24945130944252014, -0.055543359369039536, -0.21756739914417267, -0.24219606816768646, -0.161878302693367, 0.062053143978118896, 0.1129385456442833, -0.08592697978019714, 0.06792836636304855, 0.030836263671517372, -0.07794108986854553, -0.17676405608654022, 0.11841423064470291, -0.2093932181596756, -0.25361427664756775, 0.1732739806175232, -0.23343223333358765, 0.08287449181079865, -0.023039445281028748, -0.1265866607427597, 0.10420611500740051, -0.05020850524306297, -0.1667761653661728, 0.09765205532312393, 0.24574381113052368, -0.14508865773677826, 0.0887889564037323, -0.23100951313972473, -0.20796933770179749, 0.007916652597486973, -0.07640966027975082, 0.03106113336980343, 0.04176205024123192, 0.09965790808200836, 0.0455029122531414, 0.24442099034786224, -0.19537270069122314, -0.01612362079322338, -0.15738101303577423, 0.06850920617580414, -0.1475237011909485, -0.048057522624731064, 0.07060273736715317, 0.20079989731311798, 0.19626714289188385, -0.1697840541601181, -0.1567772477865219, 0.023850038647651672, -0.24757131934165955, 0.22233931720256805, -0.1996893733739853, 0.02440456859767437, 0.13341841101646423, 0.1267804056406021, -0.22904935479164124, -0.05245135352015495, 0.1302730143070221, -0.05331488326191902, -0.13406139612197876, -0.11990635842084885, -0.0967506542801857, 0.13306036591529846, -0.2670035660266876, -0.14166632294654846, 0.14916519820690155, 0.1347445249557495, -0.07044203579425812, 0.2322864830493927, 0.27945858240127563, 0.016345053911209106, 0.08755893260240555, -0.1730750948190689, 0.0985596552491188, 0.19273199141025543, -0.09705810248851776, 0.08386287838220596, 0.17424431443214417, -0.20127686858177185, 0.24007192254066467, -0.20393280684947968, -0.04772334173321724, -0.20840145647525787, -0.20210450887680054, 0.06941241025924683, 0.23415862023830414, -0.21180462837219238, 0.24150986969470978, -0.04357239976525307, 0.10527493804693222, 0.07505317032337189, -0.13677991926670074, 0.1636609584093094, 0.14870081841945648, 0.10188809782266617, -0.15358053147792816, -0.12343191355466843, -0.06859390437602997, -0.07290736585855484, -0.1593368649482727, 0.174089714884758, -0.400346577167511, -0.23559513688087463, -0.16571055352687836, -0.11630919575691223, 0.12541840970516205, 0.18720096349716187, -0.0948818176984787, 0.21937397122383118, -0.19573916494846344, -0.21821832656860352, 0.1624888777732849, -0.16295567154884338, 0.024634286761283875, 0.17364951968193054, -0.175787553191185, 0.26295995712280273, -0.16438527405261993, -0.299046128988266, -0.22444698214530945, -0.18643198907375336, -0.14215905964374542, -0.06049365550279617, 0.2686876952648163, -0.1483718305826187, -0.09057044237852097, -0.09454622119665146, 0.053148310631513596, -0.13679388165473938, -0.20280349254608154, -0.07630686461925507, 0.3014906346797943, 0.005270310211926699, 0.009636676870286465, -0.1348603218793869, -0.14012295007705688, -0.061962004750967026, -0.17417152225971222, -0.268970787525177, 0.1724606603384018, 0.10309330374002457, 0.04689463600516319, -0.17214904725551605, -0.04923441633582115, 0.004270476754754782, -0.02058842033147812, -0.3272387683391571, 0.10645614564418793, -0.08230145275592804, -0.11184485256671906, -0.08062905073165894, 0.23009133338928223, -0.213455930352211, 0.01240745559334755, -0.11642281711101532, -0.24184070527553558, 0.21804356575012207, -0.0010116773191839457, 0.002906741574406624, -0.16993936896324158, -0.17038728296756744, 0.0041758897714316845, 0.12416167557239532, -0.15558458864688873, 0.019611600786447525, 0.027401495724916458, 0.1512959897518158, -0.018199803307652473, 0.10160887241363525, -0.12269605696201324, -0.053441986441612244, -0.07918813824653625, 0.044843826442956924, 0.17503947019577026, -0.03920554369688034, -0.15381793677806854, -0.19580663740634918, 0.13496330380439758, -0.17834892868995667, -0.19482477009296417, -0.006133903283625841, 0.15618640184402466, 0.1291588842868805, -0.04552011936903, -0.07114307582378387, 0.12592200934886932, 0.04395177215337753, 0.09351972490549088, -0.20993800461292267, 0.10859846323728561, 0.05293388292193413, 0.0016879972536116838, -0.273484468460083, 0.1461183875799179, -0.1761116087436676, -0.014807253144681454, -0.0049663446843624115, 0.0019375295378267765, -0.223978653550148, -0.12290821969509125, -0.20759691298007965, -0.12293607741594315, 0.2239243984222412, -0.08576742559671402, -0.23230399191379547, 0.07931599766016006, 0.12095409631729126, -0.06904076784849167, -0.14072243869304657, 0.12891216576099396, -0.0492282509803772, 0.019957873970270157, 0.02862069010734558, -0.0644926130771637, -0.1491827666759491, 0.03720210865139961, -0.06131724268198013, 0.046641755849123, 0.17976564168930054, 0.035155702382326126, 0.15425150096416473, -0.051321689039468765, 0.01179601065814495, -0.20481577515602112, -0.12486539036035538, 0.12261129915714264, -0.0710882693529129, 0.07315175980329514, 0.2929186522960663, -0.1998988687992096, -0.20827360451221466, 0.011272662319242954, 0.2205083668231964, -0.028265539556741714, 0.12290704250335693, 0.15487819910049438, -0.1279638409614563, 0.038399334996938705, 0.12244445085525513, -0.05546339973807335, -0.26320335268974304, 0.1700032651424408, 0.19951795041561127, 0.2196415811777115, -0.005806452594697475, -0.0648571103811264, 0.005012894980609417, -0.20127584040164948, 0.1184765174984932, 0.22290772199630737, 0.05957220494747162, 0.2666756808757782, 0.08655229210853577, 0.2795225977897644, 0.23454532027244568, -0.010954960249364376, 0.07061415165662766, 0.20499259233474731, -0.25738972425460815, 0.24640148878097534, 0.11333216726779938, 0.23054443299770355, 0.24996313452720642, 0.1684342473745346, 0.014355752617120743, 0.23064681887626648, 0.042575959116220474, -0.020739398896694183, 0.11791125684976578, 0.13157226145267487, 0.0420125387609005, 0.17343206703662872, 0.17696619033813477, 0.13675931096076965, -0.1330980360507965, -0.004240267910063267, -0.030523652210831642, -0.06949205696582794, -0.08764386177062988, 0.03368138149380684, -0.19021272659301758, 0.2682625949382782, -0.17516912519931793, -0.09695491939783096, 0.03610957786440849, -0.10411455482244492, 0.13474154472351074, -0.09021694213151932, 0.15822471678256989, 0.14318054914474487, -0.22787731885910034, -0.255795955657959, 0.22187726199626923, 0.2101980596780777, 0.13790273666381836, -0.06866022199392319, 0.158234640955925, -0.12831252813339233, -0.010498381219804287, 0.1297951489686966, 0.08776279538869858, -0.04957258328795433, 0.12356390058994293, -0.040021516382694244, -0.12104963511228561, 0.18174582719802856, 0.1058432087302208, 0.11110278964042664, 0.18891270458698273, 0.12081902474164963, -0.09915503114461899, 0.06578218191862106, 0.030013365671038628, -0.03213891014456749, 0.16269581019878387, -0.20058272778987885, 0.12011124193668365, -0.21974290907382965, -0.03785041347146034, -0.23759305477142334, -0.04908101633191109, -0.029177961871027946, 0.24749335646629333, 0.10853271186351776, 0.006312685087323189, -0.21011781692504883, 0.06729003041982651, 0.17071689665317535, -0.282640665769577, 0.2585810422897339, 0.022084655240178108, 0.00411128718405962, 0.2945721745491028, -0.09127552807331085, 0.10441824048757553, -0.23156699538230896, -0.05088471248745918, -0.21976996958255768, 0.15096835792064667, 0.2693656384944916, 0.19583694636821747, -0.288250207901001, -0.21946944296360016, 0.09208092093467712, -0.1741616427898407, -0.009653456509113312, 0.4630821943283081, 0.07151050865650177, -0.020510515198111534, 0.08219172060489655, -0.08604561537504196, 0.12058636546134949, -0.06753864139318466, -0.14355160295963287, -0.23202767968177795, 0.14357440173625946, -0.2734200358390808, -0.24689453840255737, 0.03325532749295235, -0.10722671449184418, 0.026052208617329597, 0.26240411400794983, 0.09456627070903778, -0.02433660626411438, -0.12735693156719208, 0.019560912624001503, -0.07853946834802628, -0.22597236931324005, 0.10670138895511627, 0.10777939856052399, 0.2685315012931824, 0.3963927626609802, -0.11250925809144974, -0.09612488001585007, -0.07360100001096725, 0.002014984143897891, 0.15568409860134125, -0.09835407137870789, -0.14335843920707703, 0.1890236884355545, -0.0702434629201889, 0.022561199963092804, 0.03282850235700607, -0.19984282553195953, 0.1376630812883377, 0.045736100524663925, -0.1412409543991089, 0.14826154708862305, 0.16649159789085388, -0.19798079133033752, -0.09489842504262924, 0.10142529010772705, 0.11856069415807724, 0.13423983752727509, -0.2292991727590561, 0.08544031530618668, -0.21340297162532806, 0.07058767229318619, -0.17941783368587494, 0.05809566006064415, -0.10634239763021469, 0.2947949767112732, -0.20037201046943665, -0.1810644268989563, 0.22135157883167267, 0.04006914049386978, 0.24588865041732788, 0.2612084448337555, 0.09410366415977478, 0.17434744536876678, 0.06705846637487411, -0.2645849883556366, -0.0834486186504364, -0.024202119559049606, -0.21282993257045746, 0.14337745308876038, 0.009593282826244831, 0.12588663399219513, -0.10746452957391739, 0.09906447678804398, -0.2363944947719574, 0.08376031368970871, 0.20216068625450134, -0.09910666942596436, -0.21516931056976318, 0.17811501026153564, -0.23672950267791748, -0.02059810236096382, -0.15155929327011108, -0.10338260233402252, 0.1122317761182785, 0.15549631416797638, -0.11457468569278717, 0.017490452155470848, 0.09843093901872635, -0.19322308897972107, 0.1882525384426117, 0.006184382364153862, 0.27967360615730286, -0.08320261538028717, 0.03160799667239189, 0.025673039257526398, -0.1174841821193695, -0.18185041844844818, -0.260415643453598, -0.15885642170906067, -0.03936207294464111, -0.15137192606925964], "biases": [-0.06860508024692535, 0.15988530218601227, -0.18063369393348694, 0.084917351603508, 0.09553062170743942, 0.12435846030712128, 0.08829158544540405, 0.108717180788517, -0.06220877170562744, -0.09745186567306519, -0.008797962218523026, 0.21560515463352203, 0.02637849561870098, 0.10308729112148285, 0.08448106050491333, -0.0740373358130455, -0.1815277487039566, -0.16949695348739624, 0.11070016771554947, 0.009493671357631683, 0.10331320017576218, 0.13625411689281464, -0.08042280375957489, -0.14808666706085205, -0.19304847717285156, 0.12961816787719727, -0.19069649279117584, -0.15404708683490753, 0.0458005890250206, 0.10799487680196762, -0.05912860110402107, -0.15349073708057404, 0.18450240790843964, 0.03956175595521927, -0.16743166744709015, -0.25082746148109436, 0.1254872977733612, -0.02172425203025341, 0.099063940346241, 0.014771289192140102, -0.03147153556346893, -0.0013353106332942843, 0.1734733134508133, 0.2471676468849182, -0.07991566509008408, -0.21635302901268005, -0.10371201485395432, 0.19860117137432098, 0.03609754890203476, 0.09458005428314209, -0.1494344025850296, 0.058229733258485794, 0.14992253482341766, -0.17583896219730377, -0.16251249611377716, 0.2055002599954605, 0.04322078078985214, -0.22596879303455353, 0.18967518210411072, -0.09424049407243729, -0.03370780870318413, -0.08885311335325241, -0.14508593082427979, -0.0123731829226017]}, {"num_inputs": 64, "num_outputs": 64, "weights": [-0.057498250156641006, 0.001291012275032699, -0.07123902440071106, 0.10827282816171646, 0.04770461097359657, 0.06433183699846268, 0.0029149800539016724, 0.008272750303149223, 0.09017448872327805, -0.10440203547477722, -0.009222964756190777, 0.09345973283052444, 0.03788576275110245, -0.10881878435611725, 0.06942306458950043, 0.11452359706163406, -0.05012030899524689, -0.02147105149924755, 0.007360147777944803, 0.11549369245767593, -0.0634610652923584, 0.09531191736459732, 0.03741142526268959, -0.1263090819120407, -0.11638068407773972, -0.04053778573870659, 0.10845255106687546, -0.05640489235520363, -0.10581198334693909, 0.04343859478831291, 0.10137513279914856, 0.0532355010509491, 0.07479316741228104, 0.08350776880979538, -0.0005773596349172294, -0.01883574202656746, 0.11526824533939362, 0.026630345731973648, -0.02719288505613804, -0.003533477196469903, -0.022126205265522003, 0.1278282254934311, 0.0471271388232708, -0.041546646505594254, 0.10038719326257706, 0.0521719790995121, -0.06346065551042557, 0.11429011076688766, -0.08280058205127716, -0.050566691905260086, -0.017000747844576836, 0.06166216358542442, 0.05052464082837105, -0.10542048513889313, -0.0824749767780304, 0.06370726972818375, -0.10839363932609558, -0.0824131891131401, 0.07517113536596298, 0.05929344892501831, -0.09089063853025436, -0.044724252074956894, 0.003917377442121506, 0.10276299715042114, 0.11299365013837814, -0.03177756071090698, 0.054090481251478195, 0.035478245466947556, -0.06002048775553703, -0.10220425575971603, 0.05891918018460274, 0.06835000216960907, -0.001129484735429287, -0.09187356382608414, -0.11364273726940155, -0.10335209965705872, 0.0733303427696228, -0.08161245286464691, -0.06979262083768845, -0.08563544601202011, -0.09351838380098343, -0.08811613917350769, 0.04582915082573891, 0.04078014940023422, -0.009513242170214653, 0.0544574111700058, 0.028723837807774544, 0.006117379292845726, 0.019011760130524635, -0.04749128967523575, -0.01560593955218792, 0.09111032634973526, 0.04006746783852577, -0.02673356421291828, -0.017195945605635643, -0.00983396079391241, -0.12164401262998581, -0.0027812044136226177, 0.024997983127832413, 0.10757987946271896, -0.10641373693943024, 0.04566493257880211, -0.07680010795593262, -0.11065064370632172, 0.11670858412981033, -0.052094411104917526, -0.07362902164459229, 0.04450591653585434, -0.07290402054786682, -0.07218380272388458, -0.03894367441534996, -0.066637322306633, 0.09362221509218216, 0.01782495714724064, -0.03231750801205635, 0.04010125994682312, -0.08763565123081207, 0.018481377512216568, -0.04985370486974716, 0.10541825741529465, 0.1204635351896286, 0.056411802768707275, -0.005765039939433336, 0.03899376094341278, -0.046145953238010406, -0.05369814112782478, -0.12153135985136032, 0.09095163643360138, 0.02095453441143036, -0.09957071393728256, -0.027072478085756302, 0.09601277858018875, 0.10988330096006393, -0.03180917352437973, 0.024796420708298683, -0.12114909291267395, 0.011397464200854301, -0.08920695632696152, -0.047869909554719925, 0.05587475001811981, 0.10861489921808243, 0.09584269672632217, -0.020630063489079475, -0.05840414762496948, 0.11170943081378937, 0.09090505540370941, -0.027985258027911186, 0.023649852722883224, 0.0029046430718153715, 0.0441460907459259, 0.026941686868667603, -0.03386957198381424, -0.04201922193169594, 0.08697611838579178, 0.004141452722251415, 0.07054739445447922, -0.017348259687423706, -0.017136678099632263, 0.10812288522720337, 0.0642925277352333, 0.07014758884906769, -0.122340627014637, -0.09418614953756332, 0.10305327922105789, -0.0876249372959137, -0.11703773587942123, -0.00549565302208066, 0.10472492128610611, 0.10031073540449142, 0.06771062314510345, 0.08466852456331253, -0.0015721566742286086, 0.049222320318222046, -0.07918643951416016, 0.052577193826436996, 0.05710400640964508, -0.08077749609947205, 0.1223464235663414, 0.10294875502586365, -0.007418944034725428, 0.11654121428728104, 0.07738613337278366, -0.05122387036681175, 0.11662773042917252, -0.04126040264964104, 0.11855273693799973, 0.0705423355102539, -0.029334433376789093, -0.09542390704154968, 0.09866398572921753, -0.07970679551362991, -0.06917756795883179, -0.020211869850754738, -0.02549840323626995, 0.004899374209344387, -0.03639233484864235, -0.11239258199930191, 0.06602707505226135, 0.08309280127286911, -0.09384560585021973, 0.04934968426823616, -0.08425168693065643, 0.020047394558787346, 0.08818034082651138, 0.1031016856431961, -0.06549426168203354, -0.041611310094594955, 0.11921650916337967, 0.09901769459247589, 0.11916359513998032, -0.0002896267978940159, 0.12153233587741852, -0.035374078899621964, -0.024733321741223335, -0.02513500675559044, 0.08436848968267441, 0.12602654099464417, 0.11828526854515076, -0.00766577897593379, 0.042341284453868866, 0.1080135703086853, 0.11620625108480453, 0.09493499249219894, -0.10835600644350052, 0.06418190896511078, -0.06620439887046814, -0.04279641807079315, 0.0697445496916771, 0.04695700481534004, 0.05121910199522972, -0.012685968540608883, 0.0426379032433033, -0.12944062054157257, 0.10069972276687622, -0.08252552151679993, 0.024593576788902283, 0.05390192195773125, 0.03976697474718094, 0.008882579393684864, -0.052942294627428055, -0.08364681154489517, -0.023050105199217796, -0.11671800166368484, -0.04537087306380272, 0.07175087183713913, 0.05013285577297211, -0.09755728393793106, -0.0630408376455307, 0.010930503718554974, 0.06909560412168503, -0.026619451120495796, 0.055150847882032394, -0.03355681896209717, 0.07918384671211243, 0.006389445625245571, -0.09528207778930664, -0.06798835098743439, 0.06388449668884277, -0.06375610828399658, -0.11308488249778748, 0.037779610604047775, -0.04751872643828392, 0.07937770336866379, 0.10906212776899338, 0.06485079228878021, 0.02189250849187374, -0.013367746025323868, -0.06645428389310837, 0.08344320952892303, -0.008324835449457169, 0.1002965122461319, 0.08951003849506378, 0.0848492980003357, 0.07920078933238983, 0.0415637344121933, -0.06556608527898788, 0.09335033595561981, 0.053201351314783096, -0.038931094110012054, -0.027988841757178307, 0.04897180572152138, -0.004226384684443474, 0.07080486416816711, -0.07221757620573044, -0.08430790901184082, 0.11778730899095535, -0.1023169457912445, -0.12158744037151337, -0.04059849679470062, 0.07901739329099655, -0.09320151805877686, -0.07341141998767853, -0.0536976121366024, -0.09406451880931854, 0.10767439752817154, 0.08972756564617157, -0.07275649905204773, -0.0197918564081192, -0.10204854607582092, -0.12123420089483261, -0.040419239550828934, 0.03264772146940231, 0.02701086364686489, 0.11380437761545181, 0.03296525031328201, 0.07161306589841843, 0.03461652621626854, -0.11625409126281738, 0.12284170091152191, -0.07981669157743454, 0.009556625038385391, -0.006804881617426872, 0.11882190406322479, 0.04563562944531441, -0.11469464749097824, 0.0012672164011746645, -0.020967695862054825, -0.08347657322883606, 0.015705304220318794, 0.10909707099199295, -0.07077999413013458, -0.05292845517396927, 0.004429515451192856, -0.048464447259902954, 0.032267503440380096, -0.04200630262494087, 0.06605948507785797, -0.05345254763960838, -0.09698288887739182, 0.019372520968317986, -0.02408185787498951, -0.020467666909098625, -0.027387719601392746, 0.05497536435723305, -0.07307044416666031, -0.0021779905073344707, -0.004294400569051504, 0.05329326540231705, -0.09938334673643112, -0.08577913790941238, 0.009503544308245182, 0.02596648596227169, -0.03796860948204994, -0.09920641034841537, -0.052516575902700424, -0.12942518293857574, -0.0548914410173893, 0.030173148959875107, -0.11041631549596786, 0.026006532832980156, 0.07938911765813828, -0.11697540432214737, -0.060190726071596146, -0.08119922876358032, 0.07051339745521545, 0.10835807770490646, -0.09235873818397522, -0.009278802201151848, 0.07933346182107925, -0.11716487258672714, 0.04974566772580147, 0.021291397511959076, -0.1337655931711197, -0.028568165376782417, 0.036212772130966187, -0.02949438989162445, -0.020525982603430748, 0.061023976653814316, -0.06539541482925415, 0.09891119599342346, 0.00422872556373477, -0.05431811884045601, -0.1107160821557045, 0.062470488250255585, 0.08938819915056229, -0.015343683771789074, 0.06398852169513702, -0.09473839402198792, 0.05856447294354439, -0.0011963417055085301, 0.10794197022914886, 0.11786934733390808, -0.08184163272380829, 0.12660935521125793, -0.03324171155691147, 0.000537032843567431, -0.013011559844017029, -0.007867049425840378, 0.02337867021560669, -0.06503412127494812, 0.027750618755817413, 0.043147869408130646, 0.04009067639708519, -0.060764946043491364, -0.07586511969566345, 0.062497153878211975, 0.011855574324727058, 0.018024656921625137, -0.02140069007873535, -0.10310913622379303, 0.08526022732257843, 0.11275200545787811, -0.11294806003570557, -0.0034941155463457108, 0.10483716428279877, -0.10516661405563354, 0.00040889604133553803, -0.08143213391304016, -0.014304466545581818, 0.0386648029088974, 0.03633572906255722, 0.12216203659772873, -0.047715116292238235, -0.009356399066746235, -0.10114347189664841, -0.1258210837841034, 0.10675574094057083, -0.09557577222585678, 0.09282642602920532, -0.10877247899770737, -0.11369463801383972, -0.04313424229621887, -0.09771814942359924, 0.009398083202540874, 0.06590627878904343, 0.08885848522186279, 0.07011862099170685, 0.024075865745544434, -0.09757164865732193, -0.04122656211256981, 0.03595355153083801, -0.10927019268274307, -0.07105986773967743, 0.09001994132995605, -0.09851048141717911, -0.037824761122465134, 0.07071547210216522, -0.038625795394182205, 0.012622635811567307, 0.12126056849956512, 0.05076676979660988, -0.1210663914680481, -0.10398726910352707, 0.04500260576605797, 0.03574106842279434, -0.010572971776127815, 0.08714031428098679, 0.05703957378864288, -0.03995326906442642, -0.05718442052602768, -0.06024846434593201, -0.0259819608181715, -0.11922303587198257, 0.020257366821169853, -0.11978814750909805, 0.13564063608646393, 0.09040363878011703, -0.0750264897942543, 0.07736476510763168, 0.014269673265516758, -0.11273118853569031, 0.07712524384260178, 0.11871463805437088, -0.012200972065329552, -0.03841894119977951, -0.04440123587846756, 0.09493671357631683, -0.09843370318412781, 0.07888204604387283, 0.12220682948827744, -0.05207880586385727, -0.09291680157184601, 0.0111296521499753, -0.01301653403788805, -0.08231765776872635, 0.044543202966451645, 0.04655464366078377, 0.05331601947546005, 0.006819455418735743, -0.07995589077472687, -0.009864859282970428, -0.04437663406133652, 0.10091885179281235, -0.07281570136547089, -0.08672988414764404, 0.03137519583106041, -0.025895850732922554, -0.1265023648738861, 0.05576178804039955, 0.10556695610284805, -0.036234453320503235, -0.06867378950119019, 0.08862718194723129, 0.023362888023257256, 0.02126285247504711, 0.12047597765922546, -0.010416122153401375, 0.08747370541095734, 0.0988822653889656, 0.09578371793031693, -0.08361351490020752, 0.10148822516202927, -0.0617741122841835, -0.11139774322509766, -0.1352473795413971, 0.07181303948163986, -0.019556453451514244, 0.039965301752090454, 0.138470858335495, 0.027586203068494797, 0.0934896245598793, 0.03182265907526016, 0.06121663749217987, -0.04253523796796799, 0.03407825902104378, -0.08390646427869797, -0.05246996134519577, 0.11839865148067474, 0.11518953740596771, -0.08669186383485794, 0.0009511031094007194, -0.05061597377061844, 0.02718747965991497, -0.11138169467449188, 0.09491617232561111, 0.10844466090202332, 0.06471827626228333, 0.03661063313484192, -0.023333780467510223, -0.0176260843873024, 0.10040536522865295, -0.03751179575920105, 0.07249563187360764, -0.04822856932878494, -0.11361555755138397, 0.11162983626127243, -0.07586880028247833, 0.03349549323320389, 0.031172510236501694, 0.12354333698749542, 0.04166896641254425, -0.12514740228652954, 0.06155665963888168, -0.01893315091729164, 0.029938070103526115, -0.03999967873096466, 0.09934432804584503, -0.05146712064743042, -0.004454822279512882, -0.02518504671752453, 0.10193244367837906, 0.08864329010248184, -0.1037190705537796, 0.01392402034252882, -0.04092486575245857, -0.03407656028866768, 0.002543078502640128, -0.11420764029026031, 0.044968970119953156, 0.08091723173856735, 0.04829725995659828, 0.12572453916072845, -0.08312337100505829, -4.5276887249201536e-05, -3.657416891655885e-05, -0.02197662740945816, -0.030561339110136032, 0.06890285760164261, 0.08731089532375336, -0.09611815214157104, -0.10208724439144135, 0.06734941154718399, -0.021334191784262657, -0.055849771946668625, -0.053746625781059265, -0.08922135829925537, 0.09568454325199127, -0.03816504031419754, 0.125654935836792, -0.034321870654821396, -0.12638652324676514, 0.10088474303483963, -0.09706775844097137, -0.018972249701619148, 0.08450043201446533, -0.007301616948097944, -0.09841521084308624, -0.11452195793390274, 0.05469145253300667, -0.05741138756275177, -0.09954441338777542, 0.1488993912935257, -0.04443158209323883, -0.08002449572086334, 0.008824387565255165, -0.044378019869327545, -0.04791904613375664, -0.014838064089417458, -0.03248107060790062, -0.059941671788692474, 0.009019484743475914, 0.02496957965195179, -0.10367860645055771, 0.003117125015705824, -0.04981451481580734, 0.05200369283556938, -0.0858619287610054, -0.0636955052614212, 0.03629031404852867, 0.021214697510004044, 0.03349940478801727, 0.04455699026584625, 0.10321468859910965, -0.008031364530324936, -0.10376226902008057, 0.09199579805135727, 0.03603585436940193, 0.0060474807396531105, 0.027063971385359764, 0.10329920053482056, -0.016437474638223648, -0.0473669208586216, -0.042498499155044556, -0.03905798867344856, 0.03121098317205906, -0.09195135533809662, 0.09378533810377121, 0.12214797735214233, -0.039357371628284454, 0.010792269371449947, 0.12316029518842697, -0.06702140718698502, -0.05726900324225426, 0.12500271201133728, 0.12996681034564972, 0.0726112574338913, 0.02085365168750286, 0.05297982692718506, -0.015417495742440224, -0.10379163920879364, 0.0849803239107132, -0.03778216242790222, -0.09402696043252945, 0.09659409523010254, -0.1162445917725563, -0.04386339336633682, -0.04782310500741005, -0.045084889978170395, -0.07641726732254028, 0.06646721065044403, 0.0448969230055809, 0.08797754347324371, -0.09041672945022583, -0.015018265694379807, 0.07838421314954758, -0.06915032863616943, 0.003533132839947939, -0.1110711619257927, -0.009266755543649197, 0.09311528503894806, 0.11614985764026642, 0.11488133668899536, 0.07509537041187286, 0.0024605770595371723, 0.0871729776263237, 0.0835496112704277, 0.06048273295164108, 0.010707017034292221, -0.008798278868198395, -0.007284744642674923, 0.050336115062236786, -0.11940158158540726, -0.10527002066373825, -0.010696757584810257, 0.05437461659312248, 0.04952637851238251, -0.008616411127150059, 0.006319270934909582, 0.09266050159931183, -0.03177711367607117, 0.06453471630811691, 0.07605715841054916, 0.12787388265132904, -0.03225897625088692, -0.13015849888324738, -0.13010694086551666, 0.11088686436414719, -0.021035728976130486, 0.040091317147016525, -0.04681431129574776, 0.032522596418857574, 0.10244102776050568, 0.08740448206663132, 0.03035840019583702, -0.06995666027069092, -0.0487152561545372, -0.10656948387622833, 0.06233939155936241, -0.05952448397874832, 0.11123449355363846, -0.027574151754379272, -0.02225334942340851, -0.09826038032770157, -0.009606827981770039, -0.10356020927429199, -0.04465758800506592, 0.11141946911811829, 0.08058889955282211, 0.03716777265071869, -0.1002531349658966, 0.11288059502840042, 0.10268703103065491, 0.012588095851242542, -0.10274530947208405, 0.082369863986969, 0.09472176432609558, -0.09229157119989395, 0.11503040790557861, 0.014169730246067047, -0.00866062380373478, 0.011002670042216778, 0.02674412727355957, -0.0921691507101059, 0.06912148743867874, -0.012565466575324535, 0.010995158925652504, -0.023119129240512848, -0.1101870909333229, 0.00363718974404037, -0.045375872403383255, 0.0025432370603084564, -0.03625832125544548, -0.01172948069870472, -0.11312087625265121, 0.0730653926730156, 0.027474166825413704, 0.07680927217006683, -0.057420141994953156, 0.03854695335030556, -0.08128561079502106, -0.07460419088602066, 0.12317077815532684, 0.1209457591176033, 0.011736427433788776, -0.05281504616141319, -0.027212902903556824, 0.08086062222719193, 0.0024793450720608234, 0.03136519715189934, -0.087739959359169, 0.0357484333217144, 0.04810023680329323, -0.11784932017326355, 0.032640375196933746, -0.061094366014003754, 0.07957375049591064, 0.05724917724728584, -0.03322407603263855, -0.04121086373925209, 0.09899024665355682, 0.11712845414876938, -0.12956765294075012, 0.014034912921488285, -0.06963960081338882, -0.09337550401687622, -0.1068807914853096, 0.06873951107263565, 0.06463674455881119, 0.022768748924136162, 0.08724503219127655, -0.02606107108294964, 0.024556661024689674, 0.01937885209918022, -0.042828187346458435, -0.09379174560308456, 0.06217876449227333, -0.0020955181680619717, 0.1211991012096405, -0.06940798461437225, -0.021594131365418434, 0.09368323534727097, -0.13003095984458923, 0.005922757554799318, -0.025932377204298973, 0.12280338257551193, -0.11054164916276932, -0.12392733991146088, -0.09484630823135376, -0.056610118597745895, 0.03635586425662041, 0.12665966153144836, -0.02487282082438469, 0.09402114152908325, -0.0061513097025454044, -0.11374009400606155, 0.07718781381845474, 0.014480805955827236, 0.10372558236122131, 0.01420988142490387, -0.046305976808071136, -0.0696118026971817, 0.0066445693373680115, -0.12485954165458679, -0.07639254629611969, -0.0342763252556324, 0.07901938259601593, -0.021077699959278107, 0.033857353031635284, -0.11521592736244202, -0.024988815188407898, 0.11384520679712296, -0.08914145827293396, 0.017377307638525963, 0.00668643694370985, -0.052880410104990005, 0.04451441019773483, -0.020200321450829506, -0.012765957042574883, -0.09969447553157806, 0.058470211923122406, -0.04706987366080284, -0.02314786985516548, -0.04595493897795677, -0.02910371869802475, 0.0750419870018959, -0.05026295408606529, -0.0781552791595459, 0.07670313864946365, 0.06853170692920685, 0.07516947388648987, -0.06594590842723846, 0.09134243428707123, -0.10984895378351212, -0.06049733981490135, 0.0059577967040240765, -0.08452847599983215, 0.13484811782836914, 0.006227769888937473, 0.07807474583387375, -0.007264831569045782, 0.057677049189805984, 0.002584235044196248, 0.05844138190150261, -0.026162877678871155, 0.04986225441098213, 0.02264070324599743, 0.10320230573415756, -0.0543019138276577, 0.09628040343523026, -0.07605118304491043, 0.02437748573720455, -0.10549356043338776, 0.08011209964752197, 0.10296938568353653, 0.038264431059360504, -0.07644251734018326, -0.02718137949705124, 0.04813908413052559, 0.008524978533387184, 0.0014435627963393927, 0.10105794668197632, -0.08272842317819595, -0.07395290583372116, -0.10363011062145233, -0.044192589819431305, -0.06970743834972382, 0.06742573529481888, 0.13471157848834991, 0.04172026365995407, -0.028337864205241203, -0.015471359714865685, 0.03962566331028938, 0.02091807872056961, 0.11931878328323364, 0.10495678335428238, -0.027882831171154976, -0.07616190612316132, -0.021697012707591057, -0.09544149041175842, -0.10276955366134644, 0.01515490747988224, 0.07484456896781921, 0.04552721232175827, 0.09822689741849899, -0.060907505452632904, -0.009691881015896797, 0.06837915629148483, 0.09648796916007996, 0.07632481306791306, 0.018889838829636574, -0.0970057025551796, -0.117397241294384, -0.06060482934117317, 0.07686255872249603, 0.03201290965080261, 0.0025123495142906904, 0.05415074899792671, -0.12430356442928314, -0.04474267363548279, 0.03372253105044365, 0.059350114315748215, -0.1318357139825821, -0.06772299110889435, -0.041738610714673996, 0.011679977178573608, 0.07088544964790344, 0.08083424717187881, 0.021982446312904358, 0.048217497766017914, 0.09564516693353653, -0.0529291108250618, -0.025748062878847122, -0.07582875341176987, -0.04758848622441292, -0.025368481874465942, 0.010029121302068233, -0.03149206563830376, 0.008716268464922905, 0.022062763571739197, 0.060752369463443756, 0.03663571923971176, -0.004437475465238094, -0.08541778475046158, -0.055763646960258484, -0.11066713184118271, 0.000590803159866482, 0.11409691721200943, 0.0839068815112114, -0.002153394976630807, -0.05316263437271118, 0.03575635701417923, 0.0372065044939518, 0.04028540849685669, -0.00222352659329772, -0.03780413419008255, -0.0061707887798547745, 0.09875544905662537, 0.024282405152916908, -0.07739622890949249, -0.068033866584301, 0.05348240211606026, 0.110822394490242, 0.07826758176088333, -0.01869763620197773, 0.057759594172239304, 0.007861162535846233, 0.005117056425660849, -0.08735048770904541, -0.10794026404619217, -0.05177922174334526, 0.0728931650519371, 0.06914152204990387, -0.044210877269506454, -0.015533223748207092, 0.053846631199121475, -0.061195679008960724, -0.018078874796628952, -0.0041406238451600075, 0.04852629825472832, -0.038877326995134354, -0.05559878051280975, -0.08629579842090607, -0.11507628113031387, -0.08784545958042145, -0.051578521728515625, 0.015155373141169548, -0.009324219077825546, -0.02845633774995804, -0.0905301421880722, -0.06278197467327118, -0.07924399524927139, -0.05805160850286484, -0.11486563086509705, -0.018618280068039894, -0.030535724014043808, -0.12587764859199524, -0.05874645709991455, -0.10028749704360962, 0.09838847815990448, -0.1181379035115242, 0.057291965931653976, -0.026393823325634003, -0.08078140020370483, 0.07111552357673645, -0.03324233368039131, 0.009424901567399502, 0.06075458228588104, -0.04343075677752495, 0.0899123027920723, 0.10873614251613617, -0.07739289849996567, -0.10923600941896439, -0.11234478652477264, -0.06419602036476135, -0.08297527581453323, 0.08364985883235931, -0.03478807583451271, -0.10204966366291046, 0.08983035385608673, -3.733532867045142e-05, -0.04176320135593414, -0.01771240122616291, -0.0016350883524864912, 0.07451227307319641, -0.07330095022916794, -0.10317400842905045, 0.09011948853731155, -0.0250946544110775, 0.12052363902330399, 0.019326074048876762, 0.09453783929347992, 0.04327842593193054, 0.026539381593465805, -0.09900501370429993, -0.05884966999292374, -0.05309693142771721, -0.008390343748033047, 0.02247941680252552, -0.01859927363693714, 0.039730772376060486, -0.04604445770382881, 0.004494644235819578, 0.012287760153412819, 0.09340714663267136, -0.021522926166653633, 0.021962018683552742, 0.10081581771373749, -0.05772707983851433, -0.0020383838564157486, 0.06612886488437653, 0.12440066784620285, -0.03315030410885811, -0.053040556609630585, -0.009593969210982323, -0.07279682904481888, -0.051811449229717255, -0.12083746492862701, 0.004267283249646425, -0.07761134207248688, 0.05355781689286232, -0.0870201587677002, -0.03573881834745407, 0.10757642984390259, 0.05790582671761513, 0.06006389856338501, 0.11913362145423889, -0.09967368096113205, 0.02015366218984127, -0.056315358728170395, -0.09319712221622467, 0.13083156943321228, 0.007990270853042603, -0.10743693262338638, 0.04130376875400543, 0.04796086251735687, -0.09788361936807632, 0.028458867222070694, 0.03761572018265724, 0.027737529948353767, 0.10784721374511719, -0.06113501638174057, -0.105124831199646, -0.06583401560783386, 0.03430361673235893, 0.011819743551313877, 0.1083444282412529, 0.06760813295841217, -0.10566899925470352, 0.07108604907989502, -0.11068029701709747, 0.10709147155284882, 0.06733342260122299, 0.03308531269431114, -0.014000358991324902, -0.04161045327782631, 0.10666252672672272, 0.0541113018989563, 0.12666060030460358, -0.0030334247276186943, 0.0594545342028141, 0.07736904919147491, -0.12201309204101562, 0.025666432455182076, 0.033603549003601074, 0.104210764169693, -0.041057270020246506, -0.1243332102894783, 0.1085692048072815, 0.028192443773150444, 0.10912174731492996, 0.0758437067270279, -0.04012225195765495, 0.08588404208421707, 0.10293477773666382, 0.033130716532468796, -0.031372278928756714, -0.019612116739153862, -0.018073443323373795, 0.03803281486034393, 0.09794902801513672, -0.03281903639435768, -0.06020219996571541, -0.1135481670498848, -0.11984040588140488, 0.0825912281870842, -0.01896606758236885, 0.11523841321468353, 0.030056677758693695, 0.06084395945072174, -0.020554406568408012, 0.04978928342461586, 0.05994656682014465, 0.04707489162683487, 0.10949921607971191, -0.006650572642683983, -0.04335398226976395, -0.12050137668848038, 0.11981741338968277, -0.06645761430263519, 0.07193019986152649, -0.1101829931139946, 0.12307323515415192, -0.02800256758928299, 0.1246919184923172, -0.0922495573759079, 0.05634648725390434, 0.06545065343379974, -0.05279211327433586, -0.09538497775793076, 0.03387892618775368, 0.08544982224702835, 0.0465226024389267, 0.06718193739652634, 0.013796006329357624, 0.09207979589700699, 0.11569229513406754, 0.052409037947654724, -0.11243800818920135, 0.08522278815507889, -0.08736428618431091, -0.00019374766270630062, 0.02263139933347702, 0.04200855270028114, 0.07457004487514496, 0.015993265435099602, 0.058805521577596664, 0.0807572677731514, 0.010715124197304249, 0.05326041579246521, 0.09296156466007233, -0.11708498001098633, 0.044901467859745026, -0.099934421479702, -0.04587983340024948, 0.11902859807014465, -0.026304572820663452, 0.016153661534190178, 0.04837256297469139, -0.04778051748871803, -0.060166772454977036, -0.08664005249738693, 0.11330538243055344, -0.05173743516206741, 0.05207833647727966, -0.13816902041435242, 0.026177046820521355, -0.05029555410146713, -0.04003650322556496, -0.0030860374681651592, 0.04150191321969032, -0.13695228099822998, -0.12659193575382233, -0.042780157178640366, -0.09239837527275085, -0.1185571551322937, 0.10092529654502869, 0.045487117022275925, -0.1194675862789154, -0.08568125218153, 0.06165558472275734, -0.04271549731492996, 0.10412934422492981, -0.1163029670715332, -0.10953451693058014, 0.10699190199375153, -0.08456042408943176, -0.0171460323035717, -0.11634247750043869, 0.05673971027135849, -0.06370905786752701, 0.11245911568403244, -0.03749442100524902, 0.027197295799851418, 0.07641405612230301, 0.020820556208491325, -0.03024100512266159, -0.02641967125236988, 0.031419891864061356, 0.008473980240523815, -0.06427071988582611, -0.0069275242276489735, 0.015282501466572285, 0.009700093418359756, -0.1184832975268364, 0.09505999833345413, 0.029397958889603615, 0.06351497024297714, 0.023909276351332664, -0.010673644952476025, 0.027545982971787453, -0.015195218846201897, 0.019623495638370514, 0.06509716063737869, 0.10702768713235855, -0.03169205039739609, -0.03991120308637619, -0.0701240673661232, -0.07341524958610535, -0.04346790164709091, 0.09215495735406876, -0.05679403245449066, 0.02158399112522602, 0.0827820673584938, -0.10088874399662018, 0.03353221341967583, 0.11106154322624207, -0.06836280971765518, -0.09913238883018494, 0.06825414299964905, -0.027550609782338142, 0.08333704620599747, 0.10485278069972992, -0.056733302772045135, -0.017096320167183876, 0.0997576043009758, 0.08619595319032669, 0.06256435811519623, -0.09223412722349167, -0.10732842236757278, 0.06223330274224281, 0.02736656740307808, -0.04245022311806679, 0.05991176515817642, -0.08904990553855896, -0.10696721076965332, -0.030514340847730637, -0.005043493118137121, 0.04357089102268219, -0.1156029999256134, -0.1096087247133255, -0.052984438836574554, -0.10453126579523087, -0.06478343158960342, -0.10578837245702744, 0.04616794362664223, 0.08615867793560028, -0.11316835880279541, 0.09340464323759079, -0.12787649035453796, -0.10270386934280396, 0.07183169573545456, 0.0408983938395977, 0.10457109659910202, -0.07450450211763382, -0.041653748601675034, -0.05019918084144592, -0.04518764093518257, 0.04044346511363983, -0.12217701226472855, 0.075304314494133, 0.12255676090717316, 0.08849959075450897, 0.0919836238026619, 0.007675157859921455, -0.07082398980855942, 0.12242727726697922, 0.0606318935751915, -0.12196481227874756, 0.11162079125642776, -0.061595454812049866, 0.07063523679971695, -0.011980692856013775, 0.03326960653066635, 0.13064095377922058, -0.09474088251590729, 0.11503628641366959, -0.10153237730264664, 0.07043960690498352, -0.01643718034029007, 0.13628487288951874, 0.10799401253461838, -0.11917523294687271, -0.07028193771839142, 0.10590704530477524, 0.0003676950291264802, -0.01747656986117363, -0.05897559970617294, -0.06717931479215622, -0.11018992215394974, -0.11242543905973434, 0.08223355561494827, -0.08430948108434677, 0.03434794396162033, 0.11339467763900757, 0.03509296476840973, -0.019086303189396858, 0.11186688393354416, -0.06929975003004074, 0.03991959989070892, 0.038863152265548706, -0.0459018275141716, 0.022825665771961212, 0.0871148407459259, -0.0319000743329525, 0.014262317679822445, 0.09596214443445206, 0.09732217341661453, 0.05789041146636009, 0.12403973191976547, -0.06304196268320084, 0.037901509553194046, 0.1132982075214386, 0.044353026896715164, -0.08646194636821747, 0.02241121605038643, -0.07028577476739883, -0.032097309827804565, 0.023159807547926903, 0.06397456675767899, 0.09177593141794205, 0.1122937723994255, -0.040140751749277115, 0.08661431074142456, 0.13257865607738495, -0.06137721240520477, -0.08212031424045563, -0.08363194018602371, 0.08177191019058228, 0.0683918371796608, -0.03624280169606209, 0.04645369201898575, 0.010455078445374966, -0.04128892347216606, -0.056817010045051575, 0.01749248430132866, 0.044358089566230774, -0.0020079724490642548, -0.03717619925737381, -0.05457243323326111, 0.05585554987192154, -0.09542053937911987, -0.013742043636739254, 0.040027178823947906, 0.05447065085172653, -0.043093882501125336, -0.10278048366308212, -0.07839686423540115, -0.0638032779097557, -0.059713833034038544, 0.0031759683042764664, 0.02541854977607727, -0.07172814756631851, 0.10243220627307892, -0.1181090772151947, -0.1154186874628067, -0.12198340147733688, 0.0841200202703476, 0.032406214624643326, 0.09820052981376648, 0.011028788983821869, 0.034537430852651596, -0.0031276585068553686, 0.0289166159927845, 0.1076933890581131, 0.07223950326442719, 0.009524166584014893, 0.033203791826963425, -0.004055832978338003, 0.060597144067287445, -0.08595628291368484, 0.0365559421479702, -0.013060195371508598, 0.02842491678893566, 0.1138390600681305, -0.03706297650933266, 0.07469972223043442, -0.1311001181602478, 0.011443421244621277, -0.12842434644699097, -0.017772167921066284, -0.016436144709587097, 0.004823317751288414, 0.11666560918092728, 0.06763175874948502, -0.02887643314898014, -0.11964872479438782, 0.09478873014450073, -0.1282980889081955, 0.035774581134319305, -0.08081281185150146, -0.047761470079422, 0.07759509235620499, -0.09109190106391907, 0.10555099695920944, -0.053127042949199677, 0.10807984322309494, -0.006056680344045162, -0.06615546345710754, 0.10638735443353653, 0.0688166543841362, -0.004171300679445267, -0.04513169825077057, -0.07625263184309006, 0.0704035684466362, 0.05239960923790932, 0.06479758769273758, -0.08113285899162292, -0.031766630709171295, 0.013792932033538818, -0.018591705709695816, -0.11423110216856003, -0.0019708203617483377, -0.07936738431453705, -0.012963511049747467, -0.1220269501209259, -0.09222288429737091, 0.08006856590509415, 0.10188375413417816, -0.044609811156988144, 0.10756268352270126, -0.015927357599139214, -0.03718456253409386, -0.10258733481168747, -0.003464682726189494, 0.09323113411664963, -0.012709244154393673, -0.049122583121061325, 0.08407282084226608, 0.027524832636117935, -0.0028726612217724323, 0.07917774468660355, -0.12120690196752548, 0.08622424304485321, -0.1292332410812378, 0.0024898049887269735, -0.11911013722419739, 0.0486319474875927, -0.09229480475187302, -0.1314820498228073, 0.0324392132461071, 0.11816956847906113, -0.12874576449394226, -0.05589958280324936, 0.06130834296345711, 0.09314481914043427, -0.11578962951898575, -0.03923957794904709, 0.06771531701087952, -0.10327877104282379, 0.06315246969461441, 0.01627841219305992, 0.0649651437997818, -0.11892228573560715, 0.04237353056669235, 0.020358478650450706, 0.09581352770328522, -0.00920185074210167, 0.0841885358095169, 0.062648706138134, -0.007035054266452789, -0.02226213924586773, -0.06459362059831619, -0.03730815649032593, -0.05010548233985901, 0.0865747481584549, 0.11755375564098358, -0.09708603471517563, 0.02700556442141533, -0.0031758227851241827, -0.045703496783971786, 0.06100519746541977, 0.10320451110601425, 0.18431268632411957, 0.006458161864429712, -0.13858868181705475, 0.004926842171698809, -0.09891018271446228, 0.10422509908676147, -0.11574537307024002, -0.11273124814033508, -0.13851380348205566, 0.08974259346723557, 0.07188673317432404, -0.1564166098833084, -0.03747113049030304, -0.03698503226041794, 0.1195715144276619, 0.022714076563715935, 0.13139799237251282, -0.05458648502826691, 0.10692542791366577, -0.10699944198131561, 0.020971151068806648, 0.134211927652359, 0.06411346793174744, -0.0493539497256279, -0.009416701272130013, 0.04892055690288544, 0.06324586272239685, -0.007880118675529957, -0.06914129108190536, 0.0062873647548258305, -0.098980613052845, 0.09679140895605087, 0.03650500997900963, 0.06977821886539459, -0.09383327513933182, -0.05111528933048248, 0.08852659910917282, -0.08800120651721954, -0.034159690141677856, -0.11042933166027069, -0.037637755274772644, 0.01160371769219637, 0.05249768868088722, -0.03107801079750061, 0.11497624218463898, 0.09194261580705643, -0.06913522630929947, 0.07980389893054962, 0.08343677222728729, 0.01913445256650448, -0.010910926386713982, 0.017368018627166748, 0.08541112393140793, 0.021966885775327682, 0.09136761724948883, 0.014444914646446705, 0.10965573787689209, 0.08898453414440155, 0.03362928703427315, -0.057329654693603516, -0.04254685714840889, -0.08655498921871185, 0.027582982555031776, 0.06770298629999161, -0.03435499966144562, 0.06767956912517548, -0.013529624789953232, -0.0953911766409874, -0.10045686364173889, 0.004456207621842623, -0.012818751856684685, -0.0658411830663681, 0.10950315743684769, -0.01338652241975069, 0.06458745896816254, 0.03116353042423725, 0.09540130198001862, 0.045271825045347214, -0.09090499579906464, 0.08159133791923523, -0.10446590930223465, 0.045993026345968246, -0.027061615139245987, -0.043121859431266785, -0.03799512982368469, 0.04694579914212227, 0.023889057338237762, 0.0865127220749855, 0.03248852118849754, -0.07347791641950607, -0.10637318342924118, -0.10431714355945587, -0.04609063267707825, -0.0077412971295416355, -0.03733798861503601, 0.007420611567795277, -0.08252919465303421, 0.0749022588133812, 0.026475071907043457, 0.04105605185031891, -0.018185120075941086, 0.07591895014047623, 0.0015238415217027068, 0.09811139106750488, 0.021965008229017258, -0.06487979739904404, -0.03935669735074043, -0.08991683274507523, -0.061845563352108, -0.01660148799419403, 0.056309059262275696, 0.09729863703250885, -0.034584060311317444, -0.03489157184958458, -0.0022191444877535105, -0.029896384105086327, -0.025784647092223167, -0.04601949453353882, 0.07116478681564331, -0.059300199151039124, -0.09083934873342514, 0.12291152030229568, 0.045513685792684555, 0.10869123041629791, 0.008487571030855179, -0.10436522960662842, 0.041334886103868484, -0.11500517278909683, -0.04285239055752754, 0.02923085354268551, 0.021923065185546875, 0.10938087105751038, 0.07871566712856293, 0.11400571465492249, 0.042204100638628006, 0.09433486312627792, -0.032754868268966675, -0.013126859441399574, 0.017976969480514526, -0.014056507498025894, -0.06132822483778, -0.09486106783151627, 0.0732221007347107, -0.07376372814178467, -0.039056066423654556, 0.013079388998448849, 0.0695769265294075, 0.03898308798670769, -0.0698307603597641, -0.027969134971499443, -0.05244193226099014, -0.10347487032413483, 0.11856191605329514, 0.10520120710134506, -0.10090121626853943, -0.06453117728233337, 0.024772174656391144, -0.04748931899666786, 0.05095494166016579, -0.028395630419254303, -0.004130128771066666, -0.09083965420722961, 0.109623983502388, -0.033627886325120926, -0.06726863235235214, -0.003098937915638089, 0.08172847330570221, 0.040257249027490616, 0.035217445343732834, -0.1207948848605156, -0.08305896073579788, 0.0379037968814373, -0.014381625689566135, 0.0992298424243927, -0.09433900564908981, 0.016561012715101242, 0.11249954253435135, -0.09421700984239578, 0.05963311344385147, -0.021390577778220177, -0.01619070954620838, -0.12376637011766434, 0.029511354863643646, 0.01913387142121792, -0.04328379034996033, 0.06795333325862885, -0.025744913145899773, -0.06970574706792831, -0.0021034548990428448, 0.11570465564727783, -0.06367889791727066, -0.06272876262664795, 0.11857002228498459, -0.09332385659217834, -0.04956434294581413, 0.04589741677045822, -0.022046629339456558, 0.07480239123106003, 0.10364831984043121, -0.12214589864015579, -0.06962522864341736, 0.08323372900485992, 0.003566093510016799, -0.08508556336164474, 0.006940656341612339, 0.06836094707250595, 0.06372112780809402, -0.0034292174968868494, 0.12836509943008423, -0.07025377452373505, 0.006773922126740217, -0.10690487176179886, 0.07026290893554688, -0.06050991639494896, 0.11439286917448044, -0.04218611121177673, 0.029826240614056587, 0.0760527178645134, -0.018774569034576416, 0.10040069371461868, 0.07405529171228409, -0.08386483788490295, 0.08258897811174393, 0.0951637476682663, 0.1134810820221901, -0.097630575299263, -0.06057198718190193, 0.07175780832767487, -0.007049738895148039, -0.06330925971269608, 0.10332567244768143, 0.021330740302801132, -0.04924790933728218, 0.0030026156455278397, -0.03259412571787834, 0.07852397859096527, 0.09779597818851471, -0.0671476498246193, -0.01748017780482769, -0.0590406134724617, -0.09446726739406586, 0.07096946984529495, -0.06963095813989639, -0.03927105292677879, 0.04438914731144905, 0.0815032497048378, 0.0039380392991006374, -0.1258714199066162, 0.037984225898981094, -0.1296992003917694, -0.0028452961705625057, 0.09001223742961884, 0.0395825132727623, 0.05431992933154106, -0.0910162627696991, -0.10407514125108719, -0.07492935657501221, 0.10343405604362488, 0.01892261765897274, 0.09756261855363846, -0.08226858079433441, 0.043948180973529816, 0.03504185378551483, 0.05213581398129463, 0.06074335426092148, 0.0738133043050766, -0.007120030466467142, -0.03409028798341751, -0.05485076829791069, 0.030890535563230515, -0.05229992792010307, 0.061306633055210114, 0.12128829956054688, 0.11245152354240417, 0.05493656173348427, -0.005670475773513317, 0.10120519995689392, -0.035167597234249115, -0.004617082886397839, 0.09731034189462662, -0.12711012363433838, -0.07086928188800812, 0.106679268181324, 0.0008653553668409586, -0.008306643925607204, 0.020121684297919273, 0.028060946613550186, -0.06760136783123016, -0.0994524359703064, -0.08531607687473297, 0.11362859606742859, 0.02800676040351391, 0.05303407087922096, -0.05636724829673767, 0.035082459449768066, 0.04107531160116196, -0.07967662066221237, -0.06312422454357147, -0.09052541851997375, 0.09967824071645737, 0.09054248034954071, -0.03325733542442322, -0.11681544780731201, 0.10739308595657349, 0.06488900631666183, 0.033006615936756134, -0.04587531089782715, -0.039641063660383224, -0.10478914529085159, -0.08009282499551773, 0.04667847603559494, -0.05186554417014122, -0.05878839269280434, -0.005153486505150795, -0.02063356339931488, 0.05131983011960983, 0.10417427867650986, 0.03507144749164581, -0.042632367461919785, -0.1252487599849701, 0.06982924789190292, 0.05061941593885422, 0.11754900962114334, 0.12104271352291107, 0.09611588716506958, 0.011452652513980865, -0.11123029887676239, -0.020425084978342056, 0.07009665668010712, 0.03025909885764122, -0.057007066905498505, 0.08494459092617035, 0.0914073958992958, 0.08574874699115753, -0.058231744915246964, 0.06181018054485321, -0.056153055280447006, -0.06960726529359818, -0.06934408098459244, -0.1136874333024025, 0.08216219395399094, 0.08186421543359756, -0.02270207181572914, -0.048360977321863174, -0.06377612799406052, -0.009807366877794266, 0.046736765652894974, -0.11024956405162811, -0.06074729934334755, 0.04152996093034744, -0.021166648715734482, 0.029968440532684326, -0.11505955457687378, -0.11590242385864258, -0.0012672529555857182, 0.011189567856490612, -0.008530540391802788, 0.002864708425477147, 0.03190617263317108, 0.04475667327642441, -0.06706035882234573, -0.03898918256163597, -0.07929166406393051, -0.08299064636230469, -0.017879009246826172, 0.016946442425251007, 0.13343802094459534, -0.09056662768125534, -0.02028924785554409, -0.08341416716575623, -0.07473587989807129, -0.013716711662709713, 0.04516026750206947, 0.018901819363236427, -0.032282352447509766, -0.0875498577952385, 0.11000902205705643, -0.10868344455957413, 0.03916728124022484, -0.12047749012708664, -0.12475743144750595, 0.014096112921833992, -0.06812801957130432, -0.12772700190544128, 0.03770934045314789, 0.022165052592754364, -0.09221095591783524, -0.004756865557283163, 0.10157672315835953, -0.10906359553337097, 0.0213619377464056, -0.09744071960449219, -0.11611716449260712, 0.037465739995241165, -0.08686134964227676, 0.0028698088135570288, 0.021235421299934387, -0.007604192476719618, 0.08449776470661163, 0.08317749947309494, 0.058158714324235916, -0.06855487078428268, -0.02426672726869583, 0.04692385345697403, 0.1088561937212944, 0.005369145423173904, -0.008125236257910728, -0.024866847321391106, -0.09613647311925888, -0.07423489540815353, -0.12044692039489746, -0.12056275457143784, -0.040384043008089066, -0.08037543296813965, 0.04725661501288414, 0.043303899466991425, -0.057441383600234985, -0.08525489270687103, 0.021471407264471054, -0.01934753730893135, -0.08971978724002838, 0.08380569517612457, 0.0570623017847538, 0.011962630786001682, 0.005140157416462898, 0.020843295380473137, -0.07116621732711792, 0.11070607602596283, 0.008881345391273499, -0.10712309926748276, -0.004148206207901239, 0.04735121876001358, -0.0011602311860769987, 0.07177545130252838, 0.06316398084163666, -0.019933845847845078, 0.06937111914157867, 0.1091664656996727, 0.10675966739654541, -0.08220798522233963, -0.01239560917019844, 0.0445450060069561, 0.06526171416044235, -0.02002340741455555, 0.06527255475521088, -0.022112390026450157, -0.08144258707761765, 0.0835159569978714, 0.04523438960313797, -0.12027420103549957, 0.0616326630115509, -0.06289135664701462, -0.027026884257793427, 0.08831049501895905, 0.014194034039974213, 0.11545448005199432, 0.11626987904310226, -0.02650008350610733, -0.08381396532058716, 0.10741818696260452, -0.04370861500501633, 0.036864254623651505, -0.08299475908279419, 0.029858676716685295, -0.017428098246455193, -0.09963736683130264, -0.10696027427911758, -0.12178220599889755, -0.024301111698150635, -0.03244868665933609, -0.009077735245227814, 0.031001238152384758, 0.02315646782517433, 0.06935417652130127, 0.11107528954744339, 0.06220508739352226, -0.03403390944004059, -0.10871567577123642, 0.052819348871707916, -0.11798041313886642, 0.11110468953847885, 0.12269411981105804, -0.02090175822377205, 0.011704542674124241, -0.03579433262348175, 0.10941912978887558, 0.001489249407313764, 0.019121544435620308, -0.08899721503257751, -0.09282178431749344, -0.1224018856883049, 0.029334550723433495, -0.03910946100950241, -0.07739630341529846, -0.03546185791492462, -0.03529152646660805, -0.03153781220316887, -0.00019941653590649366, -0.095083087682724, 0.052526477724313736, 0.11960223317146301, 0.10424529761075974, -0.04283876717090607, 0.0680994912981987, -0.04584749788045883, 0.08985255658626556, -0.049447037279605865, 0.020410405471920967, -0.03572215512394905, 0.029206370934844017, 0.08578730374574661, 0.04018229991197586, 0.12386909872293472, 0.1084989383816719, -0.040588412433862686, 0.04425628483295441, 0.0907042846083641, 0.1264076977968216, -0.08204666525125504, -0.10660520941019058, 0.02195996418595314, 0.020309772342443466, 0.03564097359776497, -0.037263382226228714, -0.10769858956336975, 0.06227605789899826, -0.015649547800421715, 0.10930278897285461, 0.039993345737457275, 0.11246638745069504, 0.1093091294169426, 0.045680589973926544, 0.08021378517150879, -0.07987022399902344, 0.02341829054057598, -0.10491635650396347, -0.10706178843975067, 0.07737487554550171, 0.11437255889177322, -0.08613622188568115, -0.0153508260846138, 0.09401682764291763, -0.09872331470251083, -0.03880230709910393, 0.10013118386268616, 0.0161715280264616, 0.12493924796581268, 0.045004669576883316, -0.02246350795030594, -0.021818486973643303, 0.09517637640237808, -0.053160734474658966, 0.031889110803604126, -0.11422550678253174, 0.06507179886102676, 0.12564024329185486, -0.024144072085618973, 0.08024397492408752, 0.0779939740896225, 0.09445644915103912, 0.04929707944393158, -0.07805949449539185, -0.03988580033183098, -0.06911510229110718, 0.08086155354976654, -0.0490870401263237, 0.019367357715964317, 0.03542787581682205, 0.06458435952663422, -0.005709921009838581, -0.04326462000608444, 0.07514262199401855, 0.011703910306096077, 0.031008969992399216, -0.0683593675494194, -0.09248301386833191, -0.02817423827946186, -0.07267633825540543, 0.04388102889060974, -0.0895104706287384, -0.07078418880701065, -0.03448598459362984, -0.032271645963191986, 0.05561942607164383, 0.040481336414813995, 0.09489066153764725, 0.019987070932984352, -0.09567084163427353, -0.05284719169139862, 0.038839858025312424, -0.04907407984137535, -0.10013372451066971, 0.1296149343252182, -0.07021628320217133, -0.04469878599047661, 0.031468529254198074, 0.07092520594596863, -0.05960674211382866, 0.0163247212767601, 0.05531597137451172, 0.06749331206083298, 0.08463862538337708, 0.011937289498746395, -0.026481525972485542, 0.07138553261756897, 0.09312500059604645, -0.08823558688163757, -0.03189165145158768, 0.034723229706287384, 0.03328647464513779, -0.08960084617137909, -0.07297467440366745, -0.094358429312706, 0.007957658730447292, 0.07279852032661438, 0.009052693843841553, 0.013109099119901657, 0.031430814415216446, -0.03014552965760231, 0.0354156419634819, 0.07887998223304749, -0.10677893459796906, -0.12708260118961334, -0.11050332337617874, 0.050768014043569565, 0.033137690275907516, -0.012322800233960152, -0.06182495877146721, -0.04817970469594002, -0.010486500337719917, 0.1060347929596901, -0.12392185628414154, 0.05537208542227745, 0.040744900703430176, 0.09274838119745255, 0.03963953256607056, 0.035114046186208725, -0.10698875784873962, 0.03383385390043259, -0.1351163387298584, 0.08847884833812714, -0.024814944714307785, 0.09054172039031982, 0.09969170391559601, -0.021656105294823647, -0.02860494889318943, 0.03392272815108299, 0.05640951916575432, 0.02606308087706566, 0.05120156332850456, 0.023622779175639153, 0.07652493566274643, 0.10960887372493744, 0.060195405036211014, -0.08116233348846436, -0.1357460469007492, -0.052448730915784836, -0.02648673579096794, 0.09153266996145248, 0.07202271372079849, -0.01571616902947426, -0.10933120548725128, 0.018460728228092194, -0.11243825405836105, 0.09978693723678589, -0.022262925282120705, -0.018123671412467957, -0.08087177574634552, -0.05095825344324112, -0.07256465405225754, 0.03610936924815178, -0.061595551669597626, 0.008561301976442337, -0.05491941049695015, 0.02752385474741459, 0.10164538770914078, -0.0006312960176728666, -0.1348324716091156, 0.0909467339515686, -0.017263425514101982, 0.05323794484138489, 0.06234815716743469, -0.09530527144670486, 0.1084190309047699, 0.09483473747968674, -0.10031004995107651, 0.10812988132238388, -0.014442083425819874, 0.02894846722483635, 0.004919778555631638, -0.13643226027488708, 0.040625255554914474, -0.004035009536892176, -0.10288893431425095, 0.0745515301823616, 0.046034518629312515, -0.04032675549387932, -0.020543698221445084, -0.02384233847260475, -0.01957727037370205, -0.08815520256757736, -0.08362496644258499, -0.04240543395280838, -0.10327334702014923, -0.034266356378793716, -0.03293262794613838, 0.07083974778652191, -0.051307860761880875, -0.0058313277550041676, -0.07208546251058578, -0.04599102959036827, -0.12878155708312988, 0.06725037097930908, 0.0174211747944355, -0.10327789187431335, -0.08881165087223053, -0.09798511117696762, 0.06074554845690727, -0.07764685899019241, -0.007854011841118336, -0.09632100909948349, -0.055397484451532364, -0.0405837744474411, -0.0628497377038002, 0.053242120891809464, 0.1249203234910965, 0.09737589955329895, 0.07254185527563095, 0.010426255874335766, 0.03201311081647873, -0.11673910170793533, 0.11277314275503159, -0.005293671507388353, -0.11402799934148788, 0.0769357830286026, -0.09686455875635147, 0.11711785197257996, 0.10988693684339523, -0.09368837624788284, 0.08390234410762787, 0.044746533036231995, -0.07155561447143555, 0.09679346531629562, -0.017324630171060562, -0.06002204120159149, -0.08111098408699036, 0.016213253140449524, -0.03419400751590729, 0.09445874392986298, 0.11558948457241058, 0.007113298401236534, -0.13461185991764069, -0.11445750296115875, -0.03887159004807472, 0.12597382068634033, 0.10177236795425415, 0.039275772869586945, 0.07557734847068787, -0.015989989042282104, -0.057528942823410034, -0.10002276301383972, 0.0016250201733782887, -0.12242069840431213, 0.03575225919485092, -0.049133460968732834, -0.032555412501096725, -0.08357463032007217, -0.0680440291762352, -0.0452723391354084, -0.07313082367181778, 0.11724188923835754, -0.06478346139192581, -0.11058807373046875, -0.05358371138572693, 0.08827649801969528, 0.06433038413524628, -0.04681676998734474, 0.09013883024454117, 0.10424897074699402, -0.03350866585969925, 0.11593635380268097, -0.07330113649368286, -0.042358025908470154, -0.11436241865158081, 0.039429739117622375, 0.017776228487491608, -0.03525422886013985, -0.09095555543899536, -0.09848503768444061, -0.047567494213581085, 0.0892038345336914, 0.048057135194540024, -0.07294941693544388, -0.12602785229682922, 0.0007704884046688676, 0.006136209238320589, -0.0004346818313933909, 0.041274864226579666, -0.09367889910936356, 0.11239324510097504, 0.10702431946992874, -0.07841953635215759, -0.11529316008090973, 0.048858799040317535, 0.10046707093715668, 0.0554032102227211, -0.09644412249326706, -0.03644034266471863, -0.007659802678972483, -0.08692106604576111, 0.10720905661582947, -0.016887260600924492, -0.024521982297301292, 0.006067296490073204, -0.08393024653196335, -0.12051790207624435, -0.03333118185400963, 0.09963074326515198, 0.022971663624048233, -0.04378245398402214, 0.038735706359148026, 0.11662032455205917, 0.03222499415278435, -0.05524758622050285, -0.06565757840871811, 0.08606851100921631, -0.10102440416812897, -0.11787024885416031, -0.04451018571853638, 0.07988031953573227, 0.08650656044483185, -0.1312023550271988, -0.03871782124042511, -0.12468435615301132, -0.040780238807201385, -0.11387158930301666, -0.08530504256486893, -0.1360120326280594, -0.019833726808428764, 0.009086386300623417, 0.08091872185468674, -0.02338266372680664, 0.061444997787475586, -0.03730388358235359, -0.12625442445278168, -0.015288012102246284, -0.07713307440280914, -0.01002271194010973, -0.06975734978914261, 0.026994861662387848, 0.08629553020000458, 0.012740016914904118, 0.11109212040901184, -0.027743622660636902, -0.04943428188562393, 0.11837423592805862, 0.0356874093413353, -0.03591770678758621, -0.05906673148274422, -0.011352108791470528, -0.009269584901630878, 0.09648009389638901, -0.11908895522356033, 0.10825478285551071, -0.053116802126169205, 0.007152203004807234, 0.014148772694170475, -0.107566699385643, -0.11877064406871796, 0.008656459860503674, -0.10896459966897964, 0.06521574407815933, 0.08495630323886871, 0.11028566211462021, 0.001846612198278308, 0.01053965836763382, 0.11605890095233917, -0.11021456867456436, -0.05908704549074173, 0.014601471833884716, -0.0516430139541626, 0.07950903475284576, -0.12982742488384247, 0.07347996532917023, -0.001231806818395853, 0.016944589093327522, 0.04201839119195938, 0.09215747565031052, -0.0607793927192688, 0.008320950902998447, 0.06523405760526657, -0.008855178020894527, -0.10562305152416229, -0.030141768977046013, 0.02841540053486824, -0.09315986931324005, -0.018609829246997833, -0.010504398494958878, -0.0009676296613179147, 0.023562494665384293, 0.09999588131904602, 0.013189154677093029, -0.06051728501915932, -0.011629849672317505, -0.06366240978240967, -0.10874900966882706, 0.10153017193078995, 0.06594156473875046, 0.026189669966697693, 0.08694709092378616, 0.09935209900140762, -0.026331454515457153, 0.030798541381955147, -0.11705213785171509, 0.10753375291824341, 0.0844753161072731, -0.10902036726474762, -0.06719495356082916, -0.05553293228149414, 0.08417302370071411, -0.004338251426815987, -0.015347875654697418, -0.03203148767352104, -0.024111490696668625, 0.11065595597028732, 0.08940667659044266, -0.06712911278009415, -0.09673679620027542, 0.08803903311491013, 0.018009185791015625, 0.0016833775443956256, 0.07021882385015488, -0.0022853603586554527, 0.11812957376241684, -0.06660927087068558, -0.014427930116653442, -0.09456820040941238, -0.09358031302690506, -0.0023710867390036583, 0.03879150003194809, -0.08670508116483688, 0.006338243372738361, -0.004689430817961693, -0.07170882076025009, -0.11899631470441818, 0.05013808608055115, -0.09634748101234436, 0.04012705758213997, -0.0947505310177803, -0.05460449680685997, -0.10653535276651382, 0.006729875225573778, -0.021184135228395462, -0.11659493297338486, -0.015564613044261932, 0.09977523237466812, -0.027103617787361145, -0.1128939762711525, 0.053587622940540314, 0.11403024941682816, 0.03893972560763359, -0.07851528376340866, 0.03426322713494301, 0.0064787957817316055, -0.09857077151536942, -0.029238399118185043, -0.013542055152356625, 0.03916962444782257, -0.04728076234459877, 0.1085299551486969, 0.020742420107126236, 0.045470837503671646, -0.09821619838476181, 0.10992804169654846, -0.008604704402387142, -0.060673788189888, 0.0350632444024086, 0.021761072799563408, -0.013765188865363598, -0.00744190439581871, 0.0966242179274559, -0.05692627653479576, 0.045898761600255966, 0.0716337263584137, 0.07161010056734085, 0.09643787890672684, 0.11322316527366638, -0.0640997439622879, 0.07519727945327759, 0.0667417123913765, 0.1045624241232872, -0.03184080868959427, 0.05286051332950592, 0.013743586838245392, -0.061689943075180054, 0.05245380848646164, -0.06922124326229095, 0.1125030666589737, -0.020789993926882744, 0.05500190705060959, 0.025940684601664543, 0.01628502830862999, -0.1054132729768753, 0.11999831348657608, -0.0849578008055687, -0.05058944597840309, 0.09418009221553802, -0.0730539932847023, 0.00800135638564825, 0.11283112317323685, 0.11533152312040329, -0.0128014562651515, -0.12291108816862106, 0.10849357396364212, 0.003232038812711835, -0.11835550516843796, -0.05467800796031952, 0.017933791503310204, 0.03584059700369835, 0.08836679905653, 0.12504445016384125, 0.10328374803066254, 0.10581675916910172, -0.11177071928977966, 0.005970278289169073, -0.028054550290107727, -0.11766491085290909, -0.06987404078245163, 0.06474854052066803, -0.0887753963470459, 0.06487812101840973, 0.03847028315067291, -0.0032391634304076433, 0.06332921236753464, -0.11223439127206802, 0.03347230702638626, -0.04356774315237999, -0.02210788056254387, -0.04224175587296486, 0.01728489063680172, -0.004839146509766579, -0.05343746393918991, -0.08854077011346817, -0.031329456716775894, -0.0433284156024456, 0.06630660593509674, -0.04155585542321205, 0.08116022497415543, -0.08684363216161728, -0.06648559123277664, 0.11830463260412216, -0.05672590434551239, 0.0005983254523016512, -0.016519317403435707, 0.07334742695093155, 0.053650956600904465, 0.04060521349310875, -0.08279715478420258, -0.07997453957796097, -0.07986823469400406, 0.059292953461408615, 0.04597638547420502, 0.08451995998620987, -0.021601708605885506, -0.08444970101118088, -0.11372875422239304, 0.06477571278810501, 0.10126741230487823, 0.026774588972330093, 0.05673139914870262, 0.021321376785635948, -0.09278365969657898, 0.048095718026161194, 0.08826227486133575, -0.08413724601268768, 0.053370848298072815, 0.0190076045691967, -0.09255176037549973, 0.037197768688201904, 0.03448759391903877, -0.0838077962398529, 0.020093852654099464, -0.03789307177066803, 0.04014720022678375, 0.08755664527416229, -0.05257520079612732, -0.1058323085308075, -0.020463796332478523, 0.061926063150167465, -0.05646245926618576, 0.13231408596038818, 0.06616868078708649, -0.030044065788388252, -0.13722632825374603, -0.05275433138012886, 0.10622929036617279, 0.04488649219274521, -0.12315086275339127, 0.014532816596329212, 0.038293346762657166, -0.01616518385708332, 0.08067154139280319, -0.02557918056845665, -0.08385273814201355, 0.08793564885854721, -0.03260140120983124, 0.0718832015991211, -0.03022739849984646, 0.10271642357110977, -0.044139716774225235, -0.07942336797714233, -0.09814092516899109, 0.008890269324183464, -0.12820492684841156, -0.02446254901587963, 0.06946245580911636, 0.01975756138563156, 0.10842247307300568, -0.005689345300197601, -0.048755016177892685, 0.07460562884807587, -0.03474486246705055, 0.035875920206308365, 0.02919507585465908, -0.033786822110414505, 0.006897231098264456, -0.11458123475313187, -0.022499214857816696, -0.05665317550301552, -0.03465380147099495, 0.02858937717974186, 0.04288550093770027, -0.02205115556716919, 0.09199836850166321, -0.03628900274634361, 0.059461578726768494, -0.015832221135497093, -0.04788285121321678, -0.13219358026981354, -0.02139732800424099, -0.1041189432144165, 0.10283409804105759, -0.005721092224121094, 0.054036885499954224, 0.06722918897867203, 0.03545152768492699, 0.020227789878845215, 0.0716211274266243, -0.0793505385518074, -0.0031769752968102694, 0.04029783234000206, 0.12241433560848236, 0.06612390279769897, 0.05498963221907616, 0.05892843008041382, -0.029155297204852104, -0.0671524852514267, -0.061810337007045746, -0.02876829355955124, -0.01423223689198494, -0.059202637523412704, -0.11115322262048721, -0.05840087682008743, -0.03887229785323143, 0.09070458263158798, 0.13400384783744812, 0.0238484013825655, 0.007108328398317099, -0.066732257604599, -0.0018332445761188865, 0.047519031912088394, -0.07087551057338715, -0.09251849353313446, 0.11663063615560532, 0.06030551716685295, -0.11428126692771912, 0.07139405608177185, 0.0032555374782532454, -0.08920276165008545, -0.09246787428855896, -0.04679073020815849, 0.11560307443141937, 0.10503391176462173, 0.018074898049235344, -0.0985419973731041, -0.04187743365764618, -0.08744212239980698, -0.13014449179172516, 0.0664789006114006, -0.06977240741252899, 0.04176108166575432, -0.031403183937072754, -0.08308254927396774, -0.0406600721180439, 0.006200384348630905, 0.012110160663723946, 0.1206144392490387, 0.04885134845972061, -0.08259046822786331, 0.042366873472929, 0.09386399388313293, -0.10906422883272171, -0.12487941980361938, 0.009517633356153965, 0.09746816754341125, 0.01082109659910202, 0.04217495769262314, 0.06774332374334335, 0.055292192846536636, 0.017763955518603325, -0.062233079224824905, -0.05567602813243866, -0.09231095016002655, 0.0027541154995560646, 0.11116952449083328, 0.07241030782461166, 0.09271522611379623, 0.06307584047317505, 0.08372300863265991, -0.06323771178722382, -0.02825523540377617, -0.0726916491985321, -0.0786602646112442, -0.046105168759822845, -0.0069642686285078526, 0.018791640177369118, -0.11449594050645828, -0.08043954521417618, 0.022656740620732307, 0.0798838809132576, -0.04465297609567642, 0.08869217336177826, 0.00598698016256094, 0.006274439860135317, -0.0706254094839096, -0.016224246472120285, -0.004778254311531782, -0.03635935112833977, -0.020348602905869484, -0.10093280673027039, -0.04638250917196274, 0.12186383455991745, 0.06171951815485954, 0.017096856608986855, -8.039245585678145e-06, 0.0749393031001091, 0.03507207706570625, -0.04109844192862511, -0.031102247536182404, -0.016571126878261566, 0.012363952584564686, 0.07385697960853577, -0.06955229490995407, 0.020366834476590157, -0.04160322621464729, -0.12682554125785828, 0.05464056134223938, 0.11595278233289719, 0.10999147593975067, 0.10353155434131622, 0.08671116083860397, -0.0831117182970047, -0.08033762872219086, -0.027151191607117653, -0.07942181080579758, 0.05390181019902229, 0.08166132122278214, 0.01512681320309639, -0.08136134594678879, 0.0822637528181076, -0.12862230837345123, 0.12545907497406006, 0.05649671331048012, -0.004231944680213928, 0.06067269667983055, -0.08061202615499496, 0.0964057445526123, -0.11260753870010376, -0.09190123528242111, 0.07624842971563339, -0.005587667226791382, 0.08307912200689316, -0.007232944015413523, 0.0005779174971394241, -0.12144386768341064, -0.08170865476131439, -0.11684005707502365, 0.11213182657957077, -0.08232354372739792, 0.082467220723629, 0.02897624857723713, -0.06729327887296677, -0.011032302863895893, -0.10635071992874146, -0.12276843190193176, -0.0018719839863479137, 0.027298124507069588, 0.0074968766421079636, -0.14010627567768097, 0.004581347573548555, 0.02535286173224449, -0.08086463809013367, -0.08645264059305191, 0.023104557767510414, 0.024775385856628418, 0.1062621921300888, 0.1036265641450882, -0.0517587885260582, 0.012420961633324623, 0.1197611540555954, -0.008610065095126629, 0.05884629115462303, -0.04793234542012215, -0.10626844316720963, -0.04031369090080261, -0.053784966468811035, -0.11446763575077057, -0.06762165576219559, 0.1273874044418335, 0.012082480825483799, -0.006866891868412495, -0.09836705029010773, 0.0486036092042923, 0.019986163824796677, -0.04078542813658714, 0.04426030442118645, 0.021215498447418213, 0.06399929523468018, -0.0553906112909317, -0.10263882577419281, -0.09422542154788971, -0.059360288083553314, -0.024151168763637543, 0.053580205887556076, -0.08723431825637817, 0.09594477713108063, -0.032096024602651596, 0.10836909711360931, -0.09368884563446045, -0.11747978627681732, 0.09334690868854523, -0.08870614320039749, 0.017131945118308067, 0.042846061289310455, 0.05615667626261711, 0.06823790818452835, -0.10307412594556808, -0.07129837572574615, -0.0774858221411705, -0.011640346609055996, -0.0952114537358284, 0.12461883574724197, -0.05172865092754364, -0.013493748381733894, -0.07938180863857269, -0.10386853665113449, -0.04438205435872078, -0.1307554692029953, -0.08634672313928604, 0.013848522678017616, -0.08229278028011322, 0.015489106997847557, -0.13121652603149414, 0.10944425314664841, 0.023810705170035362, -0.07756468653678894, 0.0382428802549839, -0.01847938261926174, -0.11367933452129364, 0.09253139048814774, 0.019439643248915672, -0.011402357369661331, -0.04116339236497879, -0.05740002170205116, -0.035356514155864716, 0.09521783888339996, -0.05197741463780403, -0.12121743708848953, 0.10602228343486786, 0.0860387310385704, -0.08582613617181778, 0.04535343870520592, 0.11914926022291183, 0.11698301136493683, -0.09585041552782059, 0.031669702380895615, -0.09961119294166565, 0.0726502388715744, 0.02136377990245819, 0.11192843317985535, 0.09703948348760605, -0.06856726109981537, 0.004754314199090004, 0.07405689358711243, -0.07816887646913528, 0.03694039210677147, 0.07944312691688538, -0.008485131897032261, -0.06384582817554474, 0.10306217521429062, 0.03837411105632782, -0.03153577819466591, -0.10201030224561691, 0.025791063904762268, 0.03870671987533569, 0.0038063484244048595, 0.04813887178897858, 0.07497688382863998, -0.06435155868530273, -0.027035797014832497, -0.0917544960975647, -0.08045227825641632, -0.13189983367919922, 0.06724879145622253, -0.12783819437026978, 0.0902092382311821, -0.10110186040401459, -0.08288002759218216, -0.011943149380385876, 0.0006256455671973526, -0.11496230214834213, 0.008992417715489864, -0.02243778668344021, 0.10279755294322968, -0.09087052196264267, 0.10355532169342041, -0.02557828649878502, 0.020830225199460983, 0.009481254033744335, -0.003864169819280505, 0.030387086793780327, -0.05081086978316307, -0.04885685443878174, 0.008109183050692081, 0.10320843756198883, 0.07397328317165375, 0.04251705855131149, -0.004857672844082117, -0.02426479198038578, 0.05626466125249863, 0.008635047823190689, 0.05382470041513443, 0.0366961807012558, -0.0018644800875335932, 0.05536208674311638, -0.04671677201986313, -0.09233106672763824, -0.04303362965583801, 0.07531066983938217, 0.10845880955457687, -0.044688835740089417, -0.033895332366228104, -0.02457585744559765, -0.054943084716796875, -0.03358641266822815, 0.06251242011785507, 0.04720240458846092, -0.11704476922750473, 0.02279398962855339, 0.037636514753103256, -0.01672530733048916, -0.032558925449848175, -0.007961777970194817, -0.009403561241924763, -0.04602135345339775, 0.08035721629858017, -0.049352552741765976, 0.08398912101984024, -0.09756899625062943, 0.06745818257331848, 0.12155976891517639, 0.016120320186018944, -0.11814501136541367, 0.05274766683578491, -0.07921610027551651, -0.02993292547762394, 0.039359722286462784, 0.07365939766168594, 0.10429660975933075, -0.03598000109195709, -0.08893927931785583, 0.12480661273002625, 0.04705015942454338, -0.007467174902558327, 0.04061385244131088, -0.08382578194141388, 0.03723643347620964, -0.10746170580387115, -0.019073456525802612, -0.0680198073387146, 0.03745695948600769, 0.09020911157131195, -0.09858936816453934, -0.07832682132720947, 0.09481651335954666, -0.12180400639772415, -0.09932263940572739, 0.09975708276033401, -0.12323538213968277, 0.09042486548423767, -0.08075923472642899, 0.07092501223087311, 0.027072977274656296, 0.04182128980755806, 0.057347558438777924, -0.12455300986766815, 0.04169623553752899, -0.13013045489788055, 0.04378873109817505, 0.0736306831240654, 0.011035952717065811, 0.06152001768350601, 0.08805259317159653, 0.07903356850147247, 0.08418247848749161, 0.06798265874385834, -0.09412247687578201, 0.09838682413101196, 0.07866591215133667, -0.08007342368364334, -0.009626262821257114, -0.10352079570293427, -0.01778990589082241, 0.04081564396619797, 0.05799761414527893, 0.010265503078699112, -0.07207685708999634, -0.056916672736406326, 0.006523883901536465, 0.050811994820833206, -0.07523372769355774, 0.12153761833906174, 0.001439488958567381, -0.07379724830389023, 0.10654620081186295, -0.12299644201993942, -0.062200307846069336, 0.03736647963523865, -0.06665023416280746, 0.10953173041343689, 0.07373266667127609, -0.12846143543720245, -0.047818902879953384, 0.03115353360772133, -0.10956184566020966, -0.07792127877473831, -0.07593610882759094, 0.02127755992114544, -0.036518536508083344, 0.11792485415935516, -0.042796190828084946, 0.040200136601924896, -0.05431678146123886, 0.05063193291425705, 0.10756651312112808, 0.05200912058353424, 0.029648782685399055, 0.03194154053926468, 0.02263886295258999, 0.1069926917552948, -0.04453674703836441, -0.08321866393089294, 0.0630144253373146, 0.10376179218292236, -0.09179366379976273, -0.019748814404010773, -0.05201718583703041, -0.08685585856437683, -0.04835181310772896, -0.010125108063220978, -0.03907568380236626, 0.10204725712537766, -0.09117910265922546, 0.07254879176616669, 0.115357406437397, -0.09482985734939575, -0.0950772687792778, -0.05602768808603287, -0.027172887697815895, 0.048622142523527145, 0.09347320348024368, -0.1218128651380539, -0.04931730777025223, 0.02243478037416935, -0.04982786253094673, -0.06489536166191101, -0.11336559057235718, -0.1075654923915863, 0.01635725609958172, 0.020395666360855103, -0.12654562294483185, -0.06282016634941101, -0.11174585670232773, -0.038405098021030426, 0.09126436710357666, -0.004257127642631531, 0.015441971831023693, 0.0825030729174614, -0.035143185406923294, 0.09214480966329575, 0.002568143652752042, -0.10082416981458664, 0.08019346743822098, 0.038674529641866684, -0.04492837190628052, 0.0882544070482254, 0.08257400989532471, -0.012747331522405148, -0.04138850048184395, -0.11789099872112274, -0.031232908368110657, 0.01009582169353962, 0.08681716024875641, 0.10412994027137756, 0.03047577664256096, 0.014641246758401394, 0.060680028051137924, -0.004726736340671778, 0.05452360957860947, 0.03583420440554619, -0.022926606237888336, 0.07339151948690414, -0.047699958086013794, -0.08671200275421143, 0.08370736986398697, -0.10413657128810883, 0.025586947798728943, -0.09213677793741226, -0.040826503187417984, 0.008309482596814632, 0.08295908570289612, 0.04459748417139053, -0.05550357326865196, -0.1153445914387703, -0.13523252308368683, -0.045310087502002716, -0.08078378438949585, -0.10431495308876038, -0.008383634500205517, -0.044778358191251755, -0.11052139103412628, 0.03663548827171326, -0.10729581117630005, -0.1262064278125763, -0.10870959609746933, 0.04063385725021362, -0.008152675814926624, 0.031616922467947006, 0.04787135869264603, 0.12120400369167328, -0.023591933771967888, 0.07773327827453613, -0.02618909254670143, -0.1311921775341034, 0.03958982974290848, -0.005874158348888159, -0.00578698655590415, -0.02792523428797722, -0.015417917631566525, 0.001417298219166696, -0.0069738589227199554, -0.001477552461437881, 0.05260851979255676, 0.023328639566898346, 0.003610939485952258, 0.02442319504916668, 0.08967907726764679, 0.07894685864448547, 0.12414152175188065, 0.017253926023840904, -0.03361983969807625, 0.10808385908603668, -0.05053091421723366, -0.013915284536778927, 0.0016005407087504864, -0.034503187984228134, -0.04304875433444977, -0.04834254831075668, 0.01633874699473381, 0.00032363340142183006, 0.016825539991259575, -0.05637421831488609, 0.1257365643978119, -0.026626024395227432, 0.10643986612558365, -0.027534203603863716, -0.10349398851394653, 0.09407849609851837, -0.10559281706809998, 0.0062149399891495705, 0.001943495823070407, -0.006943557411432266, -0.029873427003622055, 0.04966608062386513, -0.028163013979792595, -0.04843077063560486, -0.0772089958190918, 0.1304226815700531, 0.0483526848256588, 0.032744523137807846, 0.053435493260622025, -0.03254098445177078, 0.07113595306873322, -0.02145766280591488, -0.0010823550401255488, -0.08222994953393936, 0.058672599494457245, -0.11510585248470306, -0.11790753155946732, 0.04501068964600563, 0.0906432718038559, 0.04067619889974594, 0.019006216898560524, 0.013201767578721046, -0.04676887020468712, -0.055798228830099106, -0.029912002384662628, -0.10005698353052139, 0.05605582892894745, 0.1147090271115303, 0.11614822596311569, 0.06523466855287552, 0.06718479841947556, 0.032773155719041824, -0.013157965615391731, 0.017677705734968185, -0.0775298997759819, -0.03322727978229523, 0.07936222106218338, 0.05441885069012642, -0.07188033312559128, 0.08662161976099014, 0.018775755539536476, 0.042270343750715256, 0.02334657497704029, -0.00371529464609921, -0.019724659621715546, 0.050507720559835434, 0.05810708925127983, 0.08741060644388199, -0.08146603405475616, 0.05229014903306961, 0.12009386718273163, -0.08398756384849548, -0.10450232774019241, 0.03360646963119507, 0.04645797237753868, 0.015140760689973831, -0.0943630188703537, -0.07880985736846924, 0.0992574691772461, 0.12965145707130432, 0.10776741802692413, -0.11202932894229889, -0.12213741987943649, -0.052521709352731705, -0.05794761702418327, -0.030839411541819572, -0.090706005692482, 0.06238394230604172, 0.12332224100828171, -0.0856475979089737, -0.06144321337342262, 0.09649888426065445, -0.040449608117341995, 0.005319184623658657, -0.04421687126159668, -0.032890595495700836, -0.10817472636699677, 0.08637075126171112, 0.026247523725032806, 0.012994811870157719, 0.04912026971578598, -0.10735990852117538, -0.13841626048088074, -0.09016768634319305, 0.07524678856134415, 0.009596290998160839, 0.03216912969946861, -0.018293002620339394, 0.07300694286823273, 0.0396554172039032, -0.04519093036651611, -0.09539534896612167, -0.0535307414829731, 0.0764097049832344, -0.052609268575906754, -0.014608270488679409, 0.00924604944884777, -0.01894381269812584, -0.07581838965415955, -0.08731581270694733, 0.04635412618517876, -0.05584755167365074, -0.046237725764513016, -0.06088262423872948, -0.101449154317379, -0.002486626850441098, -0.024540521204471588, 0.020494695752859116, -0.06374155730009079, 0.0006810346967540681, -0.07312948256731033, -0.09223652631044388, 0.04041193798184395, 0.0755106508731842, 0.054786380380392075, -0.11956220865249634, -0.054601751267910004, -0.08160986006259918, -0.010463979095220566, -0.020172519609332085, 0.07295715063810349, 0.014814079739153385, 0.03832365944981575, 0.12418080866336823, -0.014951994642615318, -0.1186382845044136, -0.0075752087868750095, -0.04045167192816734, 0.026306552812457085, -0.002426748163998127, -0.043701231479644775, 0.072484090924263, -0.09351757913827896, 0.029610613361001015, -0.11744523793458939, -0.1050884872674942, -0.07324421405792236, 0.11936390399932861, 0.11538227647542953, 0.08358845859766006, -0.1007930189371109, 0.06776851415634155, 0.12349043786525726, -0.08409684151411057, -0.005092233419418335, 0.04647647216916084, -0.0393291711807251, -0.05405978485941887, -0.0031025076750665903, -0.05859774351119995, -0.11524026840925217, 0.043124884366989136, 0.006150789093226194, -0.08114679157733917, -0.08353563398122787, -0.10760287940502167, 0.06325723230838776, -0.08084633201360703, 0.021506018936634064, 0.10624609142541885, 0.03297991305589676, 0.09842429310083389, -0.02856338582932949, -0.11627527326345444, -0.016034111380577087, 0.03688269853591919, 0.03143822029232979, -0.10868558287620544, -0.11184018105268478, 0.0804411917924881, 0.05106369033455849, -0.05779669061303139, -0.121439129114151, 0.031176012009382248, -0.05341854318976402, -0.07565116137266159, -0.10750522464513779, 0.01252199150621891, -0.032533250749111176, 0.09333821386098862, 0.0011906251311302185, -0.04708140343427658, -0.029278133064508438, 0.11940334737300873, 0.050309889018535614, 0.02276553213596344, -0.01555878296494484, 0.05044228583574295, -0.11320324242115021, 0.031584713608026505, -0.08240620046854019, 0.10537475347518921, -0.039381466805934906, 0.07809104770421982, -0.0005601956509053707, -0.04487500339746475, 0.11178355664014816, 0.007920168340206146, 0.09874004870653152, 0.05109227076172829, -0.037639081478118896, -0.030527865514159203, -0.10184934735298157, 0.11245996505022049, -0.11704665422439575, 0.1019015982747078, -0.058225978165864944, -0.0454108752310276, 0.0784953236579895, -0.018372707068920135, -0.11472854763269424, 0.08114488422870636, 0.07818083465099335, -0.09603004157543182, -0.11622081696987152, 0.06576979905366898, -0.009796002879738808, 0.004688808228820562, 0.08956020325422287, 0.10445629805326462, -0.051962848752737045, 0.10153228044509888, -0.02374262735247612, 0.09200736880302429, 0.06937094777822495, 0.03700018674135208, 0.10277298092842102, 0.07580677419900894, -0.013446154072880745, 0.021149156615138054, 0.12748461961746216, 0.09019559621810913, 0.05466963350772858, -0.013117285445332527, 0.03602733835577965, 0.10851726680994034, 0.02296125516295433, 0.09636414796113968, -0.08351684361696243, 0.033236417919397354, -0.09066856652498245, -0.0718468576669693, -0.012782551348209381, -0.03256344050168991, -0.027372175827622414, -0.029602056369185448, -0.06417135894298553, 0.04105598106980324, 0.0002705706865526736, 0.08418099582195282, -0.12462218850851059, 0.08284875005483627, -0.04467058554291725, -0.0007038890034891665, -0.12549100816249847, -0.04261253774166107, -0.004290033131837845, 0.0808945745229721, -0.12215694040060043, 0.09267996996641159, -0.02644990012049675, -0.029602548107504845, 0.0016530125867575407, -0.11447548121213913, 0.05268317088484764, -0.014732037670910358, -0.06043026223778725, -0.1214945986866951, -0.04840193688869476, -0.033445656299591064, 0.0264337956905365, -0.0005964052397757769, 0.0226738341152668, 0.10201891511678696, -0.05828019976615906, -0.1113518550992012, -0.028015924617648125, 0.07232597470283508, 0.08935687690973282, -0.05293865129351616, 0.08467723429203033, -0.12742924690246582, 0.02526913769543171, -0.09615280479192734, -0.04910718649625778, 0.018186727538704872, 0.04459856078028679, -0.051584769040346146, -0.05301789194345474, -0.10434641689062119, 0.12535950541496277, 0.05596030876040459, -0.011966701596975327, 0.07972250878810883, 0.007841740734875202, -0.07680641859769821, 0.06018856540322304, 0.05664639547467232, -0.0963258445262909, -0.039963770657777786, 0.07437276095151901, -0.09776441752910614, -0.08465581387281418, -0.00479317968711257, 0.09631162136793137, 0.02977347932755947, 0.07507931441068649, 0.05049674212932587, 0.033785585314035416, -0.07098511606454849, -0.13038256764411926, -0.03885595127940178, 0.020853588357567787, 0.07904127985239029, 0.09448166936635971, -0.11066702008247375, -0.09678420424461365, -0.11491112411022186, 0.04148697853088379, 0.07020887732505798, 0.1233951523900032, -0.039196960628032684, 0.130356103181839, 0.043337609618902206, 0.051737211644649506, -0.08771254867315292, -0.1030626893043518, 0.05593763291835785, 0.07407151162624359, -0.1344790756702423, 0.04430423676967621, -0.015278206206858158, 0.043614260852336884, 0.10487616807222366, -0.10929188132286072, -0.006484577897936106, -0.056613318622112274, -0.024834677577018738, 0.029515210539102554, 0.003921394236385822, 0.021211424842476845, -0.10389016568660736, 0.04762794449925423, 0.12400106340646744, 0.04363245889544487, -0.04545176029205322, 0.11040756106376648, 0.08369064331054688, -0.11356096714735031, 0.10158037394285202, -0.08479709923267365, 0.001510428381152451, -0.03950352221727371, -0.053641777485609055, -0.009499707259237766, -0.03460494428873062, 0.05476820096373558, 0.0029609815683215857, 0.04224897176027298, 0.07500889152288437, 0.03889045491814613, 0.09437572211027145, 0.09809480607509613, -0.006181621458381414, -0.01929880864918232, -0.03832395374774933, 0.12267640233039856, -0.02486581914126873, 0.008397973142564297, 0.07144252955913544, 0.050895415246486664, 0.07050346583127975, -0.04079171270132065, -0.008905639871954918, -0.09766802936792374, -0.045713502913713455, 0.09103769809007645, -0.06851912289857864, -0.04655911773443222, 0.08043598383665085, -0.07473565638065338, 0.023099008947610855, -0.02045385353267193, 0.04407238960266113, 0.10631117224693298, -0.08224630355834961, -0.0074827163480222225, -0.1183055192232132, 0.02043294534087181, -0.05252477899193764, 0.07348640263080597, 0.07818953692913055, 0.1274486929178238, -0.09983379393815994, 0.0970664992928505, 0.0669182762503624, 0.06103480979800224, -0.07059922814369202, -0.10516774654388428, -0.08927822858095169, 0.06244981288909912, -0.11704932898283005, 0.07604190707206726, 0.0023116266820579767, -0.09934231638908386, 0.04309144243597984, -0.09624083340167999, 0.12742744386196136, -0.06699693948030472, -0.03319660201668739, -0.1023736298084259, 0.12144450098276138, 0.04072728008031845, 0.10487739741802216, -0.08053088933229446, -0.052914708852767944, -0.09949575364589691, 0.05816000699996948, 