{"layers": [{"num_inputs": 15, "num_outputs": 64, "weights": [0.10023528337478638, -0.1341368705034256, -0.159732386469841, -0.085089772939682, -0.23777450621128082, 0.019439762458205223, -0.06841467320919037, -0.16173133254051208, 0.12879109382629395, -0.24837397038936615, -0.11090312898159027, -0.30311447381973267, -0.03797922283411026, -0.012170200236141682, 0.027842026203870773, -0.1522464007139206, -0.1032828614115715, -0.14406587183475494, 0.20487573742866516, -0.013260445557534695, 0.22160853445529938, -0.13984647393226624, 0.23364964127540588, -0.18802717328071594, -0.03342864662408829, 0.07539153844118118, -0.0926479771733284, -0.10207150876522064, -0.22938601672649384, 0.24179428815841675, -0.05165058374404907, 0.005354909226298332, 0.12623782455921173, -0.055651456117630005, 0.20268036425113678, -0.06351254880428314, 0.10591714829206467, -0.23586927354335785, 0.12045145779848099, -0.15046951174736023, -0.06614424288272858, 0.1639862060546875, 0.0031525674276053905, -0.15691429376602173, -0.05332675203680992, 0.18495965003967285, -0.2700613737106323, 0.07583015412092209, 0.05858179181814194, -0.011404027231037617, 0.11182530969381332, -0.19682300090789795, -0.07524151355028152, 0.03794751688838005, 0.0876794382929802, 0.2677221894264221, -0.02243812568485737, -0.18380066752433777, 0.2657123804092407, -0.22368831932544708, -0.08910656720399857, 0.20452450215816498, 0.19880977272987366, -0.23943495750427246, 0.1825842559337616, -0.1939893513917923, -0.07953794300556183, -0.26030611991882324, -0.14579330384731293, -0.024770637974143028, 0.1068648099899292, -0.09994591772556305, -0.03350355476140976, 0.018935492262244225, 0.04897123947739601, 0.02080628089606762, 0.14631184935569763, -0.004214920569211245, 0.1915379911661148, -0.20289790630340576, 0.035687003284692764, -0.06814619153738022, -0.2081756740808487, -0.22299237549304962, 0.07645012438297272, -0.15967780351638794, 0.036289963871240616, -0.06609204411506653, -0.2380603849887848, -0.16163696348667145, -0.0023515326902270317, 0.07930213958024979, 0.09738002717494965, -0.09579656273126602, -0.06653433293104172, -0.13871051371097565, -0.24634985625743866, 0.14099574089050293, -0.22700819373130798, -0.11758702248334885, -0.23491086065769196, 0.06184011325240135, 0.0461440309882164, -0.18888051807880402, -0.09083611518144608, -0.16642534732818604, 0.058148931711912155, 0.17778322100639343, -0.04562300816178322, 0.23621784150600433, 0.142780601978302, -0.14461414515972137, -0.07654208689928055, 0.198028564453125, -0.06959201395511627, 0.014584680087864399, 0.2395702749490738, 0.16570600867271423, -0.2035142183303833, -0.04967188090085983, -0.17824958264827728, -0.12689431011676788, -0.03584561124444008, -0.10875323414802551, -0.03589090332388878, -0.2110086977481842, -0.18168072402477264, -0.09978998452425003, 0.055753111839294434, 0.14331038296222687, -0.24065548181533813, 0.12751469016075134, 0.17946287989616394, -0.2401037961244583, -0.046573344618082047, 0.30973705649375916, -0.009902127087116241, -0.0339723601937294, -0.17642317712306976, -0.0635160282254219, -0.29798558354377747, 0.029649881646037102, -0.028059588745236397, 0.013447338715195656, 0.2303781509399414, -0.13719816505908966, 0.11320129781961441, 0.0050831749103963375, 0.2418840229511261, -0.07865021377801895, 0.37640899419784546, -0.042166199535131454, 0.15261687338352203, 0.0618436299264431, -0.11285432428121567, -0.13559532165527344, -0.22009789943695068, -0.2455701380968094, 0.2322487086057663, -0.13481591641902924, 0.29595568776130676, 0.003984404262155294, -0.024680359289050102, 0.06461532413959503, 0.012575281783938408, -0.11642464995384216, 0.15018069744110107, 0.19443029165267944, -0.26464375853538513, 0.025383837521076202, -0.2196587175130844, -0.15946365892887115, 0.23890060186386108, -0.12666592001914978, -0.16708987951278687, 0.21136915683746338, -0.20678383111953735, -0.09821475297212601, -0.028038132935762405, -0.08841853588819504, 0.19788211584091187, 0.05665101110935211, -0.09187746793031693, -0.2582765817642212, -0.17099444568157196, -0.06309034675359726, 0.009473227895796299, -0.07213134318590164, -0.19244910776615143, 0.2324828803539276, 0.23146258294582367, 0.24681848287582397, 0.14654718339443207, 0.007770986296236515, -0.0587812103331089, -0.1434403955936432, 0.05586634948849678, 0.21057774126529694, -0.1349422037601471, 0.08869194984436035, 0.14622192084789276, 0.03221641853451729, -0.17600472271442413, 0.16650474071502686, -0.1648731380701065, -0.26183754205703735, -0.20895352959632874, 0.10093517601490021, 0.21998555958271027, 0.252428263425827, -0.11964154988527298, -0.1454380601644516, -0.07813455164432526, -0.1363707333803177, 0.078560009598732, 0.08672674745321274, -0.1694137156009674, 0.10159146040678024, -0.12232674658298492, 0.18104171752929688, -0.19583982229232788, -0.182455912232399, -0.1533232182264328, -0.2441748082637787, -0.22526416182518005, -0.07382212579250336, 0.08495008945465088, -0.05246327817440033, -0.16936525702476501, -0.1647845208644867, 0.19978070259094238, -0.01779535412788391, -0.24544058740139008, -0.2888002395629883, -0.06852103769779205, 0.2669452130794525, 0.2913472652435303, 0.10622040182352066, 0.19998548924922943, 0.09100920706987381, -0.17674310505390167, 0.14228691160678864, 0.0674118772149086, 0.14070144295692444, -0.04101124778389931, -0.07556353509426117, 0.2355523705482483, 0.15098115801811218, -0.25580641627311707, -0.23722846806049347, 0.04530787840485573, -0.1888503134250641, -0.024947423487901688, -0.3385252356529236, 0.06790916621685028, -0.2245684713125229, -0.21480348706245422, -0.13740549981594086, -0.12486892193555832, 0.1704375445842743, -0.054022058844566345, 0.05777899548411369, -0.04045266658067703, -0.007699191570281982, -0.1378578096628189, -0.22886817157268524, 0.1567714512348175, -0.16830307245254517, 0.08841145783662796, -0.12317375093698502, 0.18457607924938202, -0.022980498149991035, -0.042780663818120956, -0.2573186755180359, -0.07659228146076202, 0.1831435114145279, -0.21054522693157196, 0.06583070755004883, -0.10520138591527939, -0.1263667792081833, 0.05477214604616165, 0.29051071405410767, -0.08971229195594788, 0.17217247188091278, -0.08498089015483856, 0.17442339658737183, 0.21860814094543457, 0.10985463112592697, 0.06012760475277901, 0.14414110779762268, 0.022931499406695366, 0.1894005984067917, 0.1291418969631195, 0.1642789989709854, 0.08422891795635223, 0.21135783195495605, 0.12572455406188965, -0.07711684703826904, 0.040925532579422, -0.058231912553310394, -0.0829286277294159, -0.0844113826751709, -0.20869863033294678, -0.07278776168823242, 0.1971980631351471, 0.17196886241436005, 0.024717722088098526, 0.08073030412197113, -0.20927831530570984, 0.16121870279312134, -0.19398899376392365, 0.00984976440668106, 0.0668223649263382, -0.012989403679966927, 0.0006042292807251215, -0.10715179145336151, -0.05613810569047928, -0.14499099552631378, 0.00811228808015585, 0.18519581854343414, 0.05798468738794327, -0.22684723138809204, -0.16134794056415558, -0.04195774346590042, -0.23896493017673492, 0.16394701600074768, 0.15568330883979797, -0.0716860219836235, -0.1589023917913437, -0.2674228549003601, -0.2437230348587036, 0.09594656527042389, 0.1624535769224167, -0.3395368456840515, 0.10981175303459167, -0.2359863519668579, -0.09568341821432114, 0.05254564434289932, 0.2377704530954361, -0.23350657522678375, -0.014636296778917313, 0.2168719619512558, 0.0719638243317604, -0.23706558346748352, -0.15659311413764954, -0.20035217702388763, -0.07816092669963837, 0.13226832449436188, 0.011328920722007751, 0.11309074610471725, 0.19856125116348267, -0.10184413194656372, -0.046455204486846924, -0.2626223862171173, 0.18895313143730164, 0.24112489819526672, 0.3016338050365448, -0.03276574984192848, -0.09089881926774979, 0.09071020036935806, -0.25167161226272583, 0.03573478385806084, 0.06143292412161827, 0.007352371700108051, -0.1538381427526474, -0.19734947383403778, 0.2594338655471802, 0.19029198586940765, -0.06860307604074478, 0.213242769241333, 0.03409581631422043, -0.2240612804889679, 0.1162557378411293, 0.0987074077129364, 0.04192914068698883, -0.11177268624305725, 0.272360622882843, -0.09707871824502945, 0.11413426697254181, 0.019716395065188408, -0.08820341527462006, 0.20269301533699036, 0.13746421039104462, -0.003905554534867406, -0.24393242597579956, 0.04147348925471306, -0.3407265543937683, -0.24563585221767426, -0.3706710934638977, 0.05824634060263634, -0.04618115723133087, -0.17597471177577972, 0.1879432201385498, -0.11234863847494125, 0.23841938376426697, 0.14504092931747437, 0.15546374022960663, -0.12270376831293106, 0.129306823015213, 0.054944977164268494, 0.03787698224186897, 0.030522674322128296, 0.11521628499031067, 0.05408262088894844, -0.17672960460186005, -0.1155947595834732, 0.23877908289432526, -0.042306315153837204, 0.07125984877347946, -0.23130099475383759, -0.08062367141246796, 0.10984767228364944, -0.02375260926783085, 0.10736234486103058, -0.0671924501657486, 0.13121019303798676, -0.12603344023227692, 0.01950235106050968, -0.2777569890022278, -0.25936684012413025, 0.2986795902252197, 0.11529617011547089, 0.07714752107858658, -0.048235297203063965, -0.1891995668411255, 0.12765993177890778, 0.2108539193868637, -0.09937884658575058, -0.13948756456375122, -0.07147177308797836, -0.10164326429367065, -0.19769376516342163, -0.21664755046367645, -0.12959828972816467, 0.03704899176955223, -0.07763531059026718, 0.16339826583862305, -0.10433940589427948, -0.09305641055107117, -0.1458718627691269, -0.00013427982048597187, -0.11646930128335953, -0.21923036873340607, 0.1752970665693283, -0.1288137137889862, 0.06620185077190399, -0.006423654966056347, -0.11220303922891617, -0.2542853057384491, -0.01651023142039776, -0.16416844725608826, -0.12325075268745422, -0.03867029398679733, -0.18568779528141022, -0.10593006759881973, 0.2191430628299713, -0.04151136800646782, 0.17586909234523773, -0.13978826999664307, 0.1443343311548233, -0.015741681680083275, 0.1301843822002411, 0.0199188981205225, -0.15579316020011902, 0.17360243201255798, 0.14457544684410095, -0.21886122226715088, 0.15717804431915283, -0.1424013376235962, 0.13391943275928497, 0.12623874843120575, 0.1906983107328415, -0.0032838252373039722, -0.09008677303791046, -0.11004850268363953, -0.09255042672157288, 0.03042377158999443, 0.1011037677526474, -0.13466139137744904, 0.0935215875506401, -0.05778620019555092, 0.08274576812982559, 0.08891157805919647, -0.08500513434410095, -0.05644698441028595, -0.23000165820121765, 0.009449533186852932, 0.2471773624420166, -0.02457168512046337, -0.23732119798660278, 0.06978219747543335, 0.26492804288864136, -0.06623408198356628, 0.3217267692089081, 0.1877654790878296, -0.06396064907312393, -0.21393875777721405, 0.09398103505373001, 0.2362513691186905, -0.003208278678357601, 0.13310359418392181, 0.033212143927812576, -0.061799000948667526, 0.21990150213241577, 0.12253700941801071, -0.2128169983625412, -0.10758410394191742, 0.1549367904663086, 0.015056213364005089, -0.15905025601387024, -0.0036107017658650875, 0.08258382976055145, -0.11494653671979904, 0.11583484709262848, 0.04647001996636391, 0.2297021597623825, 0.05583948642015457, 0.2526066303253174, -0.04158966615796089, 0.27232497930526733, -0.056595753878355026, 0.19465915858745575, -0.04285977780818939, 0.20548124611377716, -0.03514276072382927, -0.09997174143791199, 0.025398945435881615, 0.043787192553281784, 0.1182975098490715, 0.06741181761026382, -0.007835241965949535, -0.21055270731449127, -0.1223505288362503, -0.26151594519615173, -0.2385065108537674, -0.2127283364534378, 0.20718510448932648, 0.22033056616783142, -0.15278516709804535, -0.08249666541814804, -0.128400519490242, 0.1758943349123001, 0.1580321043729782, 0.07448071241378784, 0.0076011125929653645, 0.12411563098430634, -0.031548429280519485, -0.08869516104459763, -0.11844906955957413, 0.038553494960069656, -0.258783757686615, 0.059051401913166046, 0.08714348822832108, 0.11491206288337708, 0.16599901020526886, 0.053191740065813065, 0.18877531588077545, -0.040108732879161835, -0.15478813648223877, -0.14550521969795227, -0.05078136548399925, 0.1992342323064804, -0.049298692494630814, -0.2097272127866745, -0.088835209608078, -0.0033594698179513216, 0.2507529854774475, 0.19003704190254211, 0.21186579763889313, -0.25670957565307617, -0.06717085093259811, 0.056700535118579865, 0.04049525782465935, 0.06651823967695236, 0.2165016084909439, -0.013611415401101112, 0.21029210090637207, -0.10403057932853699, -0.04941413924098015, -0.1324012577533722, 0.07608091086149216, -0.11996186524629593, 0.1833028644323349, 0.08081956207752228, 0.03204002603888512, 0.0014175291871652007, 0.013018953613936901, -0.17479026317596436, -0.19181573390960693, -0.1252245008945465, -0.08624676614999771, 0.009162114933133125, -0.02053646184504032, -0.08883075416088104, -0.014551760628819466, 0.04361915960907936, 0.15080031752586365, -0.21383625268936157, -0.13557742536067963, -0.11765048652887344, -0.11027348786592484, 0.28414762020111084, 0.2788570523262024, 0.027088472619652748, -0.023172905668616295, 0.19083696603775024, -0.06436342746019363, 0.04359779134392738, 0.23415325582027435, 0.03284676373004913, -0.1240670382976532, 0.14882151782512665, -0.028061822056770325, -0.2832040786743164, 0.060498494654893875, -0.10794362425804138, 0.012653259560465813, -0.1672922968864441, -0.04942029342055321, 0.13254623115062714, -0.13920287787914276, -0.022701140493154526, -0.12252241373062134, -0.10285800695419312, 0.05857075750827789, 0.1369302123785019, -0.13560540974140167, 0.25466957688331604, 0.20151212811470032, 0.035148344933986664, 0.3851807117462158, 0.05521395057439804, 0.08305846899747849, -0.2636703848838806, -0.02177269570529461, -0.017330002039670944, -0.070473812520504, -0.021652929484844208, -0.20024999976158142, -0.22350828349590302, 0.20049677789211273, -0.10084506869316101, 0.2201017588376999, 0.32107317447662354, 0.23891043663024902, -0.23841600120067596, -0.09586320072412491, -0.14180417358875275, -0.12227513641119003, 0.2215796262025833, -0.03762177750468254, -0.01194931473582983, -0.13568715751171112, -0.15857377648353577, -0.2501918077468872, 0.0742172971367836, 0.16365185379981995, -0.1314915120601654, 0.20990851521492004, -0.20388270914554596, 0.061519354581832886, 0.11014418303966522, -0.1550978124141693, 0.2390790581703186, -0.06670130789279938, 0.2709777057170868, 0.23627923429012299, 0.08471857756376266, 0.2551421821117401, 0.007378131616860628, -0.029856132343411446, -0.17721134424209595, 0.24657203257083893, -0.3476402759552002, -0.0519561730325222, 0.10189502686262131, 0.17066486179828644, -0.03680125251412392, -0.1671973466873169, -0.13243769109249115, -0.10971974581480026, -0.16611982882022858, 0.16189810633659363, -0.22164452075958252, 0.13684260845184326, 0.15404827892780304, -0.027572857216000557, 0.2572120130062103, -0.04914747178554535, 0.17726996541023254, -0.15432479977607727, 0.08364478498697281, 0.12336922436952591, 0.09272242337465286, -0.155735045671463, 0.008923184126615524, -0.07424107939004898, 0.08837530761957169, -0.014161207713186741, 0.22883492708206177, -0.12141761928796768, 0.09097117930650711, -0.10240431874990463, -0.02165677212178707, -0.07831311225891113, 0.12323097139596939, 0.22184741497039795, -0.21141286194324493, -0.15735001862049103, -0.25538671016693115, 0.23922233283519745, -0.17004743218421936, -0.047629620879888535, 0.1635345071554184, -0.20083104074001312, 0.16044703125953674, -0.07200900465250015, 0.23369188606739044, 0.08996361494064331, 0.0848168134689331, -0.02880953438580036, -0.20556779205799103, -0.16523288190364838, -0.013348924927413464, -0.1391947716474533, 0.11212490499019623, 0.239726260304451, -0.0003713424375746399, -0.2053443342447281, -0.0585390105843544, 0.18756885826587677, -0.11272935569286346, -0.03196151554584503, -0.15110158920288086, -0.010289301164448261, -0.12714631855487823, -0.05608364939689636, 0.05136733874678612, 0.1868562400341034, 0.2664634585380554, 0.05217810720205307, -0.2044878751039505, -0.14539918303489685, 0.21114492416381836, 0.052780356258153915, -0.09106256067752838, 0.1976454108953476, -0.015247833915054798, -0.09315352141857147, 0.21974560618400574, -0.018441572785377502, 0.16627845168113708, 0.2285519689321518, -0.19905292987823486, 0.24249772727489471, -0.1538977026939392, 0.0268061775714159, -0.24744698405265808, -0.00430764677003026, -0.08278355002403259, 0.07338878512382507, -0.02090335078537464, -0.07869129627943039, 0.2514415979385376, -0.06504309922456741, -0.06500212103128433, 0.20262394845485687, -0.1176869124174118, -0.1882815659046173, -0.22011518478393555, 0.020986279472708702, 0.06513316184282303, -0.03720208257436752, -0.15156428515911102, -0.12157981842756271, -0.1359751969575882, -0.1591549664735794, -0.014761514961719513, 0.1681441068649292, -0.07078223675489426, 0.3443818688392639, 0.02190721407532692, 0.16705137491226196, 0.2265799641609192, 0.2776612639427185, -0.12374505400657654, -0.16093450784683228, 0.0020612827502191067, 0.08578665554523468, 0.22323332726955414, 0.2163299024105072, 0.08965392410755157, -0.18561290204524994, 0.01675930805504322, -0.1262492686510086, 0.27545657753944397, -0.2007272094488144, 0.24156829714775085, 0.20378099381923676, 0.03582793474197388, -0.21032775938510895, 0.12166964262723923, 0.2382325679063797, 0.022482722997665405, -0.16013002395629883, 0.2979206442832947, 0.019671287387609482, 0.020530587062239647, -0.12741798162460327, -0.13749352097511292, -0.19401267170906067, 0.263814240694046, 0.1912287324666977, -0.1344444304704666, -0.20816335082054138, -0.29116448760032654, 0.04996474087238312, 0.02844175323843956, -0.03424622118473053, 0.003355087013915181, -0.0032919547520577908, -0.02986796945333481, -0.16048753261566162, 0.134773850440979, 0.14245638251304626, 0.07728251069784164, 0.10241367667913437, -0.03691276162862778, 0.0026280980091542006, -0.12630246579647064, -0.03567386791110039, -0.16814813017845154, 0.028712153434753418, -0.07852647453546524, -0.01489956397563219, 0.0003271153545938432, -0.22678203880786896, -0.2336122989654541, -0.12203649431467056, 0.21777456998825073, -0.23116540908813477, -0.2158517837524414, -0.10957924276590347, 0.16286234557628632, 0.1596539169549942, 0.2257181853055954, -0.0221536997705698, -0.027774563059210777, 0.029335465282201767, 0.08761422336101532, -0.09593246877193451, 0.12820665538311005, 0.03555189073085785, -0.049646634608507156, -0.22222663462162018, 0.15790031850337982, 0.09325017035007477, 0.26624536514282227, 0.20258641242980957, -0.08787735551595688, 0.2551855742931366, 0.06091492250561714, 0.18639090657234192, 0.0265064500272274, -0.0459866039454937, -0.16062569618225098, -0.34380632638931274, -0.14902126789093018, -0.1439724862575531, -0.2725916802883148, -0.18531905114650726, 0.05409571900963783, 0.2298727184534073, 0.0035199816338717937, 0.193275585770607, -0.10703771561384201, -0.10160481929779053, 0.09514043480157852, 0.1417432278394699, 0.08573013544082642, 0.1048421785235405, 0.05199827626347542, 0.1559712141752243, -0.002832916798070073, -0.22358141839504242, -0.13955862820148468, -0.15608404576778412, -0.12347621470689774, 0.039114419370889664, -0.038201455026865005, 0.0829543024301529, 0.18903735280036926, -0.11421486735343933, 0.02304292470216751, 0.10670109838247299, 0.16995352506637573, 0.05803023278713226, -0.2170388400554657, -0.25681960582733154, -0.09976310282945633, 0.0704212486743927, 0.13776758313179016, -0.1859734207391739, -0.2141311764717102, 0.03290576860308647, 0.26232337951660156, 0.2313382774591446, -0.1395578533411026, -0.13346201181411743, 0.1724969446659088, -0.06465435028076172, 0.12675218284130096, 0.016648638993501663, 0.1276654303073883, 0.16585862636566162, 0.1693757325410843, -0.14273759722709656, -0.23076240718364716, -0.006395142991095781, -0.1575385332107544, 0.25369998812675476, 0.18900783360004425, 0.057656701654195786, 0.1976369172334671, -0.13362137973308563, -0.0013374947011470795, 0.16499778628349304, 0.18499444425106049, -0.1286838799715042, -0.09513705223798752, -0.015756461769342422, 0.02308015525341034, -0.1552438586950302, 0.021927468478679657, -0.09431278705596924, 0.17210915684700012, 0.2489575892686844, -0.23162852227687836, 0.01393896248191595, 0.20272547006607056, -0.16008785367012024, -0.11190537363290787, 0.03553481772542, -0.22699762880802155, -0.23071546852588654, 0.26566746830940247, -0.009443667717278004, 0.05894995108246803, 0.1306355595588684, 0.010875309817492962, -0.25103336572647095, 0.1795327365398407, 0.14861175417900085, -0.18318861722946167, -0.22695614397525787, 0.08300318568944931, 0.12355608493089676, -0.11537791043519974, 0.05458381399512291, -0.2628794312477112], "biases": [-0.13476355373859406, 0.20536033809185028, 0.14582395553588867, -0.25794315338134766, 0.249937504529953, 0.22544455528259277, 0.03644648566842079, -0.13473257422447205, 0.1779109090566635, -0.012022142298519611, 0.06530757993459702, -0.1745959222316742, -0.16180770099163055, -0.1575773060321808, -0.23421892523765564, 0.06263609975576401, -0.17039693892002106, -0.004581007640808821, 0.23057156801223755, -0.14647579193115234, -0.1578313708305359, 0.12647342681884766, -0.24787238240242004, -0.1969531625509262, 0.1616319715976715, 0.1276983767747879, -0.05099208280444145, 0.06778384745121002, -0.03493070602416992, -0.23638378083705902, 0.09706832468509674, 0.23483401536941528, -0.11457809805870056, 0.12707994878292084, -0.21409842371940613, 0.10800394415855408, 0.1728505641222, 0.07839684933423996, -0.02649581804871559, -0.0962180495262146, -0.02509045973420143, -0.1110401451587677, 0.13687697052955627, -0.21125462651252747, 0.017049727961421013, -0.09361067414283752, -0.12566949427127838, -0.12854644656181335, 0.07543633133172989, 0.0022952109575271606, -0.17447325587272644, -0.1880754977464676, -0.01774456351995468, 0.24852821230888367, 0.2421392798423767, 0.23955903947353363, 0.019030975177884102, -0.09030910581350327, -0.03971380367875099, -0.1275322288274765, 0.21475353837013245, -0.10549523681402206, -0.25362884998321533, 0.2142128348350525]}, {"num_inputs": 64, "num_outputs": 64, "weights": [-0.00032128079328686, 0.04017989709973335, 0.02553851343691349, -0.008120548911392689, -0.08290699124336243, -0.026557039469480515, -0.09001792222261429, -0.03179778531193733, -0.04927339777350426, -0.10661961138248444, -0.03961625695228577, -0.001402897178195417, 0.10484525561332703, -0.001226706081070006, 0.06032317876815796, -0.10236646980047226, 0.06027604639530182, -0.013640336692333221, 0.0420156866312027, 0.082928866147995, -0.08448274433612823, 0.018225129693746567, -0.011299432255327702, -0.023200469091534615, 0.01332564651966095, -0.042889032512903214, 0.05153026804327965, 0.03871205449104309, -0.0675751343369484, 0.11550689488649368, 0.1027984768152237, 0.13358184695243835, -0.018854470923542976, -0.03208140656352043, 0.11504161357879639, 0.07748766243457794, 0.016611764207482338, -0.02033984661102295, 0.131633922457695, 0.08236529678106308, -0.04215048998594284, -0.115879587829113, -0.12108998000621796, 0.05257681384682655, 0.03748145326972008, 0.022244354709982872, -0.0882844626903534, 0.004083338193595409, 0.05774262174963951, 0.031835149973630905, -0.07112811505794525, 0.08826670050621033, 0.043516818434000015, -0.028756752610206604, -0.0927155464887619, 0.039222344756126404, -0.059555381536483765, -0.009890283457934856, 0.024996809661388397, -0.06425429880619049, 0.07185159623622894, -0.04616937413811684, 0.09022160619497299, 0.06506229937076569, 0.01378566026687622, 0.07461941242218018, 0.12826697528362274, -0.0873505026102066, -0.12191498279571533, -0.10880549997091293, -0.08087843656539917, -0.02954161912202835, 0.0612981803715229, 0.06483828276395798, 0.053417500108480453, -0.07412075996398926, -0.08821843564510345, -0.11074338853359222, 0.10882463306188583, 0.027996577322483063, -0.08422394841909409, -0.056339848786592484, -0.009590893052518368, -0.01192225981503725, -0.06329777836799622, 0.0355139784514904, 0.06579191237688065, 0.04261545091867447, 0.01284527312964201, -0.030109241604804993, 0.10668237507343292, 0.04120207205414772, 0.12612859904766083, 0.005974554922431707, -0.009326009079813957, 0.06069447472691536, -0.03465820103883743, 0.053511764854192734, -0.018542319536209106, -0.0344606377184391, 0.03431054204702377, 0.009433677420020103, 0.012850525788962841, 0.05262547358870506, -0.03135336562991142, -0.015441966243088245, 0.015298406593501568, -0.09129439294338226, 0.07104513049125671, 0.0011130347847938538, -0.10526213049888611, -0.11622433364391327, -0.020583512261509895, -0.0861506462097168, -0.04302005097270012, 0.055308833718299866, 0.0032573689240962267, -0.12950271368026733, -0.06565891951322556, -0.019450778141617775, 0.08371499925851822, 0.11330532282590866, -0.06501195579767227, -0.0354335717856884, -0.01637004315853119, 0.0941028892993927, -0.015840474516153336, 0.05707757920026779, -0.004588799551129341, 0.04734473675489426, -0.010731249116361141, -0.01447787880897522, -0.12103412300348282, 0.08091149479150772, -0.12383563071489334, -0.09021798521280289, -0.06343314796686172, -0.11464189738035202, 0.09743917733430862, -0.12506094574928284, -0.052571266889572144, 0.02854960225522518, 0.0979609414935112, -0.12578050792217255, -0.043387677520513535, -0.040062032639980316, -0.04382340610027313, -0.0358191542327404, 0.03127916529774666, 0.1055009737610817, -0.13619762659072876, 0.08745938539505005, 0.1145806759595871, -0.07900413870811462, -0.09853585809469223, 0.01823074370622635, 0.11037454009056091, 0.08018241822719574, -0.05312621593475342, -0.12335255742073059, 0.11626123636960983, -0.028191575780510902, 0.04478859901428223, -0.04371721297502518, -0.10190856456756592, -0.09024307131767273, -0.0354013554751873, 0.03086274117231369, -0.01856919564306736, -0.0495946928858757, -0.051092926412820816, -0.027431176975369453, -0.10000978410243988, 0.03714500367641449, -0.06655687093734741, -0.07680992037057877, -0.049214791506528854, 0.10128609836101532, 0.07294583320617676, 0.09361173212528229, -0.058058109134435654, -0.11365906149148941, 0.012202839367091656, -0.018104474991559982, -0.06154903396964073, -0.09387680143117905, 0.06346698850393295, -0.02996782399713993, -0.06683678179979324, 0.08415517956018448, -0.06561511009931564, -0.054931435734033585, 0.01185099221765995, 0.0437314473092556, 0.10421043634414673, 0.08339806646108627, -0.058527953922748566, 0.06941556930541992, -0.005809950176626444, 0.042885858565568924, 0.06780219078063965, 0.12166446447372437, -0.029568536207079887, -0.09447301179170609, -0.0367797426879406, 0.00997967179864645, -0.12235916405916214, -0.10809682309627533, 0.01788022182881832, -0.06468180567026138, -0.10289488732814789, 0.10471176356077194, -0.07254556566476822, -0.06724797189235687, -0.05337979272007942, 0.03269239515066147, 0.06984023749828339, 0.04121612757444382, 0.053846292197704315, -0.11451408267021179, 0.005384601652622223, 0.06899181008338928, 0.025983374565839767, -0.041541293263435364, -0.05099210888147354, -0.010784153826534748, -0.07991806417703629, -0.10526654869318008, 0.08135441690683365, 0.12403860688209534, -0.032280564308166504, 0.08857572823762894, 0.042266301810741425, -0.09240621328353882, 0.023041455075144768, 0.03661574795842171, 0.07142031192779541, -0.11277493089437485, 0.0041666412726044655, -0.11573310941457748, -0.03980239853262901, -0.10207211226224899, -0.05776818469166756, 0.04242248833179474, 0.09110540896654129, -0.10991963744163513, -0.07062972337007523, 0.08622957766056061, 0.02861381135880947, 0.018457435071468353, 0.06449343264102936, -0.12247397005558014, 0.10571730136871338, 0.045296598225831985, -0.12561289966106415, -0.11137211322784424, 0.048497967422008514, -0.10341222584247589, 0.07612252980470657, -0.12670637667179108, 0.07041046023368835, 0.12434674054384232, -0.009364533238112926, -0.026167774572968483, -0.03181139752268791, -0.00971555057913065, 0.06698853522539139, -0.07114370167255402, -0.05320770666003227, 0.0372614748775959, -0.033583492040634155, -0.0366462804377079, -0.09072805941104889, 0.08216166496276855, -0.057293009012937546, 0.0021819097455590963, -0.07966906577348709, 0.09792783111333847, -0.0654916912317276, 0.019138239324092865, 0.027702242136001587, -0.07389593124389648, 0.03241785988211632, -0.060813575983047485, 0.1055673360824585, -0.08039533346891403, 0.021428588777780533, -0.043395984917879105, 0.04204203933477402, -0.0008739635813981295, -0.06882039457559586, 0.08869551122188568, -0.04510554298758507, -0.00034202681854367256, -0.07060772180557251, -0.12459538877010345, -0.0051375459879636765, -0.02139514870941639, -0.024963684380054474, 0.009995188564062119, 0.11786852031946182, -0.007621072698384523, 0.12229380011558533, -0.08433562517166138, 0.026133792474865913, 0.06051728129386902, -0.016852539032697678, 0.09269683063030243, 0.10194182395935059, -0.012992843054234982, -0.0719103291630745, -0.09470926225185394, -0.03904808312654495, 0.08617867529392242, 0.054313644766807556, -0.007137327454984188, 0.04828690364956856, 0.02946731634438038, -0.11006102710962296, -0.08165259659290314, -0.08929184079170227, 0.05470750480890274, -0.10544828325510025, 0.027217112481594086, -0.05990597605705261, -0.11392858624458313, -0.0640253871679306, 0.0314098559319973, -0.06834134459495544, -0.08571969717741013, -0.04284528270363808, -0.02976391278207302, -0.0037940978072583675, 0.025659894570708275, -0.005454650614410639, 0.030227605253458023, 0.06463837623596191, -0.08843881636857986, 0.07150252908468246, -0.10704295337200165, -0.03230689465999603, -0.06507223099470139, -0.05273598060011864, -0.0013548509450629354, -0.0783955305814743, 0.04727131128311157, -0.029800191521644592, -0.12136727571487427, 0.09984765946865082, -0.08892212063074112, 0.0015592072159051895, 0.036350369453430176, 0.017185229808092117, -0.08493805676698685, -0.09451179951429367, -0.06787903606891632, 0.05632791295647621, 0.05526665598154068, -0.11224331706762314, 0.09353399276733398, -0.04786155745387077, -0.023988375440239906, 0.01758052594959736, -0.0388910211622715, -0.10261755436658859, 0.09435391426086426, -0.10540681332349777, -0.0972861498594284, 0.11537414789199829, -0.062124405056238174, 0.043353188782930374, 0.0045624966733157635, -0.12552352249622345, -0.02538718283176422, 0.05623776093125343, -0.03862952068448067, 0.012195345014333725, -0.05115079507231712, 0.03605543449521065, -0.02096513845026493, 0.11529102176427841, 0.1047838032245636, 0.11381581425666809, -0.09061074256896973, -0.06547865271568298, 0.027395088225603104, -0.05614614114165306, 0.10057249665260315, 0.08156897872686386, 0.08737335354089737, -0.02691495791077614, 0.0784916803240776, 0.025875434279441833, -0.11515786498785019, -0.12714210152626038, 0.016382338479161263, 0.08008687943220139, 0.1369936615228653, 0.02316531352698803, -0.08213655650615692, -0.08391807228326797, 0.1047646701335907, -0.07348909974098206, -0.05789054185152054, 0.10577491670846939, -0.0970575213432312, 0.053386010229587555, 0.015288523398339748, 0.06193174049258232, 0.09387855231761932, 0.08703386038541794, 0.08298959583044052, 0.05891386792063713, 0.01572015881538391, -0.08655897527933121, -0.05373287573456764, -0.057046134024858475, 0.01953466609120369, -0.11532820016145706, -0.05036194622516632, 0.027815964072942734, -0.03645949065685272, 0.11779733747243881, -0.004530142527073622, -0.06495596468448639, 0.06434239447116852, 0.03462402522563934, 0.09642668813467026, -0.05316495522856712, 0.013368889689445496, 0.05424601957201958, 0.03711104020476341, 0.015323121100664139, -0.11135628074407578, 0.10887850821018219, -0.10159541666507721, -0.08895767480134964, 0.0012584003852680326, -0.027249721810221672, 0.07866698503494263, -0.010484832338988781, 0.030243780463933945, 0.0016885866643860936, -0.009472830221056938, -0.1182226836681366, -0.10567983984947205, 0.12598583102226257, -0.05544204264879227, -0.007411687634885311, 0.02174193784594536, 0.024081503972411156, -0.004194700624793768, -0.057961635291576385, 0.029353376477956772, 0.05594440922141075, -0.014012003317475319, -0.024244826287031174, 0.07468628138303757, 0.06624282896518707, -0.09691949933767319, -0.0007497584447264671, -0.09266664832830429, 0.08382676541805267, -0.015729499980807304, 0.028828147798776627, -0.04635220766067505, -0.02821165882050991, -0.07432997226715088, 0.09922290593385696, 0.03047400712966919, -0.11293831467628479, 0.09874594211578369, -0.05172793194651604, -0.006966742686927319, -0.09422387182712555, 0.0946233719587326, 0.04832262173295021, -0.0264434851706028, 0.04278208687901497, 0.11930996924638748, 0.09078685194253922, -0.0016310577047988772, -0.018932269886136055, -0.09110872447490692, -0.06773573160171509, 0.0496239997446537, -0.010671446099877357, 0.08969168365001678, -0.13361622393131256, -0.05584973469376564, -0.0924280434846878, 0.11507244408130646, -0.06853793561458588, 0.07622019201517105, -0.10717890411615372, -0.08468303829431534, 0.05071296915411949, -0.0469297394156456, 0.08568796515464783, -0.026229050010442734, 0.1382008045911789, 0.09500496834516525, 0.09163510799407959, 0.0390554815530777, -0.03464466333389282, -0.10586440563201904, 0.05720387399196625, -0.06478956341743469, 0.028996000066399574, 0.03818179666996002, 0.03333216905593872, -0.007822836749255657, 0.04826515540480614, 0.05048499256372452, -0.08516612648963928, 0.06479565799236298, 0.07893607020378113, -0.023072069510817528, 0.02546660415828228, 0.016654519364237785, -0.06327173113822937, 0.11077394336462021, 0.05874534323811531, -0.08909806609153748, -0.006298672873526812, 0.09585882723331451, 0.07388903200626373, 0.06586309522390366, -0.07751265168190002, 0.10790903121232986, 0.012674210593104362, 0.01725032366812229, -0.11387758702039719, 0.08950050920248032, 0.03715869039297104, -0.004828378092497587, -0.00920091662555933, -0.06034080684185028, -0.07034451514482498, 0.120491623878479, -0.11014363169670105, -0.11527413874864578, 0.021124763414263725, -0.005293671507388353, -0.07159794867038727, -0.11807653307914734, 0.10043590515851974, -0.04872368648648262, 0.07141774892807007, 0.08490053564310074, -0.011094209738075733, 0.045670073479413986, 0.0909411758184433, 0.11066562682390213, 0.04560321196913719, 0.08584415167570114, 0.11752298474311829, 0.04541497677564621, -0.06763163954019547, -0.07924075424671173, -0.0676315426826477, 0.08484812080860138, -0.08956592530012131, 0.004849122371524572, -0.02844049036502838, 0.010903075337409973, -0.00672147748991847, 0.10203684866428375, -0.09660129249095917, -0.008924285881221294, 0.0660027489066124, 0.015062118880450726, 0.06974401324987411, -0.05023343488574028, 0.03815474361181259, -0.0711279883980751, 0.0005442555411718786, 0.033365629613399506, 0.039678823202848434, 0.12285375595092773, -0.10586187243461609, 0.033557552844285965, -0.12272310256958008, -0.13054530322551727, -0.0624968558549881, 0.08253893256187439, -0.02962319739162922, 0.032452117651700974, 0.11958854645490646, -0.13596408069133759, -0.12149521708488464, -0.03186984360218048, 0.0970248430967331, -0.10259491205215454, -0.058792367577552795, -0.041328269988298416, -2.454415152897127e-05, -0.07464323937892914, -0.03803515434265137, 0.07520804554224014, 0.1050570011138916, -0.010688534006476402, 0.040783509612083435, 0.09761616587638855, 0.006751792971044779, 0.049537334591150284, -0.09585446864366531, -0.12250999361276627, 0.07150446623563766, -0.0899580791592598, -0.05239567533135414, 0.044990018010139465, -0.03973424434661865, 0.07044506072998047, 0.11943233758211136, 0.01592627726495266, -0.1405695527791977, 0.12336360663175583, -0.097865529358387, -0.011424148455262184, 0.02809998206794262, -0.07184303551912308, -0.07311823964118958, 0.09377886354923248, -0.06944382190704346, 0.1201910451054573, 0.07139834761619568, 0.09051105380058289, -0.07439109683036804, -0.07004652917385101, -0.003525503445416689, -0.058214928954839706, 0.07201619446277618, 0.10164251923561096, -0.05006040632724762, 0.06271504610776901, -0.07985293865203857, -0.09448219835758209, 0.11993372440338135, 0.11148381233215332, 0.0006466523627750576, 0.046139948070049286, 0.023203585296869278, -0.0480194054543972, -0.11404837667942047, 0.059377267956733704, -0.008715907111763954, 0.05781864747405052, 0.11252395063638687, 0.05320914462208748, -0.10753340274095535, 0.04771474748849869, 0.11082254350185394, -0.12479718029499054, 0.004725167062133551, 0.04890572279691696, 0.00358136766590178, 0.006967466324567795, 0.09446168690919876, 0.027689576148986816, -0.016370246186852455, -0.09533248096704483, -0.07985234260559082, 0.03342614695429802, -0.07508635520935059, 0.08206308633089066, -0.05159839242696762, -0.10737354308366776, -0.05654289945960045, -0.07024306803941727, -0.052543118596076965, -0.03036484681069851, 0.07277826964855194, -0.00029926514253020287, 0.013516395352780819, -0.046426430344581604, 0.08665671944618225, -0.06443646550178528, -0.06924117356538773, -0.08331607282161713, -0.09986741095781326, -0.07078278064727783, 0.1138186976313591, -0.0723903551697731, 0.0743953287601471, 0.08755426108837128, 0.07909632474184036, -0.12435714155435562, 0.07064951211214066, -0.08758611977100372, -0.11842366307973862, 0.11144540458917618, 0.10850168019533157, 0.08151838183403015, -0.041689448058605194, -0.12470467388629913, -0.11548814177513123, -0.059832800179719925, 0.08132581412792206, -0.09458167105913162, 0.055932722985744476, 0.06640166789293289, 0.07810790836811066, -0.017092732712626457, 0.08070351928472519, 0.00819199625402689, -0.07192371040582657, 0.05592481419444084, -0.0038957414217293262, -0.09851811826229095, 0.020473871380090714, 0.02462923713028431, -0.026721755042672157, -0.12002392113208771, 0.04227549955248833, 0.061017535626888275, -0.09733981639146805, -0.10992567241191864, 0.03642842918634415, 0.007680031470954418, 0.06328500062227249, 0.011733530089259148, -0.08640585094690323, -0.056214649230241776, -0.017346546053886414, -0.02055281400680542, 0.02127384953200817, 0.10637673735618591, -0.11630796641111374, -0.03996500372886658, -0.020020345225930214, 0.05789107456803322, -0.0972418412566185, -0.0160764679312706, -0.050694458186626434, 0.07576984167098999, -0.08245913684368134, -0.087103471159935, -0.05960986390709877, -0.09124875068664551, 0.050294145941734314, 0.07075677812099457, -0.036636725068092346, 0.05449428781867027, 0.03943610563874245, -0.10231158137321472, 0.0527740977704525, -0.02931770123541355, -0.09675045311450958, 0.07359164953231812, 0.009106036275625229, 0.03864029794931412, -0.09358558803796768, -0.03604154288768768, -0.11484695971012115, 0.10509412735700607, -0.015982741490006447, 0.0237415824085474, 0.105523981153965, 0.0017569303745403886, -0.11479480564594269, 0.008305774070322514, 0.039982330054044724, 0.008387248031795025, -0.12021778523921967, -0.11442966759204865, 0.07427135109901428, -0.12474076449871063, 0.051232267171144485, -0.11330070346593857, -0.016475319862365723, -0.03999872878193855, 0.09360920637845993, 0.10861116647720337, 0.050677940249443054, -0.1249069944024086, -0.12914465367794037, -0.07826413959264755, -0.07894754409790039, -0.023297874256968498, -0.09625896066427231, 0.007000988814979792, -0.022973278537392616, -0.11304771900177002, 0.005438327789306641, 0.08587484806776047, 0.02745901420712471, 0.06535222381353378, 0.11791834980249405, 0.09072210639715195, 0.08168768137693405, 0.05018465593457222, 0.029628751799464226, 0.05918750911951065, 0.09007886797189713, 0.0862465649843216, 0.018073875457048416, 0.10325641930103302, -0.12219700217247009, 0.09678523987531662, 0.07042459398508072, -0.015931403264403343, 0.05923622474074364, 0.015745975077152252, -0.12418334186077118, -0.09345178306102753, -0.09545745700597763, -0.024108244106173515, 0.04822198674082756, -0.0928640216588974, -0.08283041417598724, -0.08262356370687485, 0.03248431533575058, 0.10212931036949158, -0.09913807362318039, 0.08671483397483826, 0.0801464170217514, -0.031071675941348076, -0.0378856360912323, -0.02343776635825634, 0.11818072944879532, 0.09414458274841309, 0.04410451650619507, -0.0032754752319306135, -0.037031691521406174, -0.08655183762311935, -0.13462181389331818, 0.043532609939575195, 0.03149203956127167, 0.07019733637571335, 0.05501586198806763, 0.052804529666900635, 0.10319075733423233, 0.09073084592819214, 0.01183370128273964, -0.05824670568108559, 0.09277985244989395, -0.0629047155380249, -0.07348455488681793, -0.11941156536340714, -0.03179023042321205, -0.07672339677810669, -0.11674810200929642, 0.06521609425544739, -0.010087527334690094, 0.038357365876436234, -0.007009157910943031, 0.11994707584381104, -0.06262795627117157, -0.08880019187927246, -0.056823283433914185, -0.07777564972639084, -0.015735255554318428, -0.10091327130794525, 0.0630282387137413, 0.01652093045413494, -0.05446486920118332, -0.10139969736337662, 0.03463905304670334, 0.11813429743051529, -0.10627856105566025, 0.045670099556446075, 0.049095746129751205, -0.07243099063634872, 0.020085947588086128, 0.01923733949661255, -0.025804288685321808, 0.044904980808496475, 0.03415583446621895, -0.07227134704589844, -0.012778397649526596, 0.025598956272006035, 0.03360779583454132, 0.00479570496827364, 0.029240677133202553, 0.07150878012180328, 0.10572516173124313, -0.11757402867078781, 0.05916362628340721, 0.11594678461551666, -0.08548298478126526, 0.08430135250091553, -0.0011142787989228964, 0.015751035884022713, 0.017449356615543365, 0.05193367972970009, 0.027957072481513023, -0.03218746557831764, 0.026588503271341324, -0.031840186566114426, -0.023633377626538277, -0.023698177188634872, -0.06693237274885178, -0.060417041182518005, -0.1068262979388237, -0.037785422056913376, 0.06526128202676773, 0.00406244583427906, 0.026770830154418945, 0.07077304273843765, 0.013823844492435455, -0.10443489253520966, -0.045955874025821686, 0.01159763615578413, -0.0711047425866127, 0.11122817546129227, 0.12496056407690048, -0.11204853653907776, -0.08009287714958191, -0.05123244971036911, 0.004465701058506966, -0.11542528122663498, 0.010951576754450798, 0.04432006552815437, -0.06494833528995514, 0.043074458837509155, 0.11068852245807648, -0.07277201116085052, 0.06907214969396591, -0.01734093390405178, 0.09587845951318741, -0.10520768165588379, 0.028987077996134758, -0.00737330038100481, -0.029935304075479507, -0.04117190092802048, 0.040084969252347946, -0.0017657604767009616, -0.0524003840982914, 0.09275670349597931, 0.052539050579071045, -0.0009664224344305694, 0.1279016137123108, -0.01373355370014906, 0.09090963006019592, 0.048977065831422806, 0.07955695688724518, -0.09440480917692184, -0.08819227665662766, 0.029192540794610977, 0.006261490751057863, 0.0627303496003151, -0.0331183560192585, 0.07990345358848572, 0.06823034584522247, -0.028623491525650024, 0.09002488851547241, -0.039633188396692276, 0.058709993958473206, 0.030836183577775955, 0.05083045735955238, 0.10307402908802032, -0.02658413164317608, -0.01955561526119709, -0.04157236963510513, 0.036268219351768494, 0.06188756600022316, -0.10937749594449997, 0.05165283754467964, 0.06470414996147156, -0.1197362169623375, -0.030032841488718987, -0.010447539389133453, 0.03832056373357773, 0.06920048594474792, -0.05244408920407295, 0.03776012361049652, -0.07859938591718674, -0.10725069791078568, 0.12576957046985626, -0.0022984016686677933, 0.05058160424232483, 0.010174980387091637, -0.025441434234380722, -0.009651927277445793, -0.03822631761431694, 0.09691523760557175, 0.03624903783202171, 0.07750185579061508, 0.0002944010484497994, -0.0108190244063735, -0.04877695441246033, -0.0641142949461937, -0.01191135123372078, -0.031609807163476944, -0.13078458607196808, 0.11421304196119308, -0.11347463726997375, 0.08948961645364761, -0.11424561589956284, -0.0012088180519640446, 0.05191170424222946, -0.08479592204093933, 0.003953386098146439, 0.06973520666360855, -0.062225885689258575, 0.04952516406774521, -0.0369546003639698, 0.09395270049571991, 0.11626850813627243, 0.04325789958238602, -0.02413082867860794, -0.052845560014247894, 0.003732509445399046, -0.05030476674437523, -0.07302334904670715, 0.03406212851405144, -0.05667264014482498, -0.08293019235134125, 0.07191688567399979, -0.09155620634555817, -0.011265363544225693, 0.0814613327383995, 0.008153119124472141, -0.08898340910673141, -0.02206270769238472, 0.10023823380470276, -0.06311240047216415, -0.06175583600997925, 0.018662208691239357, -0.08332044631242752, 0.045921653509140015, -0.11228163540363312, 0.11916805803775787, 0.11368171870708466, -0.0582968108355999, 0.10819431394338608, -0.015877367928624153, -0.05232049897313118, -0.10917842388153076, 0.07196709513664246, 0.10332874208688736, 0.11022312939167023, -0.01810922846198082, 0.09119915217161179, -0.11798001080751419, 0.011371602304279804, -0.014414279721677303, 0.03574354574084282, 0.0980716198682785, -0.021417493000626564, 0.0349174365401268, -0.0033014221116900444, 0.0044509596191346645, -0.1337459534406662, 0.026330923661589622, -0.04843583330512047, -0.1403760015964508, 0.022255923599004745, -0.09898728132247925, -0.0069656651467084885, -0.12793469429016113, -0.1298660933971405, -0.02807140350341797, 0.08112206310033798, -0.0894082561135292, -0.046269867569208145, -0.13508571684360504, -0.015795884653925896, 0.1092686578631401, 0.09831620752811432, -0.05385445058345795, 0.01604546792805195, 0.03921712562441826, 0.02790200151503086, 0.041254136711359024, 0.0902639850974083, 0.058122433722019196, -0.03869721665978432, -0.055301666259765625, 0.018480857834219933, 0.021940849721431732, -0.08575925976037979, -0.08766254037618637, 0.0594768151640892, 0.0317181721329689, 0.0024624757934361696, 0.09222233295440674, -0.08465564996004105, 0.045222193002700806, -0.12582823634147644, 0.01761755160987377, -0.02654864266514778, -0.13083137571811676, -0.10715839266777039, -0.0334196500480175, -0.08039341121912003, -0.08187215030193329, 0.09110477566719055, -0.08147402107715607, 0.02088111825287342, 0.04935383424162865, -0.01452922634780407, 0.10955841839313507, -0.019030319526791573, -0.11824142932891846, 0.04278833419084549, -0.12425421923398972, -0.03222370147705078, -0.007429809775203466, 0.11070340126752853, -0.006865758448839188, -0.0228413213044405, -0.0664835050702095, -0.10394690185785294, -0.009602339938282967, -0.037369776517152786, -0.02322096936404705, 0.08246620744466782, 0.09661819040775299, 0.044347673654556274, -0.10496038943529129, -0.06987907737493515, -0.05016717314720154, -0.10250543057918549, 0.0542464405298233, -0.10622905194759369, 0.052098099142313004, 0.13126562535762787, -0.08793116360902786, 0.10018301755189896, 0.041644345968961716, -0.05098721385002136, 0.12479313462972641, -0.019357269629836082, 0.108971506357193, -0.014130334369838238, -0.05434747785329819, -0.0950179472565651, -0.04901418089866638, -0.0886068046092987, 0.04826873913407326, 0.041964612901210785, 0.08079789578914642, 0.024382371455430984, 0.09705347567796707, -0.005328645929694176, 0.02208361029624939, 0.04443987458944321, 0.11880449950695038, 0.1038173958659172, -0.008278326131403446, -0.06445040553808212, -0.04854617267847061, 0.10231120139360428, 0.03965001553297043, -0.06364510208368301, -0.08444926142692566, 0.06948697566986084, 0.02366141974925995, -0.000937362783588469, -0.0034826684277504683, -0.003704524366185069, 0.09567134827375412, -0.09819402545690536, -0.004124495200812817, -0.0033423963468521833, 0.11068188399076462, 0.09613349288702011, -0.11382715404033661, 0.10081350803375244, 0.04671083018183708, 0.10651636123657227, -0.11537531018257141, 0.0919659361243248, 0.04917797073721886, 0.06804005801677704, 0.10068494081497192, -0.043016668409109116, -0.1249907985329628, 0.03794939070940018, -0.09431865066289902, -0.03712048381567001, 0.09774725884199142, 0.082779660820961, -0.11483035981655121, -0.021018149331212044, -0.07386898994445801, 0.015280579216778278, 0.06666964292526245, -0.0821821540594101, -0.0025924155488610268, -0.02547682635486126, -0.017244167625904083, -0.0883418470621109, -0.004971115384250879, 0.10165701061487198, 0.018953677266836166, 0.08066137135028839, -0.06066117435693741, -0.03059743531048298, -0.038533855229616165, -0.0005673861014656723, -0.05498321354389191, 0.014873658306896687, -0.09398660063743591, -0.09173555672168732, -0.01243019849061966, 0.08024671673774719, 0.08619227260351181, -0.016925258561968803, 0.11687498539686203, -0.08567740023136139, 0.10308179259300232, -0.07339529693126678, -3.9887145248940215e-05, -0.10149841010570526, 0.05218417942523956, -0.10870464146137238, 0.09544289112091064, 0.12099960446357727, 0.019966160878539085, 0.10413310676813126, -0.08622122555971146, 0.013879534788429737, -0.10255023837089539, 0.1036970242857933, 0.03921584039926529, -0.1283496767282486, -0.04937111958861351, -0.03198136389255524, 0.05961268022656441, 0.10027144849300385, -0.05129276588559151, -0.0897449254989624, -0.02791506238281727, -0.04283852502703667, -0.09421324729919434, 0.053822994232177734, 0.026854870840907097, 0.0830976739525795, 0.12235860526561737, 0.010040300898253918, 0.06789612025022507, 0.10988931357860565, -0.019517891108989716, -0.01929648220539093, -0.014600991271436214, -0.05874493345618248, -0.11015003174543381, 0.004070919938385487, 0.043964289128780365, -0.00768613675609231, 0.009260205551981926, 0.02224222756922245, 0.0359138660132885, -0.06737014651298523, -0.03888615965843201, 0.11436688154935837, -0.007911073975265026, -0.03629929572343826, 0.04555956646800041, 0.07783853262662888, 0.032625168561935425, 0.10835707932710648, 0.05701523274183273, 0.019622139632701874, -0.028099779039621353, 0.05073108151555061, 0.052965614944696426, -0.06160788610577583, 0.054545216262340546, -0.024498118087649345, -0.08758863806724548, 0.03571498021483421, 0.07833117991685867, 0.05507859215140343, 0.08422429859638214, -0.008814076893031597, -0.07383401691913605, 0.04133334383368492, -0.0009676713962107897, 0.05650912970304489, 0.030496103689074516, -0.12840014696121216, -0.025931594893336296, 0.060598574578762054, 0.10079822689294815, -0.044131744652986526, -0.04537108540534973, 0.04504498094320297, -0.008412007242441177, -0.060432083904743195, 0.0226106159389019, 0.09829899668693542, 0.11423012614250183, -0.0344986766576767, 0.027450479567050934, 0.10555671155452728, -0.0725054144859314, -0.05894125998020172, 0.02544504962861538, 0.04962505027651787, 0.10806296020746231, 0.021711209788918495, -0.038663350045681, 0.09318412095308304, 0.01891936920583248, 0.05938626080751419, -0.09958554059267044, -0.10928242653608322, 0.11977706849575043, -0.10869946330785751, -0.12109822779893875, -0.08072338998317719, -0.06691692024469376, -0.06610386818647385, -0.0034695672802627087, -0.0026054633781313896, -0.046880971640348434, 0.08589165657758713, 0.02975681982934475, -0.026714691892266273, -0.03376530483365059, -0.05534965917468071, 0.11861968040466309, 0.002909502014517784, -0.115981325507164, 0.0757216289639473, -0.05701848119497299, -0.12197437137365341, -0.08431655913591385, -0.10013522952795029, 0.00862482376396656, -0.04701782390475273, -0.10327611118555069, 0.03749239817261696, -0.0041579995304346085, 0.08906183391809464, 0.10169147700071335, 0.06570855528116226, 0.10739662498235703, 0.09151225537061691, 0.07780926674604416, 0.1093062087893486, 0.07574520260095596, -0.07169514149427414, 0.09773047268390656, -0.1089717373251915, 0.10697870701551437, -0.004959573037922382, 0.11948421597480774, 0.06558560580015182, -0.02507025934755802, 0.06803082674741745, 0.11867529153823853, -0.11349394172430038, -0.13122175633907318, -0.12490717321634293, 0.003710478078573942, 0.021652378141880035, -0.04368330165743828, 0.09458226710557938, 0.11848971247673035, -0.043214570730924606, -0.07312659919261932, 0.08190063387155533, -0.06785158067941666, 0.02252226509153843, 0.09400144964456558, -0.08556043356657028, 0.08920548111200333, -0.10749297589063644, 0.09330060333013535, 0.012881039641797543, -0.07405412942171097, 0.10943019390106201, 0.05067801848053932, 0.12681473791599274, -0.031254008412361145, 0.01711607351899147, -0.04892715811729431, 0.017086755484342575, 0.039106860756874084, -0.04449788108468056, 0.010526253841817379, 0.05525718629360199, -0.09274124354124069, -0.06594865024089813, -0.06864138692617416, -0.08341493457555771, -0.04964451491832733, 0.019550973549485207, 0.12487480789422989, -0.10323522239923477, 0.022291159257292747, -0.09280043840408325, -0.11288682371377945, -0.0877690240740776, 0.09553500264883041, -0.05946638435125351, 0.021161731332540512, -0.10387326776981354, -0.0009661908843554556, -0.11779762804508209, -0.06526441127061844, 0.011591602116823196, 0.10462412983179092, 0.01687668263912201, -0.08775565773248672, 0.042439572513103485, 0.05719606578350067, -0.030005214735865593, -0.09782492369413376, -0.03488009423017502, 0.06974133849143982, 0.06078782677650452, 0.11353764683008194, 0.008487710729241371, 0.03936229646205902, -0.0847589522600174, -0.05963096767663956, 0.1104680672287941, -0.08377780020236969, -0.036792248487472534, 0.05531487986445427, 0.10032964497804642, -0.11096895486116409, -0.037330832332372665, -0.06461980938911438, -0.04539643973112106, -0.06349379569292068, 0.00943403784185648, -0.0301437396556139, 0.11514273285865784, -0.035829268395900726, -0.08278218656778336, 0.050508979707956314, -0.11362062394618988, -0.05664006620645523, -0.10627323389053345, -0.06941089779138565, 0.062287673354148865, 0.12184207141399384, 0.05578228458762169, 0.01934284158051014, -0.11300153285264969, -0.031731050461530685, 0.04579979553818703, -0.1119568720459938, -0.10609164088964462, 0.07682468742132187, -0.001016818219795823, -0.03934967890381813, 0.04572892189025879, -0.07227747142314911, 0.05823897570371628, 0.05238991603255272, -0.060748834162950516, 0.0760907232761383, 0.030090363696217537, -0.0354679636657238, -0.11629148572683334, -0.05380630120635033, 0.014890646561980247, -0.06035395339131355, 0.06964252889156342, 0.03941749036312103, -0.1036146879196167, 0.05881103128194809, -0.006283811293542385, 0.09186382591724396, 0.12822844088077545, 0.04441478103399277, -0.015550253912806511, 0.10240112245082855, -0.026424206793308258, -0.07288599759340286, 0.08064509928226471, -0.06368457525968552, 0.053164828568696976, -0.1070159301161766, -0.11028575897216797, -0.009202263318002224, 0.11060643196105957, 0.12495943903923035, -0.07381691783666611, 0.10475945472717285, -0.012922144494950771, -0.04910929873585701, -0.07841764390468597, -0.09360218048095703, 0.11129377037286758, -0.1092638149857521, -0.08047205209732056, -0.005623296834528446, -0.06420860439538956, -0.015620985999703407, 0.11049985140562057, -0.03938364237546921, 0.1134619489312172, -0.06716007739305496, 0.11251503229141235, 0.051723405718803406, -0.09720543026924133, 0.025453541427850723, 0.06177378445863724, -0.09335122257471085, 0.03226097300648689, -0.13241277635097504, 0.11022604256868362, -0.04612301290035248, -0.029499191790819168, -0.03618418797850609, -0.11841245740652084, 0.08882211148738861, 0.07422386854887009, -0.02468268945813179, 0.07001335173845291, -0.05527763068675995, 0.06787325441837311, -0.07544326037168503, 0.10037645697593689, -0.11042128503322601, 0.05083204060792923, 0.007751048542559147, 0.01733568124473095, 0.07841984182596207, -0.07993506640195847, -0.02383659966289997, -0.023145107552409172, 0.047718461602926254, 0.06527901440858841, 0.008958973921835423, -0.029269978404045105, -0.11831486225128174, -0.028719138354063034, 0.06977033615112305, 0.02705402672290802, -0.0022735302336513996, -0.06913589686155319, -0.0025186147540807724, -0.05482816696166992, -0.006076666060835123, 0.03389366716146469, -0.10872048884630203, -0.013261096552014351, 0.10449126362800598, 0.003214561613276601, -0.10579096525907516, 0.024979380890727043, 0.10180436819791794, 0.08258479833602905, -0.07294078171253204, -0.11090408265590668, -0.010722714476287365, 0.005678236950188875, -0.05003040283918381, -0.07105357199907303, -0.0065389350056648254, 0.11948121339082718, -0.09818551689386368, 0.0780135840177536, 0.11532660573720932, -0.055305130779743195, -0.012555778957903385, 0.12133275717496872, 0.08399195224046707, 0.027755919843912125, 0.05134375020861626, 0.1002470999956131, 0.11805374920368195, -0.009873908944427967, -0.11646021902561188, -0.07799386233091354, -0.06552821397781372, 0.05594855919480324, -0.08765142410993576, -0.10199278593063354, -0.01991353929042816, 0.100089430809021, -0.06406725943088531, 0.062121666967868805, 0.027725832536816597, -0.10868914425373077, 0.005514778662472963, -0.027080131694674492, 0.005954972002655268, 0.07305944710969925, -0.03496607020497322, 0.03356979787349701, 0.039195213466882706, 0.08452700078487396, -0.010660086758434772, 0.0017324722139164805, -0.06642340868711472, 0.08604126423597336, -0.05039815232157707, -0.08589441329240799, -0.11343403905630112, -0.019386960193514824, 0.04766000807285309, 0.04808276891708374, -0.0730331763625145, -0.10793308913707733, -0.07443247735500336, -0.05620666220784187, 0.04465655982494354, 0.06952684372663498, 0.012409846298396587, -0.002899942686781287, 0.0734841376543045, 0.054020244628190994, -0.04511246085166931, 0.10584419965744019, -0.100572369992733, 0.08498355746269226, 0.12792475521564484, -0.050621721893548965, 0.03385008126497269, -0.01091921329498291, -0.07676586508750916, 0.005351104307919741, -0.036295242607593536, 0.13103149831295013, -0.11542228609323502, -0.09635661542415619, -0.009464610368013382, 0.04625793918967247, 0.08093051612377167, 0.07289542257785797, -0.06297583132982254, -0.081739142537117, 0.01046399399638176, -0.04247499257326126, -0.04698101058602333, -0.016086285933852196, -0.10643219202756882, 0.12998580932617188, 0.12453662604093552, 0.013650218024849892, -0.04951922595500946, -0.1160830408334732, -0.009701995179057121, -0.06538882851600647, -0.043646834790706635, 0.1310921609401703, 0.012359635904431343, 0.04279569908976555, -0.11147446930408478, 0.0871850848197937, -0.06693390756845474, -0.04114329814910889, 0.015468770638108253, 0.015311116352677345, 0.09953247755765915, 0.05829472094774246, -0.011308756656944752, 0.12192865461111069, -0.038743261247873306, 0.10923265665769577, -0.030449790880084038, -0.10199226438999176, 0.013645803555846214, 0.018119068816304207, 0.10121303051710129, 0.019032061100006104, 0.08548817783594131, 0.09520977735519409, 0.04709039255976677, -0.10965229570865631, 0.07839272171258926, 0.13308262825012207, -0.12115103751420975, 0.07257460057735443, 0.026360465213656425, 0.10943998396396637, 0.11305785179138184, 0.031204553321003914, 0.015966612845659256, 0.02687043696641922, 0.0678313672542572, 0.1213373988866806, -0.034503038972616196, 0.09455645084381104, -0.04080180823802948, -0.09469830989837646, 0.0392562597990036, -0.08530736714601517, 0.023947877809405327, -0.11598362028598785, -0.04671482369303703, -0.04549223929643631, 0.08566180616617203, 0.08434215188026428, -0.12516379356384277, 0.03639544919133186, 0.09131457656621933, -0.10685914009809494, -0.03524906188249588, 0.10681841522455215, -0.09373217076063156, 0.04025898873806, 0.01393131259828806, -0.01924750581383705, -0.06287844479084015, -0.11090733855962753, -0.12801729142665863, 0.08169875293970108, -0.11074574291706085, -0.12710632383823395, -0.08605354279279709, 0.053705453872680664, -0.057143714278936386, 0.10933338105678558, -0.08185093104839325, 0.08087866008281708, 0.09138283878564835, -0.03125791251659393, -0.07980910688638687, 0.06806782633066177, -0.03543446958065033, 0.03243467956781387, 0.0874507948756218, -0.06647929549217224, -0.11158318817615509, -0.03247075527906418, 0.008438999764621258, 0.001113568781875074, 0.11582767963409424, -0.11570938676595688, 0.08214129507541656, -0.12427577376365662, -0.040035367012023926, 0.0012367090675979853, 0.007443245500326157, -0.05977196618914604, -0.022348828613758087, -0.0031267735175788403, -0.08509621024131775, 0.07956621050834656, 0.07793454825878143, -0.12089505046606064, -0.053256478160619736, -0.06898553669452667, 0.046843599528074265, -0.11661812663078308, 0.08654939383268356, -0.10685448348522186, 0.09735509008169174, -0.09901133924722672, -0.10816964507102966, 0.12513360381126404, 0.09736603498458862, 0.03432924672961235, -0.11164626479148865, -0.05889255180954933, -0.008624649606645107, 0.07062485069036484, -0.08156801760196686, -0.05556003749370575, 0.09290261566638947, -0.08532743901014328, -0.04677311331033707, -0.0053346226923167706, -0.09111154079437256, 0.04743731766939163, -0.11822294443845749, -0.058927204459905624, -0.10742057114839554, 0.028623158112168312, -0.07648422569036484, -0.05871789902448654, -0.026587534695863724, 0.05836020037531853, -0.08914375305175781, -0.08711031079292297, -0.08563733100891113, -0.00621786480769515, 0.04773886501789093, 0.10171420872211456, 0.07822295278310776, -0.06412941962480545, 0.0717155784368515, -0.10175406187772751, -0.05427653715014458, 0.1266753375530243, 0.012191999703645706, 0.03889671340584755, 0.1182703822851181, 0.033842459321022034, -0.04487494006752968, 0.0587795153260231, 0.061815295368433, 0.02656540274620056, 0.020603638142347336, 0.10688932240009308, -0.03517737239599228, 0.011475148610770702, -0.03528047725558281, 0.05740208178758621, -0.04511488601565361, -0.03477136045694351, -0.12955698370933533, -0.07137381285429001, 0.11400041729211807, 0.044391416013240814, -0.06744697690010071, 0.05734427645802498, -0.054914917796850204, 0.11011843383312225, 0.10108797252178192, 0.07029673457145691, -0.1193370521068573, 0.0927957147359848, -0.03425271064043045, -0.09125813096761703, -0.0313328355550766, 0.042271412909030914, 0.021864911541342735, -0.06595128029584885, -0.09911207854747772, -0.13039007782936096, 0.006281970534473658, -0.06219691038131714, -0.1316753625869751, 0.09027768671512604, -0.001199201913550496, -0.07153435051441193, -0.07444839179515839, -0.03417907655239105, -0.1015334278345108, 0.004337735939770937, -0.013444698415696621, 0.10222677141427994, 0.10562633723020554, -0.1273828148841858, -0.03593999519944191, -0.033545855432748795, -0.10468484461307526, -0.10602416843175888, 0.02997017093002796, 0.10833781957626343, 0.09884065389633179, 0.026891350746154785, -0.12309353798627853, 0.037966080009937286, 0.12195993214845657, 0.10572390258312225, -0.0685417652130127, -0.07131755352020264, -0.07779467105865479, 0.03624892979860306, -0.02387303113937378, -0.08141814172267914, -0.11544475704431534, -0.11582779139280319, -0.0848759114742279, -0.1099952906370163, 0.04889819771051407, -0.0457792803645134, 0.08670783042907715, -0.04294261708855629, 0.07749533653259277, -0.021987106651067734, 0.13047142326831818, -0.003733246587216854, 0.07440422475337982, -0.05978590250015259, -0.109141506254673, -0.08442628383636475, -0.0930706188082695, -0.07158546149730682, 0.0466332845389843, -0.0444481186568737, -0.00048681587213650346, 0.0011758209438994527, 0.09257173538208008, 0.013067296706140041, -0.03600412607192993, 0.0878060981631279, 0.044219933450222015, 0.09149351716041565, 0.07003306597471237, -0.03611830249428749, 0.027863841503858566, -0.06533768773078918, -0.028513051569461823, -0.10921936482191086, -0.06935609132051468, 0.06326751410961151, 0.09792858362197876, -0.0759039968252182, 0.1098017767071724, -0.0529172420501709, -0.0074710603803396225, -0.0818098932504654, -0.038790225982666016, -0.07634831219911575, 0.0898495763540268, 0.020412925630807877, -0.12284795194864273, -0.04512946680188179, 0.05509800463914871, 0.06786096096038818, 0.11879150569438934, -0.006949723232537508, 0.10674435645341873, -0.12171314656734467, 0.03657596930861473, 0.09938511252403259, 0.11219571530818939, -0.09170983731746674, 0.09624648839235306, -0.10113918036222458, 0.0995146781206131, 0.10117533802986145, 0.03459066152572632, -0.1271606832742691, 0.04580575227737427, -0.05145062133669853, -0.10478197783231735, -0.09485477209091187, -0.0774364173412323, -0.10391071438789368, 0.058920759707689285, 0.11144999414682388, -0.10730846971273422, -0.03929080814123154, -0.037605419754981995, -0.07439515739679337, 0.02159811370074749, -0.11644209921360016, -0.04400164261460304, -0.04414302855730057, -0.061423610895872116, 0.003096677828580141, 0.1177595853805542, -0.04844982177019119, 0.07655415683984756, 0.005228380672633648, -0.07892300188541412, -0.0038957891520112753, 0.011480603367090225, -0.014817521907389164, -0.013441849499940872, 0.10662362724542618, -0.08890888094902039, 0.07840416580438614, 0.06513436138629913, -0.12659144401550293, -0.105100616812706, -0.050860658288002014, -0.04201251640915871, 0.04256608709692955, 0.052376650273799896, -0.08581727743148804, -0.04897184669971466, 0.08105620741844177, -0.10020338743925095, -0.08742135018110275, 0.10503638535737991, 0.05418884754180908, 0.11920949816703796, 0.09473489969968796, 0.007646317593753338, 0.11087339371442795, 0.041088175028562546, 0.06560575217008591, 0.04768654331564903, -0.1157936155796051, 0.05376977100968361, -0.08668676763772964, -0.004917928948998451, 0.10443639755249023, 0.11704090237617493, -0.0033142357133328915, 0.07598336786031723, 0.04175746813416481, -0.017799124121665955, -0.05047910660505295, 0.07526139914989471, 0.0837770625948906, 0.03197557479143143, 0.06327877938747406, 0.05908260866999626, 0.07793361693620682, -0.02714143879711628, 0.04054942727088928, 0.11533118784427643, 0.04399216175079346, 0.0012897192500531673, 0.10469178110361099, 0.0626945048570633, 0.07320303469896317, -0.04736168682575226, 0.02636376954615116, 0.007524379529058933, 0.04108879342675209, -0.08988887071609497, 0.04150716960430145, -0.09456601738929749, -0.02351851388812065, 0.10488899797201157, 0.06376178562641144, 0.08702554553747177, 0.03453875333070755, -0.12359702587127686, -0.05129244923591614, -0.051313795149326324, 0.11482448875904083, -0.05012138560414314, 0.04112783819437027, 0.10076284408569336, -0.10955937206745148, 0.06461571156978607, -0.08924418687820435, 0.10994294285774231, 0.041548922657966614, -0.0017088078893721104, 0.015089446678757668, -0.006228594575077295, 0.011145961470901966, 0.029237331822514534, -0.09373603761196136, 0.023974871262907982, -0.06341388076543808, 0.04932587221264839, 0.011356834322214127, 0.06841717660427094, 0.003750815987586975, -0.051553595811128616, -0.015231484547257423, 0.08676689863204956, -0.0717347264289856, 0.006062682252377272, 0.032792218029499054, 0.09905405342578888, 0.05096833035349846, 0.11441655457019806, -0.07266818732023239, -0.08140751719474792, -0.08508966863155365, 0.017926596105098724, 0.027841120958328247, 0.11643686890602112, 0.031125448644161224, 0.0711284801363945, 0.06463056057691574, 0.0668950304389, -0.09198090434074402, 0.09241589158773422, 0.10273953527212143, 0.02814497984945774, -0.09652888774871826, 0.01877831108868122, 0.10489650070667267, 0.09793247282505035, -0.06685280054807663, 0.04013602435588837, -0.1331034153699875, -0.11839829385280609, -0.0836338922381401, -0.10464263707399368, -0.046110015362501144, -0.0404866561293602, -0.03917241096496582, -0.09491527825593948, -0.00953731220215559, 0.05883873999118805, 0.031049104407429695, 0.00569016532972455, 0.014015773311257362, 0.048686835914850235, -0.048485107719898224, -0.05402955412864685, 0.10464370995759964, 0.09448262304067612, -0.12404117733240128, -0.07208244502544403, 0.10568857192993164, -0.12083493918180466, -0.04446704685688019, 0.004420708864927292, -0.06595025956630707, -0.07451456785202026, -0.0958249643445015, -0.05547906085848808, 0.018548374995589256, 0.02370917610824108, -0.048055365681648254, 0.06123929098248482, -0.0049311574548482895, 0.10225199908018112, -0.09141895920038223, -0.09862100332975388, 0.04597178101539612, -0.11353790014982224, 0.09718950092792511, 0.06307969987392426, 0.059392914175987244, 0.04162074252963066, -0.11996826529502869, -0.03489409014582634, 0.04869343712925911, -0.0631299763917923, 0.028679918497800827, -0.023051364347338676, 0.09272511303424835, -0.021920140832662582, -0.10787733644247055, 0.013313034549355507, 0.06225276365876198, -0.12383483350276947, -0.013108532875776291, 0.03100092150270939, 0.047351423650979996, -0.008474178612232208, 0.11481958627700806, -0.08633028715848923, -0.13095884025096893, -0.08377177268266678, -0.01637532375752926, 0.07621970027685165, -0.10688754171133041, -0.005786988418549299, 0.08147405087947845, -0.07629701495170593, 0.04281392693519592, -0.09930207580327988, -0.04799463599920273, -0.046818800270557404, 0.04140356928110123, -0.11497604101896286, 0.01756100356578827, -0.020853139460086823, 0.028372569009661674, 0.004296906758099794, 0.09170515835285187, -0.13120262324810028, -0.09522750228643417, 0.053025975823402405, -0.10783767700195312, -0.0401565283536911, -0.021566718816757202, -0.07652314752340317, 0.09308940172195435, -0.024518856778740883, -0.12403155118227005, 0.12210305035114288, -0.0489194393157959, 0.03500707447528839, 0.03109137713909149, -0.11506666243076324, -0.09377545118331909, 0.10139822214841843, -0.002742185490205884, 0.0022095711901783943, -0.0951501876115799, 0.09840535372495651, 0.004899050574749708, 0.02151348814368248, 0.10714563727378845, -0.05067439377307892, 0.11373893171548843, -0.019367601722478867, 0.016384078189730644, -0.12441026419401169, -0.03654323145747185, 0.07892221212387085, -0.024698039516806602, -0.018930746242403984, 0.056501176208257675, 0.011992632411420345, -0.07744982093572617, 0.06892789155244827, 0.03286870941519737, -0.045582085847854614, 0.049002405256032944, -0.05316697061061859, 0.08403140306472778, -0.03240945562720299, 0.09822030365467072, -0.0015174098080024123, -0.08312368392944336, -0.058749228715896606, -0.001043324125930667, 0.04222927987575531, 0.10216230154037476, 0.1048591211438179, -0.04233110696077347, 0.016384055837988853, 0.04931223392486572, 0.06064998731017113, -0.10372631251811981, -0.056116022169589996, 0.07783807814121246, -0.04231588542461395, 0.05843503773212433, 0.07040751725435257, -0.010956360958516598, -0.026022423058748245, -0.10690019279718399, -0.1000940203666687, -0.005183471366763115, 0.09394437074661255, 0.10461876541376114, -0.07790306955575943, -0.0812530443072319, 0.04393841698765755, 0.06816491484642029, -0.08844900131225586, -0.08749702572822571, 0.05091587081551552, -0.07697874307632446, 0.06635385006666183, 0.12134844809770584, 0.026558980345726013, 0.10015525668859482, -0.11586079001426697, -0.06566542387008667, -0.12387868762016296, -0.07223320007324219, -0.07722925394773483, -0.07662522792816162, -0.10000240802764893, -0.12160909920930862, 0.0407259501516819, -0.06797394901514053, 0.06663237512111664, -0.04880137741565704, -0.11575667560100555, -0.0692804604768753, 0.019334888085722923, -0.04659516364336014, -0.0220900010317564, -0.0015900774160400033, -0.0155702019110322, 0.10560227930545807, 0.03987770527601242, -0.024676259607076645, -0.03420397639274597, -0.07395349442958832, 0.10088088363409042, 0.020326247438788414, -0.132089763879776, -0.03324878215789795, -0.031696878373622894, -0.07549668103456497, -0.06832285970449448, -0.06617432832717896, 0.0827992856502533, -0.08744672685861588, -0.009484048932790756, 0.06333750486373901, 0.02984834462404251, 0.033323757350444794, 0.05285234376788139, 0.04304349794983864, 0.06434553861618042, 0.05023465305566788, 0.0019261193228885531, 0.04639512300491333, -0.06495612114667892, 0.11410293728113174, 0.07205461710691452, -0.05921769142150879, -0.017723631113767624, 0.037203993648290634, 0.027766631916165352, 0.08923971652984619, -0.009170462377369404, -0.13058583438396454, -0.02346624992787838, 0.08607887476682663, -0.033095553517341614, -0.10982108116149902, 0.060029592365026474, -0.11563177406787872, -0.13155902922153473, -0.04846629127860069, -0.11005592346191406, 0.11371325701475143, -0.013965212740004063, -0.11923953145742416, -0.06852805614471436, -0.11048279702663422, -0.05391110107302666, 0.07372694462537766, -0.007637775037437677, 0.07943112403154373, -0.03020324744284153, 0.055041857063770294, -0.11724726855754852, -0.008954874239861965, -0.08337543159723282, 0.004891874734312296, -0.01007113792002201, 0.04007311910390854, -0.09651599824428558, -0.1136506050825119, 0.08572321385145187, 0.10059118270874023, 0.12338821589946747, -0.08497562259435654, 0.05466185882687569, -0.12290655821561813, 0.020038336515426636, -0.10331527888774872, 0.08207203447818756, -0.00393249373883009, 0.10426834225654602, 0.09363371878862381, 0.1190456822514534, 0.08681154996156693, -0.0370560884475708, -0.005544555373489857, 0.09360622614622116, 0.08736906945705414, -0.045669712126255035, -0.0001563953992445022, 0.08155087381601334, 0.01728948950767517, 0.051018763333559036, -0.03737945482134819, -0.04909262806177139, 0.12047843635082245, -0.029962845146656036, 0.10965794324874878, -0.042236242443323135, 0.049300868064165115, -0.020402830094099045, -0.03559121862053871, -0.08471301198005676, 0.09361185133457184, 0.03023076057434082, -0.07138358056545258, -0.06699535250663757, -0.036414965987205505, -0.027021139860153198, -0.08072824031114578, 0.02572145126760006, 0.10225316882133484, 0.08485989272594452, 0.0607246533036232, -0.07405196875333786, 0.11548802256584167, 0.008762736804783344, 0.018421493470668793, -0.11080364882946014, 0.034878119826316833, 0.0249357707798481, -0.0433538481593132, -0.05139515921473503, 0.11462169885635376, -0.013341322541236877, 0.12250099331140518, 0.05857338756322861, 0.07801193743944168, -0.11786986887454987, 0.04502250626683235, 0.10675237327814102, -0.08307577669620514, -0.11097902059555054, 0.04494383931159973, -0.10308563709259033, -0.023759113624691963, -0.06252095848321915, 0.016487982124090195, 0.006759120617061853, -0.047805510461330414, 0.02555561065673828, 0.06955180317163467, -0.04743615537881851, 0.04114008694887161, 0.04224548116326332, 0.10628056526184082, 0.004309423733502626, -0.10736490786075592, -0.032515157014131546, 0.11168152838945389, -0.005371071398258209, 0.028269510716199875, 0.0030013907235115767, -0.036274369806051254, -0.011300412937998772, -0.03141895309090614, 0.04487478733062744, 0.09251358360052109, 0.117708720266819, -0.09681426733732224, 0.06416795402765274, 0.07124438881874084, -0.005876907613128424, -0.08494793623685837, 0.006628233473747969, -0.1080249547958374, 0.0114258648827672, -0.12321983277797699, 0.04460196942090988, -0.04066745936870575, 0.11391076445579529, -0.08192099630832672, 0.06031261757016182, -0.09470312297344208, -0.07274478673934937, 0.053961850702762604, -0.025594240054488182, -0.12722936272621155, -0.00625615194439888, -0.05463625490665436, 0.02830829843878746, -0.10981851071119308, 0.016011051833629608, -0.002874487778171897, 0.03985772281885147, 0.006961903069168329, 0.06729225069284439, -0.047008924186229706, 0.10329423099756241, 0.09198121726512909, -0.013758745044469833, 0.009147689677774906, 0.08113081008195877, 0.08513633906841278, 0.06916328519582748, -0.12882544100284576, -0.0014830924337729812, -0.07811948657035828, 0.015783322975039482, 0.09423883259296417, 0.04750168323516846, 0.009955048561096191, 0.07976765185594559, 0.08202512562274933, -0.08594563603401184, -0.07796108722686768, 0.03911568596959114, 0.04063929617404938, -0.11220590770244598, -0.04906267300248146, 0.053052958101034164, 0.006563433911651373, 0.001524357357993722, -0.03503425791859627, -0.06303846836090088, -0.10260757803916931, 0.03682161122560501, 0.013829683884978294, 0.05570957437157631, 0.03852943703532219, -0.07831259071826935, 0.042944926768541336, -0.07179740071296692, -0.09679631888866425, -0.007213932927697897, -0.010076402686536312, -0.06250302493572235, -0.042204756289720535, -0.10133479535579681, -0.10142141580581665, 0.08925168216228485, -0.08082982897758484, 0.08002395927906036, -0.12525156140327454, -0.06757792830467224, -0.12069015949964523, -0.029204359278082848, -0.1043885201215744, -0.070581816136837, 0.0829639732837677, 0.016152415424585342, -0.10332506150007248, -0.08573832362890244, 0.002774134511128068, 0.0691971555352211, -0.08115082234144211, 0.08252886682748795, -0.009242956526577473, -0.045310769230127335, -0.13269168138504028, 0.0434974804520607, 0.04269794747233391, 0.016895411536097527, -0.05899890884757042, -0.023142578080296516, 0.04577045515179634, 0.049575820565223694, 0.02617720514535904, -0.08653593063354492, -0.13490891456604004, -0.10512318462133408, 0.09572035819292068, 0.06294367462396622, 0.09146397560834885, -0.048136092722415924, -0.007950544357299805, 0.048662833869457245, 0.04888265207409859, 0.10098888725042343, -0.02515304833650589, 0.014779684133827686, -0.08533409982919693, 0.05460333451628685, -0.11243696510791779, -0.0011692197294905782, -0.07942452281713486, -0.06992021203041077, 0.0186518095433712, 0.037909794598817825, -0.09717218577861786, -0.09247718006372452, -0.07026363164186478, -0.05736333131790161, -0.09894809871912003, -0.1055254340171814, -0.026501985266804695, -0.03522196784615517, 0.08742492645978928, -0.1148197129368782, -0.017515577375888824, 0.02770354226231575, -0.03927253559231758, -0.098774753510952, -0.10004795342683792, -0.06986984610557556, 0.042119238525629044, -0.1286265105009079, 0.07284191250801086, 0.06749798357486725, -0.05637664347887039, 0.09097903221845627, 0.09208555519580841, 0.07886136323213577, 0.054552532732486725, -0.012163328938186169, 0.023959748446941376, -0.020185422152280807, 0.05436680093407631, 0.07579633593559265, -0.03944941237568855, -0.01673608459532261, -0.023554155603051186, 0.05880251154303551, -0.05784515663981438, -0.09455152601003647, 0.05582796037197113, 0.05908260494470596, -0.05617992579936981, 0.0017259025480598211, -0.06180413067340851, -0.011165966279804707, -0.08040913939476013, -0.013477620668709278, -0.043617598712444305, 0.09251989424228668, -0.06318870931863785, -0.0647556334733963, 0.0664953738451004, 0.06436535716056824, -0.055501434952020645, 0.047018297016620636, -0.07441050559282303, 0.009846178814768791, -0.09724254906177521, -0.12483568489551544, 0.11964398622512817, -0.09916951507329941, 0.015043097548186779, -0.11280601471662521, -0.034661341458559036, -0.09704121202230453, -0.04868702217936516, 0.014288445934653282, -0.02489899843931198, 0.11639207601547241, 0.12079109251499176, 0.0073348297737538815, 0.11423015594482422, 0.01689782179892063, -0.01383026409894228, -0.06457069516181946, -0.10150662809610367, 0.0028462850023061037, 0.024235771968960762, -0.03777075931429863, 0.04682563990354538, 0.07640404254198074, 0.07084205746650696, 0.12213051319122314, 0.03130093589425087, 0.11545120924711227, -0.08388099074363708, -0.07242093235254288, -0.10612119734287262, -0.02892993949353695, 0.06092547997832298, 0.04517071321606636, -0.050219710916280746, -0.035935163497924805, 0.11061380803585052, 0.11942525953054428, 0.12256155163049698, -0.05541866272687912, -0.02621144987642765, 0.12073858082294464, 0.012174067087471485, -0.036697402596473694, -0.005463156383484602, -0.09806467592716217, 0.06256301701068878, -0.04214416816830635, -0.0473344549536705, 0.019531097263097763, 0.10797546803951263, -0.07978522032499313, -0.014775226823985577, -0.11344721913337708, -0.006806562189012766, -0.04939023405313492, 0.11710000038146973, 0.052746910601854324, 0.007277758326381445, 0.00017702697368804365, -0.02399270422756672, 0.03333999216556549, 0.10723336786031723, -0.07493875920772552, 0.013425217010080814, -0.07403704524040222, 0.055229827761650085, 0.015207596123218536, -0.06441186368465424, -0.06685478240251541, -0.07194063812494278, 0.09311112016439438, -0.053730592131614685, -0.09890006482601166, 0.07633066177368164, -0.058691997081041336, 0.11743741482496262, 0.09963985532522202, 0.08159943670034409, 0.06400904059410095, -0.045206598937511444, 0.117193304002285, 0.11241495609283447, -0.12382526695728302, -0.02210940420627594, 0.0561801940202713, 0.028163323178887367, -0.01949414424598217, -0.06831399351358414, 0.009663642384111881, -0.08593975752592087, 0.0057028597220778465, -0.04417719319462776, -0.06142928823828697, -0.12978309392929077, 0.06847453862428665, -0.04517970606684685, 0.0979892686009407, 0.06192649155855179, 0.06694981455802917, -0.06755110621452332, -0.08397576212882996, -0.11675604432821274, -0.02397329919040203, 0.12146887183189392, -0.006290642078965902, -0.012308580800890923, -0.018962988629937172, 0.08495275676250458, -0.03528285026550293, -0.014044680632650852, -0.045068200677633286, 0.03521175682544708, -0.1114208996295929, 0.02108793705701828, 0.003581219119951129, -0.05028817802667618, -0.04193151369690895, -0.05138116702437401, -0.10613647848367691, -0.09068760275840759, 0.07478060573339462, 0.007676971144974232, 0.09151265770196915, -0.12699992954730988, 0.00022404630726668984, 0.13153642416000366, 0.026179688051342964, -0.09753092378377914, 0.003284899052232504, 0.1172666996717453, 0.05765305832028389, -0.07590775936841965, 0.07308564335107803, 0.04350182041525841, -0.11454836279153824, -0.09236066043376923, 0.09959517419338226, -0.12224224209785461, -0.0716511607170105, -0.07055746018886566, 0.11026686429977417, 0.005193114280700684, -0.05957033485174179, -0.08928997814655304, 0.02380935661494732, 0.09244045615196228, -0.04245168715715408, 0.01661504991352558, -0.06366901844739914, 0.012749318964779377, -0.033369868993759155, 0.050741154700517654, -0.07479579001665115, 0.029949259012937546, -0.07379234582185745, 0.03704216331243515, -0.08010527491569519, 0.008292235434055328, 0.02827412448823452, 0.09047548472881317, -0.06585090607404709, 0.07689593732357025, 0.07688620686531067, -0.06772249191999435, -0.001453862525522709, -0.04417502135038376, -0.08640684932470322, -0.008053205907344818, -0.08462929725646973, -0.07107380032539368, -0.10931961983442307, 0.051438719034194946, -0.029671309515833855, 0.011465629562735558, 0.08957858383655548, 0.06103544682264328, -0.07124912738800049, -0.0248621366918087, 0.026783576235175133, 0.035983677953481674, -0.08056317269802094, -0.042874231934547424, 0.0027102590538561344, -0.10135958343744278, -0.01328191813081503, 0.005507251713424921, 0.097632996737957, -0.017546622082591057, 0.10131616145372391, 0.10978789627552032, -0.10648811608552933, 0.0732363611459732, -0.11232337355613708, -0.11450596898794174, -0.12277159839868546, -0.0617259219288826, -0.10002586990594864, 0.07147744297981262, -0.05012532323598862, 0.04636092856526375, 0.08716603368520737, 0.10915395617485046, -0.116937555372715, -0.11331366002559662, 0.10435877740383148, -0.020882168784737587, 0.010949180461466312, -0.11285673081874847, 0.030032172799110413, -0.03345103934407234, 0.022830510511994362, 0.05342946574091911, 0.06394857168197632, -0.017937850207090378, -0.02275940403342247, -0.07139632105827332, -0.09975920617580414, -0.10557243973016739, -0.07956022769212723, 0.11214885115623474, 0.11428229510784149, 0.02206975407898426, 0.1207737922668457, 0.04098038375377655, 0.017810339108109474, 0.011049163527786732, 0.01764836721122265, 0.08442612737417221, -0.12064342200756073, -0.019899843260645866, -0.04850039631128311, -0.054718922823667526, 0.06939033418893814, 0.028846116736531258, -0.11976341158151627, 0.11382845789194107, 0.09914951771497726, 0.0038244600873440504, 0.011877142824232578, 0.03490000218153, 0.06074532866477966, -0.03148142993450165, 0.11345863342285156, -0.022398998960852623, 0.06657136231660843, 0.06329894065856934, -0.06346134841442108, 0.09337401390075684, 0.09437084943056107, -0.09698458760976791, 0.03354426100850105, -0.09601698815822601, 0.03011438064277172, 0.013875099830329418, -0.12055254727602005, 0.006995802279561758, -0.03409619629383087, -0.05653288960456848, -0.07678860425949097, -0.11619988828897476, 0.006465518847107887, -0.037701770663261414, 0.10137581825256348, 0.002297256840392947, 0.10050693899393082, -0.08423209935426712, 0.015752363950014114, -0.05682523176074028, 0.06933499127626419, -0.11213923245668411, 0.05863671749830246, -0.0982365682721138, 0.06094588711857796, -0.11250558495521545, 0.05309019982814789, 0.06959079951047897, -0.0972384363412857, -0.0900663509964943, -0.015878373757004738, -0.01198312733322382, -0.06048768386244774, -0.11323171854019165, -0.03026788868010044, 0.03922596573829651, 0.003630619263276458, -0.010780028998851776, -0.017645668238401413, -0.03494522348046303, 0.07407228648662567, -0.004694269970059395, -0.11615777015686035, -0.07461504638195038, -0.0682692676782608, -0.05520958453416824, 0.04735070466995239, -0.04202232509851456, -0.118327297270298, 0.03033941611647606, 0.10522063076496124, -0.008224643766880035, 0.09403711557388306, -0.10859015583992004, 0.0025118612684309483, 0.09436016529798508, 0.08245795965194702, -0.10926094651222229, 0.05991515517234802, 0.028111152350902557, -0.04385081306099892, -0.09423112869262695, 0.03302382305264473, -0.04594098776578903, -0.008344026282429695, -0.04489139840006828, -0.053462915122509, -0.028508292511105537, 0.01594873145222664, -0.0012780206743627787, 0.041397981345653534, 0.08308875560760498, 0.11763735860586166, 0.06599311530590057, 0.06960483640432358, 0.018505128100514412, 0.08916560560464859, -0.008399455808103085, 0.11480505764484406, 0.07241598516702652, 0.020033041015267372, -0.08451931923627853, 0.03185836970806122, 0.0772416815161705, 0.0687122642993927, 0.07752066850662231, 0.09174232929944992, 0.029398316517472267, 0.04889232665300369, 0.0646454319357872, -0.07584064453840256, 0.03562510386109352, 0.07223471999168396, -0.054693739861249924, 0.045925501734018326, -0.018562177196145058, 0.09084710478782654, 0.06083792448043823, 0.06848099082708359, 0.07194674015045166, -0.11246564984321594, 0.013080122880637646, 0.10336515307426453, 0.0034340210258960724, -0.08212552219629288, -0.05345015972852707, -0.05597527697682381, 0.08676284551620483, -0.002695129020139575, -0.05248380824923515, -0.10314484685659409, 0.004353851545602083, 0.015544475056231022, -0.014812007546424866, -0.0805162712931633, 0.036483824253082275, -0.027905723080039024, 0.03964884579181671, -0.06868744641542435, 0.019083289429545403, -0.10651370137929916, 0.055129509419202805, 0.09725180268287659, 0.03195526450872421, 0.016015732660889626, 0.02868293784558773, -0.048492610454559326, -0.04310336709022522, 0.07964365929365158, 0.09718827903270721, -0.09698613733053207, 0.06558286398649216, -0.04651767015457153, 0.06984163075685501, 0.033029887825250626, -0.04918508604168892, -0.10402292013168335, 0.07510190457105637, 0.09180624037981033, -0.09755045175552368, -0.12016187608242035, -0.06061505153775215, -0.07397468388080597, -0.06002522259950638, 0.10271098464727402, 0.00045623796177096665, 0.003281176323071122, 0.005723746959120035, 0.10156750679016113, -0.043303657323122025, -0.08922740072011948, -0.09165721386671066, -0.11871594935655594, -0.09036628156900406, 0.10706832259893417, 0.127889484167099, -0.013582341372966766, 0.01158484909683466, 0.07437625527381897, -0.05519367381930351, -0.11848325282335281, -0.08749162405729294, 0.10047390311956406, 0.03151412680745125, -0.08868153393268585, -0.04288932681083679, -0.10967642813920975, 0.07417461276054382, -0.04204920306801796, -0.08094113320112228, -0.05390059947967529, 0.09716766327619553, 0.0681900754570961, 0.09768500924110413, -0.056786924600601196, -0.04900335520505905, -0.057088084518909454, 0.06816469877958298, -0.04403192177414894, 0.08603865653276443, 0.11706651002168655, 0.004710988141596317, 0.08199974149465561, -0.02043360285460949, -0.09171000123023987, -0.09911024570465088, 0.12133654952049255, 0.0865536481142044, 0.03138238564133644, 0.0344560369849205, -0.0252442117780447, 0.0780012309551239, 0.04876403510570526, -0.1081586554646492, 0.08650300651788712, 0.06441721320152283, 0.034176792949438095, -0.07821227610111237, 0.0661596804857254, -0.10055471956729889, -0.10799849778413773, 0.03653575852513313, -0.10978001356124878, 0.11081166565418243, 0.06574694812297821, -0.07331115007400513, 0.08781947195529938, -0.12134885787963867, 0.03213683143258095, -0.11257214844226837, 0.08494973182678223, 0.11485876142978668, -0.08478553593158722, 0.1193305179476738, 0.08543998003005981, 0.09808256477117538, -0.0030356268398463726, 0.07875487208366394, -0.08353433012962341, -0.1265416145324707, 0.05150594562292099, 0.10611524432897568, 0.016050703823566437, 0.025130052119493484, 0.0064325351268053055, -0.015699762850999832, 0.018586670979857445, 0.05161002278327942, 0.10993077605962753, 0.11388903856277466, 0.029791440814733505, -0.12208066135644913, 0.029494041576981544, -0.0025307415053248405, 0.030446048825979233, 0.06401577591896057, 0.09162883460521698, -0.11084402352571487, -0.06491664797067642, 0.07750551402568817, 0.058599069714546204, -0.04189877584576607, 0.10378209501504898, 0.028150781989097595, 0.10474558174610138, 0.11854211986064911, -0.021794207394123077, -0.03196275606751442, -0.014681505039334297, 0.0899864211678505, -0.022748470306396484, -0.10207755118608475, 0.1066492423415184, 0.0075705815106630325, -0.029027925804257393, 0.10493278503417969, 0.012620502151548862, -0.04870251938700676, 0.032167527824640274, -0.08434400707483292, -0.07062451541423798, 0.03089418262243271, 0.03884879872202873, 0.08997565507888794, -0.04857012256979942, 0.06358185410499573, -0.00935036689043045, 0.06514707952737808, -0.07374326884746552, 0.09453453868627548, 0.09028143435716629, -0.12282710522413254, 0.05542182922363281, -0.021778654307127, -0.12419623881578445, 0.0737106129527092, 0.08018843084573746, 0.10969551652669907, -0.016654741019010544, -0.06033468246459961, -0.10223349928855896, 0.11653833091259003, -0.10692185163497925, -0.02703450620174408, -0.08430991321802139, -0.09137660264968872, 0.008969176560640335, -0.049037571996450424, 0.09314923733472824, -0.049712106585502625, 0.016989590600132942, -0.12738867104053497, 0.030178425833582878, -0.015967482700943947, -0.047153353691101074, -0.018777895718812943, -0.05986785888671875, -0.05601279437541962, 0.08227361738681793, 0.012883462943136692, -0.019421642646193504, -0.0805106982588768, -0.08467913419008255, -0.01927429996430874, -0.01894405484199524, 0.029377032071352005, 0.050925351679325104, -0.07089041918516159, -0.022609658539295197, -0.03242887556552887, 0.0692121833562851, 0.07944387197494507, 0.021997570991516113, -0.0831054076552391, -0.10662300139665604, -0.08998443931341171, 0.03275406360626221, -0.06509321928024292, -0.057545315474271774, -0.07535488903522491, -0.023098597303032875, 0.03624630346894264, 0.12152338027954102, 0.08472149819135666, 0.07092885673046112, 0.00588250020518899, -0.09048973768949509, 0.07704954594373703, 0.025636881589889526, -0.002220693975687027, -0.08014223724603653, 0.07146797329187393, -0.08899644017219543, 0.044186338782310486, -0.00289746280759573, -0.03780820220708847, -0.06255912780761719, -0.028555521741509438, 0.04350534826517105, 0.10399582237005234, -0.051822248846292496, -0.088595449924469, -0.07187392562627792, 0.058794211596250534, -0.10342700034379959, 0.0032807663083076477, -0.0973266065120697, -0.04373181238770485, 0.12123722583055496, 0.06684980541467667, 0.08013654500246048, 0.023670444265007973, -0.02698592282831669, 0.08918794989585876, 0.00322963809594512, -0.02278280258178711, -0.1061718761920929, 0.05202382802963257, 0.004979257006198168, -0.05601810663938522, -0.07265317440032959, 0.08430005609989166, -0.12836457788944244, 0.10928177088499069, 0.06302406638860703, -0.06757880002260208, -0.08849338442087173, 0.05113456770777702, 0.028950950130820274, -0.054739661514759064, -0.023448307067155838, -0.0625251829624176, 0.06263384968042374, -0.006962931249290705, 0.07784882187843323, 0.0266784206032753, -0.08687654137611389, -0.11159759014844894, -0.05801572650671005, 0.031947530806064606, -0.031007032841444016, -0.10530173033475876, 0.05721703916788101, -0.09521376341581345, -0.02376713789999485, -0.02152298018336296, 0.027190279215574265, 0.09831380844116211, 0.08066859096288681, 0.022569231688976288, -0.05092162638902664, 0.003918566275388002, -0.0970287173986435, -0.10275981575250626, -0.005798277910798788, -0.00301701994612813, -0.08680015802383423, -0.08951395750045776, -0.10193894803524017, 0.03467574343085289, 0.05018581822514534, 0.10877082496881485, -0.05043204873800278, 0.11509980261325836, 0.011815851554274559, -0.062364522367715836, 0.02975589409470558, 0.01187074277549982, 0.04573097825050354, -0.07917716354131699, 0.08249135315418243, 0.03348907083272934, -0.035467538982629776, -0.0029888437129557133, -0.06526882946491241, -0.021932438015937805, -0.002688738750293851, -0.04224555566906929, 0.04416804388165474, 0.06605401635169983, -0.04969077184796333, -0.09488038718700409, -0.009532499127089977, -0.06844639778137207, -0.02119472622871399, 0.12043172121047974, -0.06400712579488754, 0.015415564179420471, -0.05211878567934036, -0.028140226379036903, 0.0033815382048487663, 0.056530505418777466, 0.06614502519369125, 0.06922594457864761, 0.010728555731475353, -0.04946936294436455, 0.05667814984917641, 0.004621460102498531, -0.01672869361937046, -0.04017673805356026, 0.11649073660373688, -0.12351083755493164, 0.07623720169067383, -0.019381912425160408, 0.0741904154419899, 0.061047594994306564, 0.008777930401265621, 0.04994376003742218, 0.018664762377738953, 0.02936914563179016, -0.06397499144077301, -0.036747824400663376, -0.11753632873296738, 0.12969061732292175, 0.0834636241197586, 0.05877642706036568, -0.01827944815158844, 0.05472853034734726, -0.08813487738370895, -0.03148302808403969, 0.1284981071949005, -0.0034642782993614674, 0.044463593512773514, 0.05677689239382744, -0.07742305099964142, -0.08692975342273712, -0.11536582559347153, -0.012465192005038261, 0.0937020555138588, -0.12889064848423004, -0.02693907544016838, 0.07977161556482315, -0.09892377257347107, -0.04981587454676628, -0.10558970272541046, -0.014344967901706696, 0.08177118003368378, -0.12275611609220505, -0.06611407548189163, 0.06933194398880005, 0.04353618994355202, -0.11034698039293289, -0.12415574491024017, -0.0843615010380745, 0.12042886763811111, 0.04032265767455101, 0.04387355595827103, 0.0011481269029900432, -0.015127844177186489, 0.056266918778419495, -0.12017379701137543, -0.09087268263101578, -0.08115077018737793, 0.0664975717663765, 0.02044490911066532, 0.09465185552835464, 0.05958845466375351, 0.09904655069112778, 0.09668727219104767, 0.0057272398844361305, 0.11258362233638763, 0.0650881826877594, 0.051928043365478516, -0.035687558352947235, -0.035593193024396896, -0.09366615116596222, 0.01929234340786934, 0.02970094233751297, 0.02583552524447441, 0.04322152957320213, -0.0025145693216472864, 0.06236189976334572, 0.04784085229039192, 0.019603265449404716, 0.08350744098424911, -0.09756926447153091, -0.12686993181705475, 0.06352297961711884, -0.007638418581336737, -0.0757455825805664, -0.080369733273983, 0.12652459740638733, 0.0923100933432579, 0.05469084903597832, -0.11655900627374649, -0.12534473836421967, 0.016800813376903534, -0.03550788387656212, 0.008169085718691349, -0.05342506617307663, -0.03833466023206711, 0.09113030880689621, 0.08734200894832611, -0.12468015402555466, 0.08509032428264618, 0.10468219220638275, -0.11793272942304611, -0.07110049575567245, -0.07585406303405762, -0.06250577419996262, -0.006448717322200537, -0.03840230405330658, -0.08382420986890793, 0.10024746507406235, 0.0019125480903312564, -0.10975561290979385, 0.11802228540182114, -0.0019021413754671812, -0.11262541264295578, -0.11310863494873047, 0.010212702676653862, -0.06309924274682999, 0.06336556375026703, 0.01615181751549244, 0.08146680891513824, -0.07574357092380524, 0.11921859532594681, -0.06932011991739273, -0.07717421650886536, 0.08200867474079132, 0.08407949656248093, 0.0031162940431386232, -0.12116506695747375, 0.07766902446746826, -0.12213148176670074, 0.09773019701242447, -0.04348428174853325, -0.1001000627875328, -0.0007949073915369809, -0.13174134492874146, 0.03983645141124725, -0.08844947814941406, 0.0712818056344986, -0.12649381160736084, -0.005212730262428522, 0.08035482466220856, -0.04428325220942497, 0.12909603118896484, 0.10140343755483627, 0.10271616280078888, -0.07985574752092361, -0.005126560106873512, 0.05079047009348869, 0.06081831455230713, -0.12075194716453552, 0.02991771325469017, 0.03982466086745262, -0.029462046921253204, -0.01797260344028473, 0.03612827882170677, 0.05692939832806587, 0.03911052644252777, 0.07820457965135574, -0.10462688654661179, 0.10864948481321335, -0.04617210105061531, -0.12657596170902252, -0.09220360964536667, -0.019787967205047607, 0.05084330961108208, -0.06842702627182007, -0.11037594825029373, 0.012294835411012173, 0.06106796860694885, 0.017159735783934593, -0.004994303919374943, -0.09209225326776505, 0.11544778198003769, 0.02319384180009365, -0.006189828272908926, 0.10559863597154617, 0.02944902889430523, -0.04957832768559456, -0.0789637342095375, -0.03190750256180763, -0.06929037719964981, -0.049524664878845215, 0.06476578116416931, -0.06775780022144318, -0.1050914004445076, 0.08974490314722061, -0.033565081655979156, -0.034376781433820724, -0.04415160045027733, 0.042340610176324844, -0.1340976506471634, -0.0035870468709617853, 0.08130847662687302, 0.09113958477973938, 0.06741777807474136, -0.004838205873966217, 0.045414578169584274, 0.08078376203775406, -0.02597917430102825, 0.12687088549137115, -0.1140614002943039, -0.024695975705981255, 0.07293701171875, 0.023272737860679626, 0.11476228386163712, 0.09859617054462433, -0.031887855380773544, -0.09209969639778137, -0.10131455957889557, 0.015136643312871456, 0.04584940895438194, -0.05125510320067406, -0.011589917354285717, 0.05450567975640297, -0.0006251627346500754, 0.0378517284989357, -0.13149558007717133, -0.04007196053862572, -0.07186928391456604, 0.10193944722414017, -0.05734141916036606, -0.07339320331811905, 0.004995197523385286, 0.00908807385712862, 0.07281710207462311, 0.0006146252271719277, -0.022082768380641937, 0.05437159910798073, -0.05475699156522751, 0.013827159069478512, -0.11830461025238037, 0.01734272949397564, -0.07595556229352951, -0.10965707153081894, -0.09592245519161224, -0.12330596894025803, 0.10467416793107986, -0.007873466238379478, -0.10615966469049454, -0.07548987865447998, -0.02078511007130146, -0.13518597185611725, -0.08332628756761551, -0.0007433183491230011, 0.01070407684892416, -0.06294351071119308, -0.12027887254953384, 0.03261379897594452, -0.051264382898807526, 0.008676978759467602, 0.07616884261369705, -0.031466420739889145, 0.011142135597765446, 0.052873555570840836, 0.06047189235687256, 0.11043958365917206, 0.0034106969833374023, 0.03409688547253609, 0.037608519196510315, 0.0010779764270409942, 0.07723943144083023, -0.05462263524532318, 0.03379841148853302, 0.08769284188747406, -0.00107753521297127, -0.06213422492146492, -0.13461066782474518, 0.1168590784072876, -0.11405441910028458, 0.014312532730400562, -0.10851334780454636, -0.02920861728489399, 0.09879159182310104, -0.075872041285038, 0.05059558153152466, -0.054616525769233704, 0.11976844817399979, 0.11380995064973831, -0.12528586387634277, -0.04715266078710556, -0.09943521022796631, -0.0053992378525435925, 0.08210993558168411, -0.014836838468909264, -0.013266249559819698, 0.01517066452652216, 0.0030082790181040764, -0.065211720764637, -0.031089983880519867, -0.04822612926363945, 0.10814899951219559, 0.07429762929677963, 0.01867268979549408, -0.03200934827327728, -0.061398718506097794, 0.08025576174259186, -0.10143139958381653, 0.04969456046819687, -0.09775369614362717, -0.03158779814839363, -0.08914869278669357, 0.08460310846567154, -0.07779164612293243, 0.06646117568016052, 0.07262982428073883, -0.11286702007055283, 0.08710519224405289, -0.07695409655570984, 0.09756439924240112, 0.01614428497850895, 0.060433048754930496, -0.032547518610954285, -0.0687352865934372, 0.052765022963285446, 0.06544218957424164, -0.06438853591680527, -0.07410398870706558, 0.015824979171156883, 0.11015717685222626, 0.08381716161966324, -0.0811815932393074, 0.10169660300016403, -0.11168046295642853, -0.08700013160705566, -0.11391714960336685, -0.06253103166818619, -0.008836161345243454, 0.07121782004833221, -0.006422592326998711, -0.10615251958370209, -0.06432653218507767, 0.11267149448394775, -0.09061692655086517, 0.0658307820558548, -0.02081132121384144, 0.07166711241006851, 0.002795109059661627, -0.058637794107198715, -0.09564846009016037, 0.021891409531235695, 0.09895515441894531, 0.08279009163379669, -0.09648212790489197, 0.01053009182214737, 0.06856338679790497, -0.06829722970724106, -0.11508752405643463, -0.11209531128406525, 0.10334057360887527, -0.11738999933004379, -0.05152663215994835, 0.10876114666461945, 